2989 50
spanish||m.06nm1 0.00174974 0.367418 -0.199775 1.1781 -0.0411754 0.344304 0.500419 -0.0691817 -0.41186 0.129566 0.329057 -0.989494 0.0192567 -0.248383 0.542451 -0.173742 -0.261721 0.128994 0.101259 -0.0635529 0.939874 -0.146474 0.143625 0.350629 0.48973 0.530831 -0.14397 0.422147 -0.328643 0.097048 0.0609171 -0.0130079 0.186528 0.0244937 -0.163338 -0.125759 0.46622 0.147951 -0.0162812 0.62847 -0.0550593 -0.463003 -0.0378994 0.493364 -0.0533639 0.322589 0.414175 -0.0597219 -0.717243 0.235163
law||m.04gb7 -0.314354 0.539618 0.0984035 0.087802 0.449426 -0.239546 -0.242211 -0.513199 0.220091 -0.612728 -0.375906 -0.185979 0.168797 -0.884436 0.840869 -0.0872537 0.0253019 0.4944 0.411996 0.140188 0.846839 -0.226453 0.367219 0.0393818 -0.0243651 0.809462 0.0512988 0.411051 -0.16659 0.469893 0.813053 0.223288 -0.192519 -0.562252 -0.397382 0.000461379 -0.639888 0.631127 -0.889376 -0.0984604 0.0992893 -0.128839 0.259392 0.663562 -0.544934 0.350507 -0.0658857 -0.234985 -0.236165 0.389894
expert||m.02pkl -0.162563 -0.187576 -0.198464 1.28767 0.0640236 -0.182519 -0.115209 -0.638056 0.791488 -0.10859 -0.221553 0.45769 -0.243037 -0.658333 1.10754 -0.498793 0.092731 -0.235382 0.260686 0.0232758 0.580324 0.284188 0.185312 -0.117773 0.699679 0.0301348 0.201406 -0.444352 -0.442553 0.234399 0.195244 -0.377972 -0.575981 -0.454677 0.751316 0.0737285 0.01354 0.225112 -0.260738 -0.190767 0.213238 0.276414 -0.24816 0.521784 -0.541358 -0.543965 0.525368 0.258142 -0.557965 0.540866
middle_east||m.04wsz 0.698914 0.423882 -0.148655 1.02735 0.00595254 -0.293727 0.466957 -0.507548 0.113045 0.264724 -0.226323 -0.0151248 -0.0627482 -0.318063 0.887225 -0.0570798 0.815615 -0.63188 -0.125199 0.0436025 0.687744 0.734992 0.995321 0.0936336 -0.6742 0.0168964 -0.166671 -0.397182 -0.399033 0.264577 -0.316496 0.949928 -0.0266165 -0.261948 0.0467932 -0.140719 -0.265882 -0.242591 -0.0726766 -0.406862 0.348519 -0.410253 0.179366 -0.00790012 -0.79789 0.00720974 0.285577 -0.485941 -0.295201 1.13902
lawyer||m.04gc2 -0.425806 0.207092 0.352966 1.01953 -0.50789 -0.186489 -0.503686 -0.501586 1.07102 -0.602355 0.0978252 -0.0536246 0.114447 -1.2075 1.28067 -0.423898 0.207487 0.346077 0.102137 -0.234485 0.143467 -0.307223 0.446158 0.651462 0.887264 -0.124734 0.789293 0.0654449 -0.102488 0.336071 0.099117 -0.0103893 0.38576 0.107873 0.348085 0.0787729 -0.00877022 0.374273 -0.365254 0.00858534 -0.260941 -0.176166 -0.161781 0.107919 0.59574 0.128985 0.55745 0.0415632 -0.455321 0.014781
web_services||m.0n5rs 0.539765 0.158199 0.379339 0.591496 -0.0526639 -0.0815228 0.295068 -0.327068 -0.0561334 -0.305155 0.755921 -0.163909 0.947469 0.226824 0.931838 -0.0216752 -0.165593 -0.735418 0.254923 0.122572 0.24816 0.217469 0.129912 0.762596 0.250524 -0.112278 0.311254 0.216814 0.0433522 -0.0193912 0.480068 0.424052 0.416501 -0.551902 0.21214 -0.271869 0.301774 0.559263 -0.783672 0.00436852 0.188192 0.0548889 -0.0441021 0.766625 -0.615327 -0.308098 -0.205755 -0.381716 -0.298772 0.501812
britain||m.07ssc 0.638795 0.483695 -0.00606947 0.413448 0.67402 0.131699 0.250476 -0.142864 0.000919581 0.494924 0.387939 -0.0768175 -0.00519985 -0.358962 0.733295 -0.277815 0.0618155 -0.406586 0.255242 0.524004 0.88279 0.45548 0.338902 0.652306 0.302956 0.258017 0.125783 0.0236909 -0.328246 -0.0232711 0.165392 1.00755 0.22208 0.171176 -0.297926 0.21686 -0.172107 0.394188 -0.0179144 -0.179825 0.310892 -0.0754969 0.0488994 -0.324517 -0.162257 0.648428 0.488525 -0.169088 -0.244791 0.877346
chemical_weapons||m.0bwkbcx 0.0429164 0.462847 0.093178 0.0725792 -0.0575595 -0.15225 -0.480928 0.343547 0.61411 -0.118365 -0.343106 -0.594633 0.151904 -0.678985 1.69144 0.184193 0.867358 -0.525265 -0.479684 0.127775 1.41899 0.805752 1.19949 0.317221 -0.385039 -0.355152 -0.170955 -0.586379 -1.53418 -0.13425 0.332053 0.766205 -0.639841 0.923902 0.351987 0.273885 -0.945638 0.768196 -0.62067 0.0381988 0.200205 -0.316572 0.725483 0.198608 -0.791449 -0.27896 -0.807054 -0.612787 0.777783 0.44527
syria||m.06vbd 0.157858 0.534068 -0.120588 0.628019 0.297339 -0.457949 0.0395107 0.152435 0.390298 0.181428 -0.119397 -0.428696 -0.115623 -0.796902 1.00254 0.0888537 0.859271 -0.653763 -0.206199 -0.0634164 1.32371 0.56277 1.37492 0.432057 -0.858501 -0.165672 -0.285116 -0.504117 -0.768017 0.229191 0.193861 1.07201 0.0112019 0.411239 -0.0885049 -0.0729335 -0.521151 -0.0993477 -0.310847 0.0179162 0.166495 -0.352637 0.545567 0.137243 -0.63669 -0.190522 -0.0257002 -0.74916 0.791934 0.507935
washington||m.081yw 0.176751 0.167385 0.485171 0.54459 0.515992 0.0510135 0.180975 -0.441331 0.0804189 0.454685 -0.413454 0.130356 0.131809 -0.861223 0.554878 0.142741 -0.0952571 0.283441 0.520957 -0.0493712 0.72425 -0.127693 0.402856 0.57649 -0.0630192 0.0684883 0.10806 -0.325589 0.150886 0.30285 -0.0640251 0.317008 0.15924 -0.0774276 0.166794 0.199204 -0.175316 -0.191097 -0.627408 -0.460516 0.438293 0.0124688 -0.34802 -0.0428917 -0.800276 -0.190248 0.066015 -0.646744 0.56769 0.339545
action_movie||m.02kdv5l 0.502109 0.437987 0.00426023 0.0368469 0.183886 -0.102517 0.649775 0.0393535 -0.368812 -0.449366 0.106614 -0.443565 0.878994 -0.130924 0.883955 -0.10144 -0.397185 0.105957 0.0597992 -0.561453 0.380361 0.158138 0.149739 -0.392863 0.155165 0.141876 0.404021 -0.50412 0.0403471 0.0313626 0.0929005 0.174133 0.147247 0.180706 -0.388097 0.171095 0.2611 -0.0973168 -0.151395 -0.410828 0.398155 0.504525 0.243902 0.176701 -0.00608986 -0.377657 -0.0674034 -0.248959 -0.29104 0.553588
vice_president||m.0dq3c 0.287187 0.482106 -0.0759129 1.29301 -0.600094 -0.640841 -0.278933 -1.02331 0.43657 0.00229057 0.0232994 1.21071 0.726201 -0.49179 0.93106 -0.395555 0.614845 0.111421 0.312956 0.337556 0.198732 0.421091 0.102572 0.028507 1.09818 -0.0967328 0.0237698 0.111017 -0.30206 -0.104518 -0.0483672 -0.494032 0.681422 -0.312805 0.552458 0.212776 0.52934 0.249359 -0.456475 -0.113242 -0.237176 0.536372 0.478431 0.268157 -0.430749 -0.8054 0.556015 -0.11842 -1.18919 0.27408
humor||m.09kqc 0.192027 -0.244745 0.0894395 1.21819 -0.156076 -0.23674 0.917212 0.148779 0.023716 -0.731127 0.641038 -0.994071 0.215311 -0.120309 1.47527 0.471988 -0.434137 0.343529 -0.904843 -0.416199 0.189849 -0.204488 0.112676 -0.573654 -0.00321865 -0.524001 -0.124565 -0.146315 0.146007 -0.0331714 0.529473 0.314878 0.0363764 -0.243737 0.12021 -0.0409695 0.0622129 0.474827 -0.68465 -0.015673 0.27933 -0.238478 0.474237 -0.00828349 -0.0225078 -0.118818 0.21941 -0.474388 0.125144 0.401588
film||m.02vxn 0.461437 0.370836 0.151041 0.453017 -0.133087 0.0385121 0.329016 -0.266117 -0.0333642 -0.17113 0.0180252 -0.69211 0.814637 -0.238131 1.21939 0.0961038 -0.420963 -0.0460611 -0.118524 -0.426504 0.526867 0.461203 -0.131494 -0.263449 -0.206469 -0.298311 0.31526 -0.757984 0.198724 -0.217031 0.248282 0.311381 -0.0075137 0.381552 -0.152851 0.24042 -0.170685 0.319186 -0.213135 -0.0762207 0.246439 0.241834 0.382175 -0.0825117 0.205172 0.0644922 -0.322749 -0.568093 -0.416922 0.564111
advertising||m.011s0 0.611129 0.602572 0.344449 0.303358 -0.0198026 -0.295221 0.650406 -0.620483 -0.221844 -0.652002 0.545916 -0.404321 0.675828 0.16406 0.950687 0.238898 0.231438 -0.284395 0.331289 -0.199346 0.209497 0.622846 0.0829477 0.0551044 -0.114944 0.194438 0.0613244 0.292417 0.133838 0.15486 0.401191 0.501359 0.58274 0.258918 -0.0322462 -0.148133 0.276037 0.402751 -0.49655 0.00488929 -0.0942224 0.100978 0.353352 0.380987 -0.768177 -0.347317 0.0236981 -0.780064 -0.700363 0.0524001
horror||m.03npn 0.337677 0.0296184 -0.417119 0.0937839 -0.0124792 0.119697 0.606786 -0.277496 -0.300418 -0.210654 0.144466 -0.380442 0.530144 -0.219059 1.1077 0.279211 -0.00919552 0.24598 -0.857064 -0.95624 0.74698 0.312856 0.0849112 -0.208923 -0.202338 -0.288522 0.600159 -0.788087 -0.00295546 0.13945 0.103939 0.246665 -0.110017 0.207667 0.0268141 -0.00394104 -0.12985 0.131964 -0.275047 -0.301988 0.153572 0.124775 0.88863 -0.178923 0.217959 -0.0799651 -0.181015 -0.274949 0.131756 0.704341
telephone||m.07cx4 -0.0442574 0.517623 0.257497 1.35264 -0.0598207 0.450994 -0.15816 -0.738654 0.656584 0.333187 0.186273 -0.582179 -0.238412 -0.290337 1.08511 0.0635742 -0.0431892 0.10447 0.494063 -0.771034 0.753272 0.29739 0.545531 0.549561 0.407576 -0.209037 0.124441 0.407151 -0.537181 -0.077576 0.141982 -0.470979 0.225005 0.00852933 0.0993233 -0.211135 0.550443 0.220253 0.107679 0.348908 -0.03907 -0.43047 0.0543891 0.0951414 -0.0785992 -0.21933 0.278906 -0.882066 0.000257088 0.167663
saturday_night_live||m.039cq4 0.443485 0.808933 0.100978 1.02059 -0.498529 -0.0636051 0.511901 -0.238183 0.0187176 -0.0845685 -0.203409 -1.01226 1.11426 -0.165015 1.19102 0.335843 -0.507804 0.367327 0.167378 -0.481587 0.213899 0.489423 0.0443431 -0.0047692 0.0621187 -0.472663 -0.329052 -0.813896 0.901177 0.379021 0.483882 0.0593098 0.809793 0.783994 -0.638289 0.583137 0.202863 -0.192678 -0.427507 -0.246146 0.321939 -0.0799594 0.720791 0.600691 0.645856 -0.415768 -0.394177 -0.608756 -0.214199 0.74829
ford||m.02zs4 0.20148 0.229594 -0.209364 0.323082 -0.141659 0.273833 0.10055 -0.120724 -0.242596 -0.334165 0.428427 0.328331 0.995874 -0.252586 0.764704 0.360118 0.0666282 0.166166 0.494562 0.121608 0.501565 0.328894 0.492725 0.0686683 0.411367 -0.270326 0.219642 0.366934 -0.01964 0.163107 0.360715 0.779879 0.626723 0.117859 -0.0432488 -0.372558 0.679279 0.0518962 0.0560005 -0.779053 0.162176 0.376939 0.0604227 -0.299056 -0.288446 0.411429 -0.435127 -0.676633 -0.343159 -0.0270311
male||m.05zppz -0.114753 -0.0084057 -0.75523 0.318679 -0.294827 -0.0558443 0.320102 -0.655779 -0.390662 -0.228292 0.29176 -1.02516 0.420658 -0.0303648 0.473989 0.0719253 -0.347639 -0.359567 0.0732443 -0.170599 1.05499 -0.244828 -0.231154 -0.102866 0.233179 -0.0573738 0.426784 -0.0848128 -0.121217 0.409388 0.23044 0.416289 -0.130095 0.460021 -0.322553 0.0204613 0.255286 -0.24298 -1.04234 -0.454286 0.217035 0.0255069 0.0423027 0.139785 0.0192573 0.601307 0.551988 0.216654 -0.517596 0.492292
actor||m.02hrh1q 0.752177 -0.0199698 -0.160828 0.564174 -0.815216 -0.493453 0.192036 -0.406617 0.702817 -0.0996513 -0.477311 -0.634572 1.29661 -0.358085 1.31385 0.351572 -0.500977 -0.444532 -0.282563 -0.394204 0.440494 -0.441932 0.0418139 -0.614915 0.277421 -0.415037 0.378437 -0.907577 0.299339 0.223584 0.483585 -0.0280607 0.640068 0.9218 -0.136383 0.194666 0.0330512 0.203885 -0.176306 -0.0286306 0.655078 0.214664 -0.00492887 0.0360634 0.901981 -0.15122 0.502806 -0.28167 -0.197681 0.489479
grammys||m.0c4ys 0.417942 1.02829 0.315827 -0.0859924 -0.311973 -0.0873618 0.418796 0.00624074 -0.222855 -0.343026 -0.240973 -1.15528 0.77458 -0.0250113 0.865162 0.107028 -0.693556 0.0714116 -0.00255732 -0.0220926 0.749837 0.514776 -0.231208 -0.0584829 0.709301 -0.291456 0.032793 -0.320681 0.196747 0.299239 0.386391 0.306211 0.230783 0.260924 -0.866825 0.627981 -0.208303 0.0573113 -0.882103 0.000934823 0.344056 0.631505 -0.116815 -0.237226 0.259654 -0.042328 -0.106306 -0.33675 -0.446701 0.976282
italy||m.03rjj 0.401754 0.56184 -0.00105395 0.399092 0.45599 0.269868 0.237011 0.293736 -0.247018 0.334112 0.467719 0.0897491 0.0160239 -0.457546 0.349587 -0.357245 0.228606 0.112865 0.280838 -0.117492 0.857673 -0.192133 0.33477 0.544398 0.13806 0.457524 -0.0337165 0.0723847 -0.223498 0.0437922 0.427603 1.39039 0.433854 0.057986 -0.199109 -0.00620745 -0.177166 0.166309 0.141975 0.108517 0.325374 -0.207519 -0.000452271 -0.262422 0.0600371 0.806605 0.666285 0.441688 -0.154808 1.08152
actress||m.02hrh1q 0.847783 0.094497 0.164648 0.829006 -0.873367 -0.356669 0.245954 -0.640714 0.705926 0.0111906 -0.448808 -0.951617 1.18035 -0.186558 1.1303 0.176884 -0.765678 -0.22928 -0.11079 -0.393378 0.547584 -0.635052 -0.218123 -0.671916 0.318099 -0.63833 0.572072 -0.683044 0.635778 0.447695 0.536606 0.249533 0.636001 1.03634 -0.231547 0.122746 -0.0139211 0.588343 -0.396524 -0.100281 0.898748 0.371902 -0.0206011 -0.296005 1.11427 0.425554 0.586681 -0.0860547 -0.484789 0.565299
generation||m.0ndhl 0.399344 -0.0602008 -0.542854 0.432914 -0.289179 -0.483606 -0.0492572 -0.331397 -0.336369 -0.820068 0.0532231 -0.505252 0.601939 -0.447729 0.861174 -0.309341 -0.507209 -0.0387081 0.187187 -0.144535 0.842377 0.221472 -0.408327 -0.529195 -0.467762 0.407042 0.376926 0.142937 -0.12586 0.0407092 0.296643 0.98229 0.306701 -0.604044 -0.384642 -0.0941558 0.196423 0.0749656 -0.89784 -0.795867 -0.263553 0.293814 0.66855 -0.437445 0.226853 0.384429 0.449409 -0.233367 -0.53858 0.836648
pants||m.07mhn -0.519848 0.287673 -0.487111 0.234704 0.412134 -0.541156 0.789382 0.0089935 -0.433525 -1.04177 0.161605 -0.909355 0.695105 -0.332234 0.3583 -0.119721 -0.368615 0.447119 -0.652549 0.303471 0.72041 0.543701 -0.105077 -0.304084 0.665721 -0.230946 0.471391 0.947585 0.223069 0.424641 0.329016 0.132691 0.63736 0.519015 -0.416021 -0.129436 1.23076 0.850865 -0.492325 -0.182408 1.38498 -0.508348 0.273238 0.0829059 -0.134407 0.106153 -0.317861 -0.0394397 0.223998 0.0706472
short||m.02hmvc -0.491366 0.719186 0.0687271 0.211451 0.0248669 -0.00268916 0.465269 0.0917142 -0.196342 0.226296 0.000615099 -0.417734 0.190683 -0.251674 0.529509 0.0497727 0.054053 0.105317 -0.0637089 -0.323513 0.504534 -0.733846 0.207058 -0.0111046 0.170912 -0.0830232 -0.168109 -0.0256555 -0.75265 -0.0324947 -0.21196 0.518705 0.401674 -0.0753789 -0.0464057 0.166194 0.362407 0.343413 -0.563277 -0.126178 0.799942 0.0184143 0.193439 -0.306838 -0.396935 -0.581086 -0.0117958 -0.234507 0.151801 -0.0179069
queens||m.0ccvx -0.543796 1.14649 -0.269896 0.631333 -0.0779472 0.0619119 0.390214 -0.317422 0.674641 -0.504054 -0.01465 0.0053063 0.641007 -0.505863 0.150563 -0.355533 -0.0328444 0.13895 0.356334 -1.35739 0.570003 -0.380733 0.128063 0.334349 0.33283 -0.0321783 0.0607736 0.196002 0.93781 0.408287 -0.1206 0.587539 -0.270078 0.0430037 0.0295556 -0.0039074 0.519181 -0.154183 -0.202713 0.0680623 -0.177844 -0.393102 0.124323 0.0193618 -0.249988 0.202564 0.0691328 -0.350559 -0.362812 0.422607
windows||m.0d4v4 -0.805804 0.525339 -0.335669 0.00310768 0.286468 0.460783 0.258108 0.257422 0.678131 -0.647445 0.660372 -0.466225 0.0807259 -0.288236 0.313622 -0.476444 -0.247332 0.348297 -0.875538 -0.683709 1.13408 -0.0244703 0.159946 0.524265 0.316949 -0.370754 0.0875032 0.397973 0.219315 0.0438809 0.610769 0.68666 0.441268 -0.250408 0.126477 -0.628421 1.05568 0.541296 0.0628436 -0.238036 0.349383 -0.14129 0.348818 0.0266016 -0.731664 0.00566767 -1.11128 0.412985 0.341107 0.970897
benjamin_netanyahu||m.0fm2h -0.115918 0.488511 0.5528 1.71741 0.122774 -0.837359 -0.371305 -0.584217 0.631891 0.846812 0.130046 -1.12971 0.178564 -0.768029 1.33073 0.0207096 0.137883 0.682026 -0.00109116 0.593932 0.894692 -0.22006 1.17109 0.226434 -0.477902 -0.439155 -1.06479 0.0515418 -0.524903 0.369052 0.296326 1.00037 0.443223 0.348683 0.0452081 -0.412197 -0.342396 -0.202114 0.1259 -0.313825 0.710398 -0.0823551 0.606078 -0.323445 0.27008 -0.188455 -0.000995995 -0.219937 0.67961 0.810296
iran||m.03shp 0.339102 0.265257 0.154031 0.946605 0.2773 -0.490408 -0.0528079 -0.0414195 0.42035 0.11577 0.0154762 -0.361553 0.0561746 -0.329587 0.921364 0.122844 0.67038 -0.73059 0.310642 0.706663 1.31589 0.0518265 1.18561 0.17158 -0.0968777 -0.120414 -0.498399 -0.285803 -0.839324 0.00972797 0.125466 1.03832 0.0441849 0.0155671 -0.340321 0.206757 -0.703452 0.120396 -0.139486 -0.653564 0.48437 -0.256327 0.51109 0.0427797 -0.610612 -0.0590638 -0.423516 -0.375165 0.293194 0.621575
president_obama||m.02mjmr -0.393793 0.743812 0.19059 0.82314 0.0727602 -0.142152 -0.168102 -0.883411 0.199117 0.131315 -0.19838 -0.233823 0.187201 -0.614496 1.11066 0.367131 -0.266343 0.433535 0.349477 0.343515 0.486907 -0.117671 0.835756 0.171113 -0.258625 0.460915 -0.362202 -0.0452602 -0.0609786 0.657183 0.187338 0.629731 0.145867 -0.0252098 -0.31462 0.163701 -0.439774 -0.214271 -0.699299 -0.546303 0.236338 0.160578 0.535319 -0.270317 -0.382065 -0.38453 -0.222382 -0.880732 0.409215 0.342262
obama||m.02mjmr -0.426489 0.855448 -0.079197 0.858145 -0.181872 -0.0326717 -0.0211293 -0.648117 0.155786 -0.0286549 -0.17564 -0.421395 -0.00432178 -0.754854 1.16647 0.452819 -0.302783 0.261388 0.407304 0.311472 0.498519 -0.0755873 0.993119 0.0735736 -0.176793 0.29816 -0.57638 -0.126959 -0.140868 0.584301 0.349274 0.924825 0.309628 -0.158391 -0.158465 0.0613844 -0.332126 -0.19811 -0.560183 -0.447101 0.0913352 0.101185 0.69103 -0.3951 -0.335676 -0.299345 -0.398434 -0.898582 0.0920078 -0.0134067
united_states||m.09c7w0 0.237775 0.427982 -0.0791187 0.608056 0.297483 0.0912753 0.0485672 -0.144643 0.0192565 0.444867 -0.168836 -0.220483 0.11193 -0.615431 0.656726 0.0759153 0.182432 -0.38062 0.388319 0.492536 0.799168 0.372244 0.779976 0.377065 0.208322 0.28145 0.557329 -0.235195 -0.166288 -0.0881404 -0.255069 0.827093 0.00931923 -0.0602525 -0.191859 0.0611308 -0.00532026 0.0759476 -0.381666 -0.150683 0.207381 -0.149458 0.157897 -0.0690704 -0.745972 0.618306 0.0294794 -0.509968 -0.107372 0.479109
united_nations||m.07t65 0.28393 0.0895741 0.271212 0.81088 0.0413153 -0.217405 -0.440886 -0.216731 0.251518 0.542141 -0.623741 0.0694032 -0.311395 -0.722777 1.03118 -0.297504 0.244375 0.136226 0.290374 -0.0551116 1.41076 0.600011 0.85833 0.250935 -0.195561 0.17577 -0.256552 -0.293784 -1.1148 0.198069 0.507949 0.576767 -0.373771 0.79256 0.121341 0.112206 -0.71003 -0.0192199 -0.529195 0.308917 -0.299901 -0.126402 0.0812588 -0.0304547 -0.632422 0.232647 -0.218095 -0.690336 0.170339 0.8342
experts||m.02pkl -0.403766 -0.248024 -0.278263 0.177636 -0.270013 0.20078 -0.13107 0.117357 0.238586 0.157189 0.283641 -0.180311 -0.132962 -0.262615 1.23951 -0.482296 0.268148 -0.0480556 0.728684 0.216722 0.856893 0.372678 0.0292404 0.593531 0.551338 -0.0188839 0.290501 -0.442187 -0.374709 0.792066 0.500446 0.475724 -0.517481 -0.338153 0.300738 -0.584205 -0.067427 0.391092 -0.731471 -0.0357059 0.230384 0.38513 0.00453193 -0.0807558 -0.792433 -0.255317 0.136849 -0.246284 0.294685 0.557473
retired||m.06lry -0.629145 -0.0927132 -0.603302 0.262099 -0.335735 -0.0479954 -0.18369 -0.648207 -0.0671739 -0.120195 -0.544118 0.347515 0.656519 -0.681934 0.717058 -0.541509 0.14017 0.362882 -0.0846156 -0.418695 0.165394 -0.0490358 0.433598 0.652659 1.04485 -0.0222606 -0.206678 0.191893 -0.168251 -0.0685246 -0.233613 0.0651399 0.592776 0.0591909 -0.329677 0.218979 0.171485 -0.488895 -0.463133 -0.342775 0.247362 0.00905978 -0.212233 0.0203916 -0.207921 0.592949 0.608862 -0.170762 -0.836707 0.454577
washington||m.0rh6k 0.144595 0.163365 0.448445 0.906568 0.65252 0.00177235 -0.194106 -0.857302 0.433909 0.501739 -0.534506 0.0389529 0.156022 -0.811123 1.09055 -0.106514 -0.179676 0.115352 0.257125 0.0248818 0.750274 -0.0564314 0.346032 0.905773 -0.331082 0.000997809 -0.194255 -0.3634 0.3905 0.508885 -0.0718179 0.170498 0.125191 0.106046 0.0679579 0.267716 -0.188857 -0.295749 -0.449708 -0.642045 0.186305 0.167771 -0.268996 -0.00211725 -0.569266 -0.272353 0.171734 -0.829778 0.557902 0.530312
nightmare||m.0cjgc 0.214481 -0.295326 -0.192393 0.108537 0.354904 -0.400049 0.375617 -0.0303047 -0.0428157 -0.192761 0.482827 0.240233 0.344855 -0.656065 0.779351 -0.00936705 -0.0720381 0.733213 -0.000709772 -1.05199 0.116361 -0.000340101 0.287553 -0.0192838 0.343597 -0.135781 0.13397 -0.630051 -0.337316 -0.233874 0.340237 0.317059 -0.0632291 -0.361575 -0.27199 0.135467 -0.0368794 -0.0268799 -0.316519 -0.383415 0.284455 -0.044797 0.657466 0.319235 -0.0530137 -0.262245 0.452874 -0.108249 -0.18775 0.897461
u.s.||m.09c7w0 0.171673 0.388315 -0.161293 0.423083 0.610691 0.0606994 -0.388162 -0.611014 -0.16925 0.405119 -0.2883 -0.128802 0.0668281 -0.551624 0.781284 0.228504 0.144843 -0.0937071 0.540196 0.326086 0.635861 0.204874 0.590651 0.692073 0.277421 0.293301 0.558929 -0.224119 0.0406757 0.38419 -0.388895 0.622733 0.0289647 0.101163 -0.0238049 0.174667 0.263945 0.23933 -0.0540543 -0.552116 0.350988 0.110981 -0.0961301 0.0816816 -1.19389 0.490331 0.270258 -0.530438 0.0937947 0.209918
carbon_dioxide||m.01s7k 0.0946786 0.163604 -0.247544 -0.219646 -0.272521 -0.163993 0.108288 0.275616 -0.591287 -0.296797 -0.453398 0.1104 0.00244452 0.444599 0.905009 0.15657 0.0130299 -0.832342 0.319568 -0.576401 0.867241 0.136698 0.652683 -0.875861 0.0024105 0.144983 -0.36373 0.303994 -0.64887 0.643354 1.39137 1.13338 -0.335018 0.219499 -0.238868 -0.376207 -0.0698908 1.11198 -0.361695 -0.1628 0.775634 0.241325 0.652561 0.800555 -1.81377 -0.45854 -0.247409 -0.383271 0.032766 1.0786
congress||m.07t31 -0.250101 0.86814 -0.0460965 0.407484 0.390927 -0.133038 -0.26675 -0.325132 0.237697 -0.163877 -0.632211 -0.357993 -0.211887 -0.404383 1.24073 0.109144 -0.0922009 0.383008 0.467285 0.249487 0.540253 -0.351874 0.442511 0.539386 -0.43437 0.555568 -0.126919 0.251722 -0.224364 0.63829 0.425582 0.683275 0.132271 0.226566 -0.541677 0.0253992 -0.438805 0.129235 -0.867144 -0.383789 0.230518 0.225803 0.620956 0.337881 -0.698619 -0.0835198 -0.242365 -1.06863 0.514794 0.534146
executive_branch||m.02sdd -0.382217 0.943645 -0.138589 0.836479 0.102189 -0.166184 -0.668738 -0.0648568 -0.270894 -0.351246 -0.374037 -0.0230311 -0.401556 -0.683429 1.41956 -0.266461 0.517928 -0.0249955 0.289541 0.574146 0.354663 -0.336256 0.139944 1.01519 -0.227484 0.0925562 -0.0718228 0.0697854 -0.497649 0.429372 0.7351 0.442808 0.246272 -0.188453 -0.538087 -0.0333689 -0.281917 0.271037 -1.07693 -0.329509 -0.114649 -0.0343598 0.316298 0.851725 -0.621247 -0.266947 -0.30786 -0.140669 -0.0237325 0.607465
action||m.02kdv5l 0.162211 0.297021 0.0578644 -0.0735945 0.500842 -0.725036 -0.216799 -0.189731 -0.224506 -0.276559 0.0774017 -0.0928109 0.0289661 -1.19732 1.19264 0.205987 0.0495559 -0.0224413 -0.0543527 0.229267 0.303664 0.369976 0.601888 0.579468 -0.145581 0.411537 0.324251 -0.279507 -0.472085 -0.041974 0.419218 0.319078 0.0539559 0.0287336 0.437214 -0.351009 -0.372262 -0.105364 -0.868097 -0.201015 0.698175 0.170148 0.458375 -0.361468 -0.401108 -0.314892 -0.15285 0.218294 0.213819 0.218707
alternative||m.016clz -0.256288 0.252049 0.0123825 0.422853 0.437003 -0.51955 0.0787428 -0.0294606 0.181172 0.0146916 0.222556 -0.466924 0.501875 0.00313837 0.902209 -0.209938 -0.247645 -0.303888 0.453074 0.199553 0.521247 -0.265328 0.39743 0.337847 -0.227666 0.176828 0.333227 -0.0665821 -0.3127 -0.359572 0.623221 0.875096 0.336155 -0.67034 0.460216 -0.293415 0.278176 -0.166837 -0.394188 -0.0180962 0.384975 0.330794 0.142695 0.629135 -0.0707373 -0.832744 0.191132 -0.015736 -0.441539 0.230968
democrats||m.0d075m 0.0621747 1.02414 -0.411293 0.504372 0.13756 -0.309859 0.103864 -0.336178 0.41346 -0.421046 -0.320115 -0.986803 0.100005 -0.38991 0.855306 0.118234 -0.117774 0.240234 0.6405 0.312538 0.565027 -0.99573 0.37999 0.0523258 -0.294227 0.0708994 -0.198001 0.579387 0.369856 1.19833 0.686529 0.789609 0.775842 -0.0677432 -0.311024 -0.593321 -0.485156 -0.00928894 -1.16497 -0.200165 0.117688 0.455788 -0.421509 -0.135388 -0.221004 -0.55222 0.252609 -0.51217 0.864311 0.72
depend||m.03mcm3 0.118733 0.0394799 -0.378152 0.674906 0.555636 0.150951 -0.0236507 -0.409123 -0.144138 -0.321437 0.132208 0.185004 -0.206885 -0.309068 0.560787 0.608327 0.569777 -0.200762 0.600054 0.242737 0.409006 0.564506 -0.207858 0.63963 -0.0978257 -0.134986 0.0725616 -0.184907 0.177739 0.231027 -0.0300965 1.4892 0.174023 -0.284864 0.583998 0.181038 0.716788 0.394749 -0.962322 1.04513 0.587903 -0.0570449 0.712618 0.39 -0.316069 -0.554345 0.395306 -0.229392 -0.262391 0.802471
days||m.02bbq -0.212314 0.271051 0.173073 -0.271808 -0.273043 -0.849298 0.0468067 -0.431984 -0.241249 0.158462 0.262815 -0.178307 -0.227147 -0.711075 0.749313 0.0620568 0.0915611 0.255713 0.300013 -0.785971 0.536011 0.18753 0.177113 0.692034 0.359465 0.134877 -0.109046 -0.113926 -0.1195 0.0509063 -0.479765 0.366381 0.362423 -0.00960062 -0.605331 -0.461051 0.309873 0.105147 -0.450668 -0.0740943 0.42974 0.245066 0.389885 -0.393005 -0.0500771 -0.410876 -0.0620153 -0.0886605 0.318074 1.13489
joe_biden||m.012gx2 0.283933 0.230688 0.525852 1.4705 -0.054166 -0.158759 -0.479823 -1.34192 0.0564663 0.441016 -0.413756 -0.556313 0.550979 -0.912552 0.782079 -0.0137168 -0.782601 0.531192 0.388793 0.837885 0.854741 -0.0913661 0.737159 0.440322 -0.0463217 0.133604 0.133842 0.0343208 0.239714 1.13741 0.00308748 0.436106 0.55089 0.33504 -0.162882 0.254402 0.30236 -0.638923 -0.724481 -0.585511 0.322107 -0.162118 0.37396 -0.794628 -0.279698 -0.186616 -0.0923324 -0.522973 0.25774 0.35975
organization||m.0qb7t 0.344137 0.160054 0.201905 0.391293 0.00716458 -0.303848 0.0421447 -0.489937 0.400684 -0.579144 0.212549 0.0608799 0.158285 -0.958837 0.742462 -0.102011 0.082252 -0.0261918 0.279322 0.111484 0.791562 0.366113 0.223657 0.172926 -0.0593733 0.117341 0.00364844 -0.187302 -0.747239 -0.125542 0.36871 -0.0189615 0.00438149 -0.193228 0.153108 0.195891 -0.0787932 0.178807 -0.677606 0.290961 -0.535755 0.130614 0.196074 0.198538 -0.458268 -0.0429757 0.392446 -0.755496 -0.556182 0.439079
construction||m.01jnzj -0.448398 -0.0309094 0.720622 -0.174548 0.313164 0.0917536 0.0437999 0.118508 0.321076 -0.0775711 0.209621 0.154904 0.701678 -0.397956 0.426479 -0.527756 0.404557 0.395205 0.189771 -0.228785 0.899115 0.302073 0.561174 0.362103 0.109054 0.0425048 -0.463993 0.13858 -0.29112 0.263645 0.399629 0.639488 0.504278 -0.435227 0.349017 -0.702353 0.461934 0.281751 -0.158103 -0.175217 0.203953 0.221409 0.220147 0.200572 -0.931697 0.21993 -0.179328 -0.613616 -0.492486 0.449321
night||m.01d74z 0.240856 0.595241 0.136751 -0.104948 0.0992803 -0.0655094 0.299535 -0.760739 -0.31181 -0.334127 0.331378 -0.485963 -0.112969 -1.13987 0.0924085 0.45124 -0.0150417 0.82469 0.0585272 -0.929102 0.576989 0.00509331 0.45791 0.28142 0.311874 0.0307398 0.346289 -0.292248 0.00500461 0.0859079 -0.0169542 0.168913 0.366856 0.589262 0.471669 0.177554 0.370089 0.0486534 -0.183972 0.308686 0.407183 -0.1927 0.461024 -0.236897 -0.0526187 -0.53841 -0.266771 -0.264433 0.0334424 0.61642
stock_market||m.0drqp 0.661742 0.731814 0.969565 -0.112956 0.551865 0.810411 0.583894 0.519114 0.429955 0.259716 0.622728 -0.577589 0.356553 -0.59129 1.10827 0.103548 0.280126 -0.300717 -0.0479478 -0.332543 0.0387805 -0.0876261 0.434059 0.345939 0.114249 0.73273 0.176752 0.310614 0.177027 0.679006 0.144306 0.773166 0.828211 0.175391 0.283071 -0.118526 0.424859 0.463449 -0.0335774 -0.83392 0.423846 -0.00220339 -0.00268089 0.20188 -0.324129 -0.593156 0.33513 -0.543576 -0.130147 1.06496
plans||m.02q2rhf -0.0775556 0.283159 0.567752 0.27188 0.244191 -0.4805 -0.158593 -0.619058 0.188368 -0.238063 -0.113142 -0.310793 0.615952 -0.526178 0.780598 -0.0171543 0.272049 0.235488 0.53642 0.327569 0.285669 0.489787 -0.311882 0.762253 0.50794 0.301017 0.0582853 0.139315 -0.310818 -0.158378 0.262382 0.968318 0.222006 -0.320137 0.058017 -0.479925 0.278916 0.0168782 -0.0257753 0.1152 0.375198 0.267685 0.299564 -0.359343 -0.44469 -0.259214 -0.290553 -0.417479 0.207907 0.285422
pension||m.0by51 -0.282761 0.50982 0.496273 -0.0188991 0.309054 -0.0131488 0.163995 -0.268152 0.150529 -0.66784 -0.251858 0.157346 0.162735 -0.0711707 1.01199 0.150754 0.500023 0.895901 -0.28405 0.18006 0.212192 -0.693871 0.12739 0.607001 -0.0114127 0.757541 0.048555 1.01055 0.148905 0.347336 0.877774 1.43415 0.608048 -0.0774398 -0.078434 -0.359353 -0.0395602 0.442821 -0.580503 0.260115 -0.19199 -0.0899611 -0.00449374 0.480012 -0.656303 0.182288 0.451872 -0.931692 -0.381199 0.882246
baby_boom_generation||m.0cpgf -0.173811 0.19673 -0.319994 0.126462 -0.137433 -0.0722958 0.162318 -0.165292 -0.14985 -0.152208 -0.115982 0.100692 0.668236 -0.18811 0.811781 0.100765 -0.0181877 0.143288 -0.149069 -0.0991317 0.251708 -0.26011 0.0627688 -0.158517 -0.123053 0.329436 0.103849 0.0399297 -0.0222838 0.320611 0.20234 0.875553 0.348395 -0.138744 -0.0181723 -0.170544 0.072355 0.217369 -0.387746 -0.214607 0.309632 0.105017 0.408135 0.0195213 -0.333025 0.0187947 0.450178 -0.399497 -0.38777 0.719174
baby_boomers||m.0cpgf 0.225186 -0.27068 -0.567929 0.492506 -0.780928 0.605026 0.501625 -0.977413 -0.492951 0.285867 -0.0336724 -0.673657 0.872305 -0.00526429 1.44818 0.384025 -0.392828 0.214373 -0.15091 -0.239558 0.396302 -0.168802 -0.376807 -0.600545 -0.285789 1.54319 -0.260107 0.272874 1.00647 0.220017 0.687477 1.12373 0.086923 0.183202 0.14966 -0.543345 0.336453 0.101297 -0.498065 -0.485092 -0.564828 0.190177 0.131148 0.341214 -0.304287 -0.550048 0.462557 -1.20004 0.265474 1.73208
day||m.02bbq -0.0974831 0.148594 0.0115431 -0.192059 -0.0142051 -0.465395 -0.0315846 -0.463181 -0.579262 -0.0503511 0.181459 -0.30784 -0.237884 -0.878138 0.434563 0.381519 0.0166014 0.22657 0.205438 -0.901518 0.63067 0.215854 0.4818 0.24452 0.348958 0.201091 0.240988 -0.0882515 -0.533655 0.149229 -0.203632 0.385636 0.309852 0.101639 -0.389991 0.207912 0.565506 0.317019 -0.0129786 -0.0871836 0.339387 -0.0823299 0.480287 -0.186324 -0.224795 -0.624834 -0.073232 -0.298222 -0.428844 0.701061
retirement||m.06lry -0.586317 0.150949 0.0974794 0.0407296 0.0771755 -0.0605779 0.223574 -0.68053 -0.251919 -0.266191 -0.230494 -0.136096 0.780338 -0.604808 0.954527 0.243773 0.171956 0.867931 -0.221997 0.180142 -0.0824234 -0.133394 -0.137399 0.429275 0.204838 0.714282 -0.441944 0.713522 0.116215 -0.103928 0.146014 0.912397 0.201057 0.223455 -0.104287 -0.0727638 0.0209766 -0.160083 -0.498394 -0.224082 -0.0175317 0.0645483 0.306387 0.0180838 -0.560322 0.288049 0.16315 -0.313974 -0.642429 0.684185
general_electric||m.03bnb 0.376021 0.449041 0.287947 0.32292 -0.0632682 0.180792 0.381942 0.276076 0.0846952 -0.417613 0.365393 0.388288 1.06815 0.155978 1.07079 -0.769411 0.550521 0.043615 0.461608 0.569707 0.399023 0.283258 0.462482 1.06941 0.351424 -0.0647056 0.485918 0.693993 0.223086 -0.0608618 0.140926 0.247701 0.653756 0.469008 -0.204402 -0.198309 0.336894 0.365802 0.081743 -0.940019 0.718224 0.294852 -0.534097 0.236946 -0.684933 -0.319761 0.0890407 -0.986654 -0.217678 0.432118
rose||m.06m11 -0.0494278 0.0138477 0.861403 0.313105 0.578567 0.618994 0.167823 -0.387907 -0.796128 -0.39357 -0.373392 -0.0682423 -0.0204019 -0.046807 0.305011 -0.0138458 0.756482 -0.910651 0.198257 -0.44321 0.999743 0.127818 0.826828 0.033425 1.17506 0.22386 0.201628 0.834204 -0.255106 0.519022 -0.557636 0.573128 1.02957 0.305992 0.280327 -0.0945296 0.842047 0.0595411 -0.582819 -0.256939 0.591353 0.576317 0.0443449 0.207049 -0.0513857 -0.156384 0.447102 -0.440407 -0.602524 0.429171
south_korea||m.06qd3 0.663817 0.276021 0.248221 1.06048 0.271524 0.00922098 0.0542705 0.0604697 -0.276906 0.573294 0.197425 -0.224838 0.514685 -0.513997 0.541455 0.11351 0.30574 -0.31392 0.32021 0.733716 0.928039 0.0366004 1.11315 0.383775 0.46171 0.171098 0.00459135 0.0140092 -0.371775 -0.0911453 -0.303418 0.758696 -0.457135 0.0724575 -0.0883179 -0.325496 0.311417 -0.122916 -0.172902 -0.913901 0.708548 0.082922 -0.25426 -0.516854 -0.548729 0.628736 -0.411732 -0.27847 0.207438 0.710218
mta||m.021_5z -0.0637446 0.395792 0.318172 0.149925 -0.222044 -0.0564047 -0.230919 -0.439455 0.130492 -0.275351 0.0398434 0.442735 0.537498 -0.381553 0.767521 0.12666 0.227037 0.164056 0.772919 -0.0294347 0.359562 -0.148467 0.312129 0.675227 0.43869 -0.296888 -0.199113 0.448377 -0.155728 0.136105 0.513453 0.773397 -0.1872 0.561559 0.142532 -0.170482 0.216988 0.280712 -0.0387364 -0.0960542 0.131134 0.0600517 0.0299584 0.558527 -0.540848 -0.143617 -0.298918 -0.506162 0.0698528 0.472718
projects||m.0156dy -0.0217053 0.0400048 0.619978 -0.0310137 -0.332975 -0.517413 0.179609 -0.144264 0.514011 -0.288253 0.114183 0.0246304 0.486984 -0.026274 0.878195 -0.481115 0.147038 0.0362533 0.26698 -0.118039 0.400872 0.388742 0.18794 0.536834 -0.122307 0.193527 -0.315505 -0.242723 0.0162742 0.0945453 0.257627 0.843899 0.346402 -0.586056 0.119153 -0.629016 0.0293741 0.106424 -0.313452 0.467035 0.350539 0.0618703 0.0596388 0.0152751 -1.03749 -0.123153 -0.0910534 -0.713724 -0.239524 0.913841
federal_government||m.01bqks -0.185297 0.557568 0.292124 0.0913918 0.160036 0.109747 -0.0469043 -0.19502 0.249099 -0.250922 -0.21472 0.191301 0.447741 -0.47549 0.787642 0.336003 0.301584 0.260077 0.629526 -0.180258 0.447088 -0.398915 0.489601 0.40089 -0.259497 0.484704 0.356101 0.556784 -0.0102989 0.435315 0.358894 0.959065 0.100657 -0.0745004 -0.255283 -0.0225194 -0.33703 0.59815 -0.716146 0.112235 -0.201902 0.011816 0.449199 0.720333 -0.913188 -0.017831 -0.0697147 -0.976347 0.42475 0.528112
chief_executive||m.0dq_5 0.546463 0.664955 0.0344762 0.807999 -0.474286 -0.196633 -0.049798 -0.462436 0.295322 -0.307721 0.442419 1.08382 0.70124 -0.305785 1.42591 -0.753996 0.433731 0.386662 0.262883 0.168693 -0.174924 0.527226 0.0135544 0.22173 0.595626 -0.249704 0.416721 0.688693 -0.275079 -0.0630926 0.113673 0.221953 0.756243 0.238469 0.276787 0.0132649 0.30545 0.281412 0.268148 -0.274555 0.0508292 0.829137 0.26908 -0.0332473 0.201623 -0.716558 0.497337 -0.378613 -0.330798 0.514346
tonnes||m.07ny7 0.397336 -0.530653 0.629977 -0.130656 -0.444189 -0.176007 -0.339713 0.423482 0.293838 0.503809 -0.911283 -0.0987551 0.532045 0.595155 0.70337 -0.3238 0.132647 -0.515977 0.249094 -0.921239 1.57141 0.536911 0.990781 -0.493577 0.645251 -0.0787595 0.531362 0.346051 -1.09381 0.558194 0.0510586 1.10873 0.640002 0.752215 -0.673275 -0.509706 0.149253 1.17044 0.604323 0.521568 1.01077 0.343014 0.953164 -0.0156115 -1.2743 0.0754676 -0.0228942 -0.831941 -0.390466 1.20665
the_delays||m.0557_6 0.162001 0.272753 0.0999399 -0.0980801 -0.0754195 -0.181498 0.230638 0.255675 -0.00407532 0.25493 0.319553 -0.113785 0.308706 -0.282206 0.955672 -0.0779508 0.227594 0.27891 0.297339 -0.108039 0.512735 -0.0435593 0.0697774 0.407259 0.366713 -0.0766634 0.0612393 0.0119096 0.070515 0.288905 0.132562 0.53925 0.186634 -0.353459 0.177452 -0.617818 0.0463567 0.183713 -0.462452 -0.162658 0.37843 -0.23827 0.266232 0.214257 -0.55049 0.0423433 -0.00166127 -0.0823318 0.367155 0.54471
project||m.0156dy -0.0985085 -0.00473053 0.403173 0.029339 0.0334638 -0.264981 -0.0094953 -0.180773 0.467152 -0.555545 0.156587 0.147681 0.583451 -0.616905 0.7349 -0.37379 -0.0133961 -0.0169837 0.478076 -0.256806 0.560326 0.0982324 0.162537 0.0800736 -0.0279927 0.0852929 -0.11869 -0.282879 -0.218966 -0.0400736 0.425451 0.77194 -0.221902 -0.15949 -0.0504674 -0.150716 -0.0416857 0.149218 0.0519712 0.123844 0.193061 0.352296 0.211454 0.0836898 -0.483709 -0.0610572 -0.0337536 -0.817137 -0.360576 0.508161
acres||m.0t8t -0.117794 0.129822 0.544452 -0.301168 -0.188251 -0.31713 0.270415 0.0936986 0.51834 -0.525008 -0.653782 0.0595144 0.681429 -0.439959 0.118963 -0.374424 -0.283576 -0.348012 -0.0324778 -0.954052 1.1455 -0.299493 0.208478 -0.209277 0.507757 -0.671136 0.274055 0.774651 0.790426 0.652003 0.521403 1.17587 -0.237692 0.397094 -0.191123 -0.712661 0.713761 0.665935 0.0599397 0.826585 0.413413 0.322551 0.629328 -0.00748032 -1.15298 0.118746 0.109994 -0.802663 0.705849 0.85173
chairman||m.09d6p2 0.325266 1.08449 -0.41187 0.655406 -0.161099 -0.127678 -0.426061 -0.664858 0.291307 -0.3881 -0.218625 1.06187 0.225014 -0.55005 1.51458 -1.0584 0.334801 0.349136 0.474273 0.526736 0.0565546 -0.0342076 -0.327092 0.401794 0.518797 -0.326434 0.317892 0.32261 -0.101018 0.477282 0.314819 -0.0536305 0.472962 0.128974 -0.0701255 0.0467934 0.164307 0.273031 0.124353 -0.194169 0.495912 0.593723 0.413442 -0.156986 -0.1543 -0.77438 0.875622 -0.229794 -0.155892 0.356315
prison||m.0d1w9 -0.730877 0.307725 0.265127 0.0971211 -0.073934 -0.851674 -0.143084 -0.448493 0.800927 0.371362 -0.906008 -0.34488 0.22944 -0.2705 0.841016 -0.247789 0.484517 0.0664752 -0.167449 -1.10232 0.547468 -0.293277 0.781359 0.414404 0.30861 0.0982906 -0.0524184 -0.19292 -0.171899 0.683425 -0.0505086 0.871067 0.412458 0.742304 -0.554385 -0.0567909 -0.304725 0.460834 -0.877702 0.0146465 0.196502 -0.586556 0.617697 0.0879835 -0.0105743 0.753845 -0.00800097 0.202999 -0.415402 0.507388
portland||m.02frhbc 0.297344 0.584983 0.569512 0.442649 0.141831 0.0452076 0.855529 -0.162667 0.276688 -0.421188 0.349233 0.232468 0.724772 -1.01207 -0.0604103 -0.152191 -0.0777515 0.0593448 0.592372 -0.926114 0.634335 -0.165701 0.111432 0.603339 0.0302741 -0.00130505 0.342443 0.0430509 0.351327 -0.364598 0.14141 0.0789442 -0.189603 0.409809 0.0441755 0.190525 0.279795 -0.144589 -0.810427 -0.134988 0.313258 -0.113502 -0.68177 -0.00618348 -0.502977 -0.0673515 -0.00491757 -0.49133 -0.0692447 0.2378
correctional_facility||m.0d1w9 -0.347019 0.688443 0.407077 0.0100946 -0.0385523 -0.263911 -0.133701 -0.862683 0.544079 0.132005 -0.569017 0.119833 0.548527 -0.590716 0.632035 -0.248824 0.0292019 0.301087 0.103794 -0.863286 0.805543 -0.0353674 0.0579591 0.0822306 0.590505 -0.0771078 0.00364294 0.0581681 0.448046 0.230469 -0.0901017 0.00512606 0.139651 0.496117 0.394598 0.0100026 0.28935 0.370123 -0.226354 0.120034 0.407089 -0.330207 0.0876011 -0.127237 -0.0219647 0.364413 -0.126684 0.0651514 -0.270255 0.260157
sheriff||m.0mb31 -0.224288 0.713244 0.0151138 0.611321 -0.409781 0.312067 -0.150322 -0.880308 0.41394 -0.178214 -0.103589 1.06732 0.637964 -0.598532 0.98637 0.220229 0.368038 0.48626 0.422616 -1.42051 0.094857 -0.345846 0.523104 0.516604 0.169905 -1.14153 0.435451 0.929855 -0.207381 0.706859 0.955059 0.165101 0.100938 0.696119 0.264204 -0.162237 0.556775 0.803851 -0.922472 -0.232411 -0.408221 -0.674997 0.136201 -0.0411373 0.0628235 0.215388 -0.734338 0.195952 0.327498 0.169376
telecommunications||m.029g_vk 0.471208 0.618915 0.194049 0.913153 0.449201 0.220209 0.0943664 -0.328156 0.237667 -0.31145 0.455321 -0.131333 0.551375 -0.0223602 0.729322 -0.492441 0.310221 -0.257185 0.904006 0.425715 0.173367 -0.0736857 0.578978 0.674508 0.485802 0.0986036 0.0712747 0.305133 -0.499611 0.406528 0.502948 0.168329 0.465255 -0.495689 -0.102867 -0.260211 0.00558243 0.4607 0.0455241 0.0198694 -0.116311 0.0732452 -0.089312 0.670242 -1.44961 -0.0568415 0.0711219 -0.164355 -0.482175 0.552529
times||m.09rkd 0.459983 0.57023 0.433512 0.56057 -0.021359 -0.0175656 0.586371 -0.552371 0.153036 -0.0121092 0.431313 -0.147444 -0.0998304 -0.52388 1.19563 -0.20696 0.304059 -0.106094 0.0926203 -0.233454 0.885354 0.477243 -0.318568 0.518584 0.354884 0.0492577 0.267093 0.431581 0.145801 0.201769 0.262217 0.0556275 -0.322025 0.403796 -0.450521 0.0154248 0.0106232 0.407112 0.0534533 0.0612876 -0.0761704 -0.042596 0.0785102 0.414942 0.212942 -0.259317 -0.0366004 -0.32942 -0.525282 0.406151
foreign_direct_investment||m.02n7nb 1.00605 0.140563 0.750224 0.547544 0.532701 0.184047 0.648458 0.201462 -0.133493 0.321596 -0.0530741 -0.373854 0.0844581 -0.355715 0.768313 -0.320756 0.0677366 -0.751082 0.315093 0.381941 0.358255 -0.158314 0.492024 0.235506 0.0807961 0.371344 0.200611 0.54008 -0.557832 0.218432 0.127863 1.07666 0.703719 0.405867 -0.333801 -0.328107 -0.379036 0.435551 -0.316089 -0.279921 0.355111 -0.0107082 -0.140253 0.0243702 -1.22191 0.0124992 0.66192 -0.66785 -0.185591 1.19917
location||m.078x4m -0.672475 0.432384 0.446732 -0.0390232 -0.455991 0.159299 0.0526888 -0.348891 0.528495 -0.044483 0.304866 -0.399929 0.368508 -0.922888 0.689673 0.139616 0.476614 -0.5318 -0.23008 -0.507605 0.66055 -0.0430526 0.0315645 0.220005 -0.0808265 -0.518549 0.163835 -0.121338 -0.294586 -0.294906 0.16979 0.588611 -0.476518 -0.00149252 0.361676 -0.1383 0.434205 0.155595 -0.0142257 0.273879 0.578742 -0.175056 0.53897 0.0833667 -0.697709 -0.272024 -0.101194 0.0859772 -0.490201 0.454667
general||m.0130xz -0.264563 0.255806 -0.494373 0.664842 0.237352 -0.0993242 -0.00357149 -0.12173 -0.182659 0.266859 -0.12647 0.145643 0.190621 -0.423281 1.40816 0.214627 0.499061 -0.0380813 -0.44791 0.277203 0.517984 0.191182 0.318026 0.319972 0.225929 -0.0538091 -0.00735717 0.232723 -0.255433 0.375896 0.28835 0.173103 0.377565 -0.0785909 0.244713 -0.138739 0.123636 -0.0734927 -0.401905 0.148969 -0.165255 -0.00448011 0.347431 0.0392683 -0.401835 0.100353 0.137499 -0.0851975 -0.472148 -0.118098
champions_league||m.0c1q0 0.977698 1.00413 0.0681723 0.391495 0.0285651 -0.122442 0.23763 0.806759 -0.234767 -0.246421 0.590614 -1.61081 0.426275 -0.895539 0.213871 0.0587106 0.809233 1.07378 0.0598019 -0.144617 0.669579 0.157348 0.250331 -0.0846458 -0.186463 0.530761 0.0700765 0.0626332 -0.666449 -0.460162 0.711643 0.86579 0.799826 0.909288 -0.501312 0.644892 0.322279 -0.371088 -0.401079 0.172109 0.498218 0.241361 -0.153137 0.0286179 -0.514634 0.0269165 0.509319 1.06557 -0.695959 1.58706
fall||m.0134l -0.0829031 0.305598 0.113423 -0.194624 0.34173 0.173449 0.249584 0.0274376 -0.712194 -0.590259 -0.187732 -0.139151 0.137732 -0.612909 0.585695 0.236579 0.20035 -0.0806706 0.473095 -0.436342 0.869202 0.595782 0.296534 -0.00686382 -0.0638777 0.401062 -0.0424199 0.147253 -0.0637065 0.531983 -0.506839 0.624629 0.405793 -0.209023 -0.275406 -0.100954 0.222224 0.189025 -0.28226 -0.164959 0.696899 0.575921 0.53343 0.0312394 -0.102737 -0.109036 0.311226 -0.216014 -0.321971 0.33426
midfielder||m.02nzb8 0.258855 0.288308 -0.218894 0.802516 -0.766994 0.118939 0.304144 0.852329 0.29271 -0.0639695 0.247925 -0.541087 0.613051 -1.09081 0.87311 -0.277366 -0.173242 0.34582 0.103099 -0.00136329 0.359233 0.0590341 0.545879 -0.0472576 0.217687 0.773254 0.0245786 0.149257 -1.13033 -0.578312 1.06867 -0.0680274 1.24345 1.25024 -0.161732 0.183521 0.606558 -0.505304 0.0022598 0.371299 0.706672 -0.509502 -0.521632 0.0352512 0.140539 0.273114 0.683394 1.02107 -0.0882751 0.847566
news_conference||m.01s8fx -0.338943 0.542699 0.139592 1.14543 0.483632 -0.614289 -0.450721 -0.438899 -0.00745233 0.0826267 0.0668732 -0.197039 -0.57614 -1.42398 1.26705 -0.0659355 0.0869298 1.01371 0.182502 -0.329506 0.15281 0.382651 0.421718 0.430288 0.563132 0.146723 -0.163651 0.315381 -0.199934 0.309506 0.262797 -0.346871 0.0625039 0.491152 0.696962 -0.191862 0.762044 -0.425798 0.459666 -0.148553 0.418295 0.0614573 0.581906 -0.625536 0.149722 -0.425465 0.0343021 0.0478133 -0.681378 0.66031
borussia_dortmund||m.01w_d6 1.18427 0.781853 0.119057 0.634687 -0.303658 0.129064 0.556131 1.09063 -0.650013 -0.395196 0.35239 -1.24663 0.417036 -1.14897 0.334859 -0.184668 0.179186 0.885695 0.247757 0.248948 0.723146 0.187627 0.310768 0.225698 0.0618825 0.819623 -0.282834 0.259427 -0.429035 -0.283378 0.937003 0.682781 0.92528 1.05677 -0.299008 0.256435 0.671695 -0.695391 -0.098172 -0.165582 0.422268 0.112859 -0.585574 -0.0628996 -0.157677 -0.135788 0.739639 0.928525 0.151645 1.63072
dortmund||m.01w_d6 0.856067 0.62596 -0.176403 0.548412 -0.463641 -0.0499764 0.610318 1.03817 -0.578564 -0.298915 0.664563 -1.18732 0.37084 -0.782823 0.486807 -0.11855 0.329626 0.944958 0.293974 -0.0370657 0.262978 -0.238828 0.525128 0.329454 0.182516 0.510975 -0.255652 0.349505 -0.634376 -0.548826 1.17201 0.60691 1.09929 1.00006 -0.37591 0.266734 0.543611 -0.144783 -0.057457 -0.0562625 0.224309 0.348416 -0.209816 0.232442 -0.0394932 0.0349413 0.523571 0.939484 -0.0678746 1.20595
striker||m.02sdk9v 0.294061 0.173966 -0.103543 0.773137 -0.790893 0.290607 0.574593 0.953277 0.311628 0.0289756 0.283186 -0.864144 0.603745 -0.925159 0.820849 -0.307187 0.0570882 0.14766 0.0150678 0.128206 0.571558 -0.102624 0.707141 0.00942795 0.12709 0.631004 -0.168826 -0.0713154 -1.29775 -0.663 1.04759 0.288084 1.28405 1.17654 -0.351393 0.310261 0.275566 -0.54551 0.0862018 0.323568 0.526931 -0.390083 -0.444611 0.0922413 0.063762 0.262644 0.572603 1.145 -0.142696 1.06629
king||m.04syw -0.0648518 0.481295 -0.129784 0.343092 -0.186605 -0.305069 0.512643 -0.267201 -0.245291 -0.625939 0.146327 -0.110424 0.200622 -0.973053 0.739927 -0.0852838 0.0655492 0.384781 -0.332013 0.188325 0.814472 0.0836285 0.468986 0.117387 0.287292 0.117499 -0.226683 0.303909 0.219476 -0.178619 0.127229 0.729941 -0.207984 -0.0134031 -0.177998 0.609252 -0.203087 -0.280006 0.0406643 -0.263673 0.274315 0.104113 0.184876 -0.242347 0.135052 -0.00976033 0.243451 0.3702 -0.0342319 0.185504
television||m.07c52 0.592747 0.593381 -0.0168774 0.874897 0.285508 0.093763 0.371604 -0.591644 -0.196237 0.292312 0.46687 -0.737468 0.292289 -0.125776 0.799552 0.437551 -0.256931 0.172741 0.287897 -0.36129 0.446846 0.63394 0.0769775 0.303159 0.186096 -0.358593 0.0678633 -0.502788 -0.0842492 0.470562 0.42119 -0.00906975 0.652143 0.19717 -0.20135 -0.0915759 0.46005 0.020657 -0.166893 0.583079 -0.0969799 -0.154772 0.801021 0.204424 -0.264815 -0.108839 0.0233653 -0.16162 -0.354661 0.334514
real_mallorca||m.01vqc7 0.365979 0.555489 0.00212879 0.385986 0.021296 0.0868122 0.216192 0.296466 -0.0599176 -0.187867 -0.0672907 -0.870827 0.478295 -1.01477 0.0618788 0.191808 0.242297 0.53046 -0.0184871 -0.25332 0.698104 -0.284997 0.587711 0.207913 0.529427 0.333211 -0.270438 0.0573601 -0.389789 -0.252634 0.383292 0.462561 0.919406 0.704338 0.155181 0.286765 0.48112 -0.36941 -0.0876802 0.261656 0.351816 0.158527 -0.441087 -0.449867 -0.483946 0.0670562 0.292679 0.926517 0.0256676 0.99044
ap||m.0cv_2 0.235934 -0.69099 0.760233 0.547794 0.989353 0.562318 0.520835 -0.682652 0.144562 0.452371 -0.31918 0.907753 0.584503 -1.05498 1.21561 0.0996591 -0.741449 0.279146 0.609363 0.188421 1.30407 -0.163076 0.0768759 0.908115 0.0993941 -0.690185 0.56294 -0.283245 -0.0906216 0.346466 -0.415005 -0.556223 0.56412 0.206666 -0.0374921 0.152698 0.547946 -0.277243 -0.50641 0.164549 0.12676 0.104856 -0.748845 0.116587 0.0924266 -0.269147 0.403543 0.296105 0.437123 0.74662
unemployment_benefits||m.0218w7 -0.373236 0.349645 1.97011 -0.349159 -0.319271 0.546909 -0.558529 -0.172874 -0.067256 0.349554 -0.903716 -0.810123 0.400534 -0.212379 0.767158 0.804523 -0.364874 0.837811 0.512017 -0.32026 0.908898 -0.460038 1.20079 0.490742 0.927014 0.8999 1.13935 0.827237 -0.719235 1.72741 0.697465 0.703058 1.03112 -0.308425 -0.0879883 -0.676459 0.46914 0.69509 -1.57495 -0.365843 -0.41723 0.00816327 0.87705 -0.125663 -0.547706 -0.0378224 0.646825 -1.1065 -0.0316351 0.723036
education||m.02jfc 0.161998 0.303055 0.271829 0.599141 0.101056 -0.304313 0.443397 -0.718868 0.246234 -0.378271 -0.299419 0.0640912 0.152393 -0.431637 0.723681 -0.116737 0.239724 0.0519449 0.112346 -0.0081084 0.391062 -0.381555 -0.0228478 0.335007 -0.214276 0.332477 -0.350492 0.493214 -0.141957 0.377109 0.680783 0.340964 -0.0872757 -0.375823 0.0991742 -0.251008 -0.0263408 0.292564 -1.2604 0.0377688 -0.129801 -0.0064231 0.0312769 -0.0947115 -0.840789 0.127889 0.350181 -0.691728 -0.906691 0.447538
glaxosmithkline||m.01bbm7 0.865974 -0.259487 0.87734 0.158589 0.237758 -0.483551 0.45858 -0.473799 0.45029 0.113285 0.503504 -0.181806 0.959422 0.602482 1.39672 -0.477191 0.441512 0.20886 1.0838 0.613759 0.442469 0.583475 0.360574 0.659244 0.750337 0.295289 0.292508 0.342537 -0.210056 -0.218476 0.118087 0.832564 0.0423594 0.963195 0.00650335 -0.343375 -0.232516 1.37369 -0.374267 -0.910218 0.294516 -0.21861 -0.276903 0.221918 -0.315479 0.422824 0.156817 0.269092 -0.5071 0.988949
travel_agencies||m.02ty15 0.700465 -0.982346 0.960254 0.5529 0.0802879 -0.488224 0.380382 -0.457645 0.752973 -0.0689201 -0.0568876 -0.757493 1.05839 0.613694 0.627117 -0.566216 0.129204 0.0665028 0.868379 -0.152922 0.826455 0.102866 0.410251 1.59847 0.259899 0.243199 0.575197 0.437938 -0.580918 -0.10924 0.119082 0.681847 0.175001 0.577327 -0.0184553 -0.55621 0.0147038 0.304252 -0.325087 0.317302 -0.545997 0.0123349 0.0606362 0.538711 -0.90414 0.0761492 -0.350677 -0.382434 -0.0117233 1.18692
xinhua_news_agency||m.01n13b 0.0632786 0.436408 0.24174 1.18158 0.276222 0.00755414 -0.491366 -0.779214 -0.442048 0.764563 0.860988 -0.242653 -0.367353 -0.39315 1.13814 0.413858 0.498471 -0.104251 0.598645 -0.439081 0.866618 0.549637 0.81657 -0.350993 0.782299 -0.223289 -0.0552681 1.05652 -1.19282 0.811009 0.0817467 0.634293 -0.475395 0.646975 0.152178 -0.664789 0.188104 0.820636 -0.0543044 -0.0793344 -0.0119175 -0.809518 -0.103818 0.403582 -0.239947 0.376551 -0.0512837 0.0466323 -0.326835 1.00349
drugs||m.02kjb_ 0.0292818 -0.148282 0.013982 -0.0869112 -0.443373 -0.609385 0.454794 -0.591564 0.16478 -0.083733 -0.117722 -0.503218 0.639184 0.345265 0.987974 0.231396 0.209668 -0.112491 0.538609 -0.109937 0.529534 0.230762 0.265943 0.0181367 0.188276 0.252474 0.418534 0.113793 -0.22046 -0.0693265 0.0925546 0.580624 -0.1293 -0.232086 0.0504446 -0.228742 -0.244941 1.20451 -1.21948 -0.520326 0.449717 -0.296604 0.302872 0.373897 -0.570093 0.342464 -0.251387 0.353211 -0.103907 0.622607
drug||m.02kjb_ -0.198979 0.0132056 0.502903 -0.00122516 -0.150806 -0.299889 0.0954102 -0.859232 -0.116159 -0.00774158 -0.279538 -0.293352 0.706097 0.240255 1.04938 0.387338 0.195034 0.271835 0.890687 0.0884506 0.413986 0.161887 0.316483 -0.0927967 0.428944 0.158077 0.289698 -0.208928 -0.337756 -0.0728688 0.369051 0.640958 -0.287068 -0.154581 0.046587 0.0707391 -0.262011 1.09311 -1.10851 -0.730468 0.343459 -0.137754 0.243986 0.537618 -0.574918 0.407229 -0.22527 0.174285 -0.0623411 0.367666
xinhua||m.01n13b 0.160693 0.397275 0.278223 1.17251 -0.167899 -0.0711137 -0.00555864 -0.926684 -0.500932 0.703184 0.783666 -0.19666 -0.391145 -0.00922086 0.957176 0.267068 0.422834 0.00355488 0.832985 -0.706339 0.875469 0.445904 0.619959 -0.206244 0.262699 -0.278961 0.0737402 0.980876 -0.955807 0.807831 0.133739 0.698191 -0.545653 0.440367 0.246634 -0.731045 0.1252 0.805923 -0.266882 0.0464854 0.0605861 -0.331819 0.376407 0.323563 -0.308073 0.524607 0.159321 0.168544 -0.214121 0.520717
record_producer||m.0dz3r 0.265847 0.0824863 -0.281827 0.920015 -0.562504 -0.00729059 0.36698 -0.283739 0.143601 -0.550151 -0.0976715 -0.207802 1.22882 -0.0610757 0.992198 -0.322013 -0.350883 0.145054 0.00824557 -0.183505 0.458473 0.179259 0.13357 -0.0823242 0.331724 -0.210037 -0.073067 -0.470695 0.241948 0.0593801 0.100653 0.201751 0.541785 0.229453 -0.157702 0.36549 0.230193 -0.0718604 -0.128008 -0.114444 0.112303 -0.0525779 -0.168138 0.215761 0.44835 0.00127365 0.302112 -0.300581 -0.227165 0.32998
injury||m.02kh4w -0.364601 -0.413146 0.414583 0.100503 -0.286979 0.159206 0.749843 0.148121 -0.0119252 -0.23918 -0.22954 -0.296333 -0.00211188 -1.09826 0.885307 0.91899 0.673942 0.902671 -0.0438413 -0.677325 0.191828 0.335241 0.176249 -0.163363 0.01233 0.251666 0.220188 -0.0553343 -0.760553 -0.494879 0.50991 0.564831 0.368485 0.908758 -0.0783912 0.333593 0.431314 -0.168521 -0.649574 -0.595707 0.974846 -0.770152 0.0674323 0.39705 -0.277006 0.319048 0.630212 0.530476 0.0739746 0.828856
chinese||m.01r2l 0.423178 0.0536162 -0.141979 0.855832 0.174839 0.266041 0.386936 -0.390839 -0.181577 0.420859 0.657619 -1.32228 0.311055 -0.113143 0.650864 -0.326731 -0.0939937 -0.365164 0.470313 -0.0989634 0.838566 0.0109312 0.20513 0.377588 0.427925 0.0332612 0.00304351 0.144207 -0.261796 0.303056 -0.205948 0.616396 -0.790688 0.0451517 -0.00360338 -0.149813 0.148344 0.266638 -0.247331 -0.210006 0.0490343 -0.187583 -0.209761 0.120598 -0.436519 0.290895 0.0974901 -0.0178153 -0.350157 0.457061
hectares||m.09ppg -0.0177916 -0.599939 0.944594 -0.117058 0.143949 -0.211129 0.35338 0.102092 0.449044 -0.211732 -0.825059 -0.0340882 1.0112 -0.0216899 0.325353 -0.502127 -0.182335 -0.538301 -0.308843 -0.379215 1.71645 -0.729498 0.146587 0.0623886 0.45215 -0.646408 0.444314 0.789591 0.012517 0.543051 0.50689 0.964007 0.0607596 0.540459 -0.417608 -0.509961 0.317776 0.34899 0.0491514 1.00533 0.298588 0.299081 0.469729 0.328334 -1.04791 0.406618 0.252436 -0.744943 0.735225 1.08357
property_developer||m.028sdw 0.162415 0.0365829 0.0602494 0.848054 0.128597 0.00680635 0.187453 -0.359528 0.608635 -0.025197 0.378446 -0.194554 0.632431 -0.246674 1.01897 -0.868114 -0.116701 -0.232441 0.19409 -0.151875 0.391112 -0.105953 0.650946 0.34284 0.568408 -0.0134196 0.197507 0.421498 -0.124141 0.0655543 -0.0351461 0.558954 0.347953 0.298531 0.143356 0.0328618 0.0672256 0.423131 0.950633 0.00291337 0.0402744 -0.238144 -0.011487 -0.0211459 -0.0691563 0.139451 0.371208 0.122558 -0.372882 0.293302
natural_resources||m.05fsp 0.377678 0.249855 0.503104 0.900128 -0.349149 -0.156433 0.21683 -0.706723 0.178867 -0.169719 0.142191 0.618173 0.0241341 -0.48077 0.571892 -0.525165 0.785503 -0.121669 0.58692 -0.128322 0.0876743 -0.310946 0.448576 0.259973 -0.303815 -0.308171 0.455758 0.159541 -0.249833 0.511559 0.509323 0.81463 0.132936 -0.26826 0.350272 -0.258792 -0.151176 0.903502 -0.538176 0.490763 0.361322 -0.480531 -0.0723833 -0.379009 -1.31533 0.180778 0.427974 -0.259191 -0.0937642 0.50545
heritage_foundation||m.01tw7q 0.225381 0.788669 -0.138288 0.662217 0.475991 -0.0271108 0.0225702 -0.424907 0.368022 -0.552577 -0.153478 -0.11432 0.454053 -0.587359 1.67667 -0.46455 -0.341823 -0.218704 0.295044 0.0325331 0.278957 0.313035 0.423964 -0.113765 -0.28181 0.52932 -0.757432 0.39105 -0.25895 0.889476 0.432421 -0.325718 0.205811 -0.161082 0.207144 0.36117 -0.670185 0.096418 -0.784628 -0.474076 -0.269866 -0.122964 -0.504555 0.0906755 -0.700631 -0.56736 0.510747 -0.978664 0.261039 0.424304
credit_suisse||m.03g776 0.468382 0.695265 0.248691 0.518504 -0.105601 0.147493 0.296711 0.450497 0.44795 -0.183554 0.279459 -0.314975 0.193789 -0.158711 1.47459 -0.463456 0.848874 -0.0480001 0.126327 0.203063 0.109608 0.444556 0.423144 0.880046 0.598714 0.488766 0.544661 0.607235 0.319511 0.161627 0.159209 0.942214 0.581039 1.07944 0.657021 -0.420976 -0.449451 0.550731 0.348807 -0.451952 0.104563 0.218691 -0.763377 0.538423 -0.427428 -0.301634 0.577798 -0.148933 -0.840278 0.745941
laws||m.04gb7 0.190879 0.722871 0.117419 0.130266 0.328244 -0.687224 -0.363886 -0.267189 0.312721 -0.499953 -0.033208 -0.289541 -0.244206 -0.492202 0.926307 -0.0870771 0.137462 0.257455 0.454253 0.279719 0.874877 -0.0781392 0.229253 0.186488 0.251067 0.555949 0.587952 0.353237 -0.013629 0.441017 0.62992 0.201833 0.11654 -0.865534 -0.378256 -0.364732 -0.454067 0.910612 -1.32559 0.193431 0.260336 -0.119112 0.265491 0.515814 -0.743841 0.665949 -0.365922 -0.0911391 0.265643 0.671339
arrangement||m.0z9w -0.479065 0.216762 0.261856 0.507947 0.0161499 -0.419169 -0.106569 0.0526927 0.200595 -0.631537 0.124137 -0.642355 0.193404 -0.516684 1.01698 -0.308077 0.00494715 0.513074 0.296706 0.103982 0.571046 0.0400408 0.277629 0.274329 -0.0881875 -0.129611 0.293721 -0.145426 -0.0653033 -0.488912 0.417409 0.537762 0.178396 -0.43246 -0.138919 -0.483339 -0.125188 0.117514 0.16749 0.208082 0.327872 0.134616 0.371623 0.813832 -0.166249 0.122224 0.240125 -0.726703 -0.592862 0.294645
communications||m.01lhf 0.154051 0.235552 0.0924815 1.08819 -0.306967 0.113816 -0.0993556 -0.801922 0.303532 -0.342899 0.209829 -0.121262 0.115137 -0.390308 1.37041 0.00465023 0.30261 -0.121935 -0.121293 0.140956 0.235965 0.174468 0.0304666 0.914324 0.0584358 -0.109741 0.0232861 0.177378 -0.407619 -0.232716 0.132133 -0.366958 -0.0811273 -0.242181 0.368321 -0.242622 -0.0447728 0.0861386 -0.611522 -0.306988 -0.174054 -0.281997 -0.0260757 0.353016 -0.905283 -0.00428744 -0.292626 -0.303592 -0.35523 0.36677
alec_baldwin||m.018ygt 0.477678 0.365421 -0.011089 0.588889 -0.294939 -0.426514 0.775804 -0.551139 -0.30735 -0.299606 -0.0665666 -0.694873 1.15255 0.07688 1.08831 -0.137688 -0.569145 0.432597 0.173194 -0.0879009 0.54 0.468881 0.198996 0.413714 0.398603 -0.0698648 0.0844005 -0.598904 0.66584 -0.0101722 0.192924 0.133561 0.524458 0.66961 -0.427985 0.131027 0.00777164 -0.0435338 -0.216062 -0.0979419 0.223919 -0.135114 0.321016 0.148071 0.756712 -0.157155 0.207768 0.0282322 -0.112094 0.314611
los_angeles||m.030qb3t 0.229086 0.315914 0.457771 0.214631 0.242426 0.210083 0.584118 -0.608562 0.163371 0.119536 0.00355873 -0.0405982 0.914855 -0.610313 0.470614 -0.179008 -0.19096 0.279191 0.356011 -0.927439 0.567413 0.0945003 0.0231567 0.822076 0.190394 -0.0803974 0.246927 -0.555382 0.660961 -0.279208 0.0858035 0.18368 0.183017 0.337489 0.214071 0.182552 -0.00974665 -0.32678 -0.243404 -0.198002 -0.0526724 -0.0192408 -0.344289 -0.0720576 -0.332315 -0.0331452 0.125081 -0.207198 0.0906782 0.486274
bipolar||m.01g2q -0.206191 -0.537095 -0.0933267 0.722281 -0.413349 -0.207121 0.965152 -0.565783 0.0412058 0.1114 0.249578 -0.373867 0.730293 -0.61441 1.30631 0.136226 0.0424196 0.100757 -0.170085 -0.525629 0.157053 -0.106705 -0.166109 -0.425851 0.484118 -0.335356 0.0852037 -0.430971 0.0965165 -0.28009 0.145764 0.274263 0.298444 0.441861 -0.149559 0.263577 -0.393755 0.58543 -0.799061 -0.431964 0.508489 -0.495056 0.168326 0.256252 0.404217 0.245646 0.447802 -0.0939639 -0.365041 0.132163
black||m.0x67 -0.484406 0.66449 -0.942697 -0.0354719 0.210557 0.247707 -4.26942e-05 -0.46967 -0.403251 -0.679401 0.23429 -0.522539 0.590249 -0.415886 0.294428 0.116998 -0.303103 -0.107914 -0.0815438 -0.599569 0.977689 -0.535122 0.249334 -0.207906 0.570929 -0.00533695 0.469732 0.0741708 0.324806 0.717932 0.227681 0.527829 -0.0741951 0.19503 -0.0379672 -0.153841 0.281387 -0.24316 -1.04865 -0.409493 -0.353379 0.0634876 0.056888 -0.16688 -0.13136 0.576633 0.391409 -0.29275 -0.257243 0.15342
november||m.05cw8 -0.280298 0.962012 0.155139 0.0263244 0.753946 -0.291726 0.0379464 -0.360299 -0.173459 0.142361 -0.460858 -0.0924825 0.369666 -0.636515 0.45089 0.414416 0.402335 0.141747 0.70573 -0.318219 1.00633 0.562292 0.20757 0.31081 0.681347 0.489026 -0.108876 0.0679516 -0.255619 0.0873988 -0.260885 0.217711 0.470596 -0.0523912 -0.368006 -0.395219 0.285536 0.271151 -0.0434071 -0.400057 0.177883 0.682174 0.214709 0.0812146 -0.113233 0.38243 0.553249 -0.26518 -0.106562 0.359898
harry_potter||m.03647x 0.414274 0.341831 -0.0193102 0.497283 -0.33956 -0.170354 0.342305 -0.135782 -0.515994 -0.243869 -0.175535 -0.462221 1.05234 0.205288 0.995574 -0.287045 -0.162636 0.103186 -0.511955 -0.451808 0.724222 0.166016 0.0406492 -0.21162 0.000860178 -0.354669 0.254741 -0.410668 0.271651 -0.0991078 0.0429895 0.113118 0.329534 0.180677 -0.131312 0.475595 0.0738886 0.16432 -0.167743 0.0241175 0.454824 0.206889 0.240135 0.239872 0.373485 -0.0651886 0.156687 -0.0665644 0.121995 0.523075
harvard||m.03ksy -0.315492 0.580335 -0.0521313 0.705628 -0.387403 0.540423 0.907216 -0.367871 0.262254 -0.337675 -0.627075 -0.390509 0.225891 -0.708961 1.07562 -0.490481 0.0564129 -0.165702 0.104809 -0.103303 0.738641 -0.12122 -0.195196 0.242064 0.247112 0.616268 -0.277835 0.656034 0.00010998 -0.0444804 0.243861 -0.141777 -0.79086 0.183437 -0.145154 0.458653 -0.367433 -0.0400805 -0.761087 -0.736279 0.0765487 -0.00950796 -0.685291 0.00359838 -0.398656 -0.157737 0.472167 -0.451093 -0.703959 0.527092
led||m.04myn 0.0769955 0.333124 -0.204402 -0.0534554 0.561813 0.465218 -0.122776 -0.1397 -0.0793919 -0.933448 -0.0473768 0.112516 0.166517 -0.0414145 0.91753 -0.0290422 0.309977 0.108072 0.500824 -0.543822 0.529235 -0.0420515 0.452472 0.0776706 0.89377 0.192324 -0.254713 -0.242923 -0.457292 -0.626213 -0.30352 0.220165 0.104705 -0.0659363 0.1718 -0.0860502 0.0711392 -0.499447 -0.583133 -0.0762799 0.0208603 0.367247 -0.56408 -0.184982 -0.305699 -0.0358586 0.418823 -0.00225797 0.512089 0.43874
nfl||m.059yj 0.0231141 0.283804 0.27464 0.0667886 -0.516639 0.0792945 0.0420893 0.0655704 -0.139074 -1.00654 0.0168638 -0.369987 0.870325 -0.591204 0.82201 0.733512 0.466746 0.750221 0.228272 -0.145151 0.265785 -0.354561 0.143509 0.299412 0.273656 0.164701 0.13824 -0.484864 -0.000714182 0.0164893 0.505684 0.12837 0.190686 0.82677 -0.885866 1.34128 0.531627 -0.190365 -0.667821 -0.516025 -0.274845 0.00305302 0.107283 0.79858 -0.93851 -0.235183 0.175312 -0.645593 -0.0725962 0.605145
touchdown||m.01nv7n -0.690945 1.11357 0.252621 0.253114 -0.751484 -0.282902 0.00303553 0.559795 0.161687 -1.69843 -0.807622 -0.358868 1.07232 -0.494031 0.202247 0.75258 -0.550247 0.375367 0.365083 -1.38808 -0.0262779 -0.947331 0.541036 0.393818 0.605396 0.11405 -0.0692398 0.000286122 -1.05789 -0.414901 0.947431 -0.280225 0.276263 1.02746 -0.551097 0.832881 1.18034 0.796894 -1.26772 -0.598282 0.500798 0.17448 -0.677442 0.00963922 -0.481125 -1.14598 0.378038 -0.681068 1.02352 1.34644
yards||m.087tz -0.571913 0.361088 -0.0056396 -0.167032 -0.250267 -0.431625 0.333443 0.36019 0.287676 -1.05079 -0.934181 -0.267726 0.712821 -0.514403 0.113698 0.345351 -0.668168 -0.374237 0.015744 -0.825742 0.535779 -1.0362 0.31286 0.318154 1.03969 -0.0798353 -0.24628 -0.000931443 -0.639069 -0.60632 0.547073 -0.109575 0.356073 1.42123 -0.695707 0.677149 0.989837 0.766483 -1.01385 0.121245 0.348858 -0.0889773 -0.0096199 -0.425545 -1.15072 -0.772421 0.233653 -0.843731 0.723613 1.30315
quarterback||m.06b1q -0.335494 -0.0179675 -0.190486 -0.118279 -0.716775 0.0166333 0.282398 0.0849654 -0.154816 -1.02031 -0.635315 -0.171477 1.17385 -0.957333 0.959864 0.609713 0.0801602 0.702904 0.345438 -0.157941 -0.130862 -0.550798 0.140909 -0.156753 -0.143002 0.404386 0.0486032 -0.442126 -0.12278 0.186006 0.896584 -0.0676439 0.398349 1.11097 -0.64425 1.02188 0.668257 0.175625 -1.24969 -0.57871 0.384406 -0.0153014 -0.115927 0.488312 -0.686969 -0.575364 0.315696 -0.414134 0.418939 0.773629
playoff||m.0jxrg 0.406454 0.806892 -0.063922 0.0572279 0.05815 -0.067546 0.456097 0.275412 0.0875915 -0.485142 -0.200404 -1.05642 0.586241 -1.00864 0.305757 0.424249 0.509765 0.847976 -0.0502812 -0.301421 0.124034 -0.128693 0.2416 -0.649914 0.104717 -0.222022 0.637571 -0.470235 -0.00609228 -0.535862 -0.0322436 0.709878 0.400908 0.954664 -0.10358 0.697598 0.347233 -0.383852 -0.780773 -0.166594 0.776473 0.536441 -0.0102235 -0.229929 -1.17999 -0.262115 0.167557 0.405965 -0.0395437 1.13421
seed||m.09dh0 0.839248 0.592461 -0.414106 -0.0146791 -0.146678 0.336774 0.530807 -0.439545 -0.564142 -0.443232 -0.459493 -0.272926 0.0946781 -1.14283 -0.314952 -0.189574 -0.278407 -0.192852 0.624465 0.0218952 0.410517 -0.254976 0.449618 -0.517805 0.599701 0.168885 1.46661 -0.176837 0.0972982 0.0886698 0.00685369 0.935192 0.261698 0.671796 0.14045 0.508507 -0.204557 0.362488 -0.47625 0.0515121 1.0884 0.23562 -0.00423231 0.192045 -0.654932 0.161928 0.306936 0.548143 -0.292808 1.26391
dream||m.0c673 0.346288 -0.0164462 -0.408339 0.500118 0.144401 -0.271104 0.524528 0.103131 0.422829 -0.338378 0.100099 -0.461827 0.890964 -0.764886 0.731233 -0.0733347 -0.0574808 0.586253 -0.29344 -0.321369 0.530356 -0.00500587 -0.269699 -0.343025 0.0775207 -0.0665363 0.302034 -0.158852 -0.218353 -0.329892 0.208278 0.722052 0.102435 -0.496831 -0.391991 0.370711 0.0986527 0.0168123 -0.227096 -0.0210656 0.274539 0.177526 0.894621 -0.541713 0.111649 -0.0818012 0.069746 -0.19938 -0.470502 0.622931
navy||m.07wg3 -0.630963 0.116519 -0.243583 0.361124 -0.410771 0.302511 -0.367468 -0.330352 0.385925 0.385519 -0.567106 0.361352 0.899105 -0.330713 0.887346 0.0239284 0.170599 0.0909591 0.003985 0.045739 0.352929 0.0474641 0.791922 0.812376 0.245398 -0.393803 0.367014 -0.297279 -0.449957 0.192544 0.163882 0.480992 -0.344148 0.970934 -0.049724 0.0356206 0.611426 -0.130011 -0.414389 -0.573695 0.393142 0.110737 0.137586 0.0331743 -0.976385 0.761395 -0.466528 -0.510284 -0.156428 0.308981
smart_phone||m.0169zh -0.167307 0.23794 0.268709 0.321258 0.303345 0.151204 0.245223 -0.374234 -0.364499 -0.131094 0.48741 -0.362154 0.351716 0.176876 0.813289 0.244722 -0.174759 -0.598633 0.00123476 -0.174624 0.406441 0.195499 -0.0498352 0.101976 0.310762 0.275387 0.152252 -0.265018 -0.191261 -0.0213748 0.0136923 0.59672 0.44174 -0.171046 0.0965188 -0.298711 0.42104 0.633585 -0.397864 -0.104053 0.529784 0.187688 0.54202 0.193537 -0.53416 -0.287373 -0.547275 -0.0706391 -0.33696 0.502931
chairs||m.01mzpv -0.741061 0.376951 -0.926406 0.362851 -0.0676109 -0.352139 -0.0968311 -0.409861 0.217178 -0.509627 -0.0814918 -0.592239 -0.175473 -0.422501 0.613757 -1.27699 -0.80224 0.146591 -0.282905 0.0866289 0.786111 0.195492 -0.324908 0.700171 0.271176 -0.28872 -0.205868 0.286287 0.480478 0.373395 0.319413 0.220566 0.82178 -0.0781625 0.0588376 -0.0602739 0.692598 0.72201 -0.39909 0.474382 0.598863 -0.0738698 0.0297172 -0.145847 -0.720201 -0.436364 -0.530539 0.381057 0.113005 0.419798
yard||m.087tz -0.750308 -0.122258 -0.133918 0.111212 0.231469 0.0123318 0.211555 -0.269513 0.544802 -0.840708 -0.228865 -0.191207 0.549146 -0.854181 -0.030099 -0.0393487 -0.478138 0.0607846 -0.572754 -1.2431 0.579982 -0.560956 0.232723 0.428145 0.041354 -0.273329 0.185941 0.0763063 -0.397612 -0.231183 0.0323813 0.12967 0.225084 0.497663 -0.0125045 0.137047 0.840764 0.635402 -0.450722 -0.061812 0.55205 0.255535 -0.0591992 -0.118958 -0.797223 -0.155558 -0.249681 -0.150659 0.262815 0.22414
sleep||m.06xzh 0.087286 -0.382802 -0.0490126 0.34722 -0.305336 -0.393441 0.89313 -0.461772 0.290291 -0.147794 0.068242 -0.460468 0.0385442 -0.416004 0.282527 0.558503 0.0488777 0.420817 -0.0534101 -1.15766 0.370334 -0.108382 0.0332144 0.574325 0.0142386 0.0101102 -0.262809 0.365966 -0.132584 0.355742 0.136231 0.674786 -0.113155 0.157259 0.393299 0.0718363 0.499483 0.461877 -0.978724 0.0504389 0.730556 0.014565 0.56681 0.0532174 0.156 -0.482572 -0.488478 0.317065 -0.428488 0.777429
insomnia||m.0ddwt -0.172017 -0.219665 0.464987 0.051672 -0.646036 -0.146748 0.902177 -0.246695 0.1477 0.117233 -0.200313 -0.400663 0.130361 0.329857 1.32393 0.743148 0.0696693 0.557404 -0.218133 -0.476883 0.301169 0.199093 0.41858 -0.0143387 0.399017 0.280815 -0.253178 0.0613909 -0.132432 -0.103476 0.393706 0.56214 -0.491884 -0.0862943 0.469835 -0.278644 0.0385166 0.773062 -1.19715 -0.593438 0.545847 -0.323095 -0.0724071 0.388689 -0.11234 0.417152 0.42348 0.154295 -0.19596 0.77552
chennai||m.0c8tk 0.564537 0.341454 0.731302 0.199648 0.632991 -0.134728 0.054359 -0.162349 0.333499 0.451422 0.295018 -0.0456979 1.17305 -0.834235 0.0943362 -0.342792 0.516041 -0.0705256 0.104063 -0.38107 0.734759 0.143122 0.369724 0.382225 0.575492 -0.162727 -0.0174431 0.245706 -0.164412 -0.0224668 0.0978889 0.637909 0.0245684 0.184764 -0.13511 0.131514 0.455726 0.076876 0.113574 -0.188775 0.269214 0.0964493 0.204561 -0.440405 -0.453642 0.644018 0.163247 0.363249 -0.30002 0.822761
photographs||m.068jd -0.399084 0.564055 0.0338927 0.110901 -0.335568 0.222408 0.223403 -0.84316 0.129738 -0.0470334 0.403824 -0.804693 0.0821694 0.0457341 1.21957 -0.292941 -0.700217 -0.152581 -0.647735 -0.46534 1.1007 0.894492 -0.330757 0.291503 0.0373967 -0.462499 0.420026 -0.214974 -0.00702237 -0.272939 0.142517 0.335988 0.179394 0.320963 0.232408 -0.202366 0.159182 0.31723 -0.607639 0.0227412 -0.123343 -0.252775 0.460233 -0.257676 -0.114516 0.0548101 -0.296586 0.197776 0.200816 0.447368
tamil||m.01rv7x 0.498528 0.30139 -0.372597 -0.0796569 0.198079 -0.6034 -0.0758603 0.063384 0.119911 -0.406732 -0.0568384 -0.684893 0.434721 -0.665912 0.720463 -0.418122 0.546159 -0.143076 -0.199003 -0.25146 1.60356 -0.299984 0.83409 -0.322533 -0.0294713 -0.51154 -0.0654925 -0.0333281 -0.926156 0.0474231 -0.22234 0.452933 -0.0656807 0.372381 -0.146773 -0.575153 -0.267101 -0.112467 -0.495622 0.356132 -0.218629 0.316697 0.458048 -0.34408 -0.39603 0.742903 0.753236 -0.112539 0.503262 0.576429
vocal||m.09l8g 0.0293186 0.603297 -0.145286 0.270403 0.500739 -0.257543 0.0924983 0.071889 -0.136102 -0.30174 0.272502 -0.227517 0.20851 -0.397838 1.29777 -0.522752 -0.38017 -0.405628 -0.174197 0.423066 0.287869 -0.235096 0.285722 0.0797177 0.883408 -0.224936 -0.456824 -0.687818 0.142731 0.205431 0.447449 0.327857 0.0162905 -0.43108 0.143371 0.257253 0.352876 -0.346658 -1.33219 -0.401018 -0.0329111 -0.392048 0.411372 -0.297775 0.0473831 -0.261269 0.663395 -0.669323 0.39775 0.490732
tax||m.07g82 0.131931 0.506611 0.19974 0.0804133 0.698101 -0.470606 0.25386 -0.451904 -0.0140776 -0.357368 -0.12284 -0.318307 -0.161006 0.336759 0.978379 0.197369 0.159657 0.52229 0.363393 -0.0136511 0.237649 -0.284852 0.603259 0.447689 0.0212569 0.518623 0.286896 0.493504 -0.0781571 0.445538 0.593521 1.14499 0.595277 0.0789787 0.0284178 -0.438975 -0.542946 0.729051 -0.436523 0.314864 0.243968 -0.201817 0.0589859 0.511218 -0.608361 -0.171097 0.41918 -0.600527 -0.393315 0.574066
internal_revenue_service||m.03z19 -0.0901788 0.453434 0.310598 0.500476 0.631779 0.173895 -0.182426 -0.927615 0.0153149 -0.095306 -0.392411 -0.0641238 0.23134 -0.324153 1.69566 0.330097 0.213384 0.172492 0.668981 -0.161449 -0.0300493 -0.228707 0.657082 0.930859 -0.256799 0.447315 0.515989 0.401003 0.0656441 0.764812 0.663548 0.0878472 0.316918 0.662118 -0.636694 -0.20963 -0.785068 0.576547 -1.03505 -0.0954393 -0.734994 -0.376539 -0.0308339 1.06368 -0.867813 -0.50539 0.0393566 -0.511193 0.425668 0.82895
barack_obama||m.02mjmr -0.100256 0.452754 0.39814 0.849705 0.350743 -0.0614402 -0.373321 -1.11492 0.119322 0.433441 -0.496095 -0.165907 0.567396 -0.810474 1.15112 0.298532 -0.593068 0.536622 0.485656 0.741491 0.67589 -0.0618078 0.925552 0.222194 -0.245068 0.424194 -0.422589 -0.162581 -0.350716 0.717558 0.197952 0.652004 0.22266 0.176403 -0.333223 0.514759 -0.493041 -0.128554 -0.773589 -0.631897 0.283769 0.103649 0.530574 -0.324764 -0.489592 -0.361295 -0.219824 -0.74593 0.823751 0.527681
irs||m.03z19 -0.223911 0.528306 0.157271 0.203511 0.129851 0.0335267 -0.0175256 -0.397796 0.0583099 -0.283758 -0.0728689 -0.173033 0.112008 -0.617971 1.97118 0.310145 0.46473 0.360695 0.598548 -0.205293 -0.0765222 -0.14256 0.295726 0.982103 -0.337938 0.440476 -0.0396204 0.391738 -0.153892 0.536252 0.831285 0.00647357 0.305594 0.796942 -0.514915 -0.19863 -0.671137 0.443094 -1.17682 -0.269895 -0.821371 -0.257278 0.0698183 1.1902 -0.692063 -0.637242 -0.246069 -0.625432 0.059878 0.615123
press_conference||m.01s8fx -0.202574 0.505356 0.230621 1.06593 0.546799 -0.600971 -0.690141 -0.457784 -0.0668067 0.103423 0.199631 -0.294564 -0.205726 -1.28842 1.14155 -0.105909 -0.0114161 0.924869 -0.00391714 -0.250894 0.257778 0.364235 0.214631 0.455562 0.433748 0.432317 0.0542259 0.468883 -0.232563 0.345896 0.190301 -0.301146 0.105546 0.312259 0.485477 -0.113262 0.666377 -0.332826 0.400831 -0.306279 0.484531 -0.0907304 0.393531 -0.429364 0.107788 -0.687049 -0.0212506 -0.00851433 -0.664403 0.6464
al-qaida||m.0v74 0.429982 0.581883 -0.325335 0.59581 0.300762 -0.363807 0.0897248 -0.296159 0.665973 -0.259239 0.313995 -0.733565 0.968323 -0.270661 1.1023 0.158224 0.985175 -0.997999 -0.116618 0.0375859 1.3954 0.565672 0.705697 0.340208 -0.767872 -0.900586 0.0983439 -0.24941 -1.04299 0.391553 0.0662652 0.176775 0.101108 0.91694 -0.233083 -0.250735 -0.526423 -0.623189 -0.918318 -0.702347 -0.108804 -0.467442 0.507116 0.729749 -0.53858 0.22313 0.134362 -0.484988 0.333573 0.494147
u.n.||m.07t65 0.102297 0.310721 -0.0100972 0.735191 -0.0233665 -0.265296 -0.637237 -0.0942577 0.3362 0.419374 -0.522091 0.159598 -0.509878 -0.599479 1.05581 -0.463358 0.401541 0.0887742 0.339556 -0.0343486 1.5164 0.393836 0.838307 0.441702 -0.348569 0.11161 -0.238861 -0.427773 -1.58291 0.0815797 0.694703 0.484543 -0.248728 0.938449 0.0901266 0.0961142 -0.704349 0.0830894 -0.580863 0.269202 0.112413 -0.108062 0.191529 -0.148802 -0.639254 0.310981 -0.395643 -0.548144 0.0145581 0.633059
associated_press||m.0cv_2 0.272271 0.272729 0.461225 1.5885 -0.492691 0.701452 -0.166787 -0.649145 0.750205 -0.0287129 -0.092713 0.527629 -0.232296 -0.336895 1.27307 0.672146 0.0552254 0.856182 0.72591 -1.04128 1.52086 0.451938 -0.302425 0.53632 -0.0386429 -0.240552 0.778524 0.172459 -0.844278 0.0397107 0.187127 -0.573086 0.1543 0.296679 0.0234062 -0.215782 0.48613 -0.778899 -0.08746 -0.0324012 0.0638848 -0.258559 0.00874078 0.113049 0.430727 -0.382628 0.838673 -0.49425 -0.118531 0.697938
democratic_party||m.0d075m 0.292206 1.21747 0.243736 0.731079 0.429656 -0.271877 -0.13132 -0.544186 0.303756 -0.64143 -0.0213649 -0.222861 0.437469 -0.731936 1.204 -0.171241 0.033126 0.00679447 0.511343 0.112062 0.0956036 -0.794096 -0.0218219 0.0981948 -0.23573 -0.0167259 -0.404243 0.582576 0.219312 0.923298 0.815414 0.672818 0.680903 0.187119 -0.25848 -0.177652 -0.0545788 -0.187476 -0.460375 -0.307186 -0.308141 -0.0298597 0.272385 -0.403548 -0.0367138 0.20796 0.536648 0.12227 0.148269 0.386837
web_site||m.085n4 0.284769 0.710356 0.835236 0.737944 0.211342 -0.099018 0.23925 -0.896018 -0.0266481 -0.421173 0.711631 -0.327941 0.358452 -0.510078 0.789573 0.267867 -0.330805 -0.276102 0.0981754 -0.25973 0.668887 0.796393 -0.389637 0.371494 0.29238 -0.308796 -0.173672 0.466874 -0.46016 0.0832663 0.387238 0.0450024 -0.220948 0.106889 -0.110459 0.0259 0.345458 0.584055 -0.351645 0.211546 -0.301954 -0.12317 0.24599 0.443327 -0.0995454 -0.432593 -0.256174 -0.303304 -0.428621 0.394193
pension_fund||m.02vk53c 0.37428 0.464952 0.3696 0.0340161 0.414801 0.215226 -0.212392 -0.280977 0.515433 -0.641635 0.295774 0.147523 0.740018 -0.53917 1.07825 -0.522982 0.403826 0.262187 0.329627 0.33375 0.131638 -0.666245 0.515701 0.996154 0.347303 0.439569 0.606079 1.00435 0.272049 0.199308 0.526609 0.706909 -0.103967 0.490539 -0.358821 -0.270685 0.10479 0.342082 -0.0201785 0.555862 -0.47874 0.092392 0.0157914 0.345245 -0.764126 0.0951693 0.579907 -0.407076 -0.474326 0.798922
california||m.01n7q 0.124244 0.822959 0.215109 0.036261 0.459902 -0.0970962 0.149347 -0.666204 0.375141 -0.107987 -0.282293 0.192802 0.491536 -0.441914 0.448327 -0.148227 -0.216364 0.145252 0.83158 -0.443534 0.66461 -0.244422 0.156013 0.609136 0.142127 0.107976 0.240708 0.125623 0.596897 0.473249 0.0780186 0.428943 -0.543757 -0.139845 -0.114654 0.359622 0.0822747 0.323355 -0.655715 -0.293689 0.336518 -0.178595 -0.345705 -0.254923 -0.887734 0.250902 0.443404 -0.31914 0.134787 0.346777
pension_funds||m.02vk53c -0.118619 0.779047 0.377876 -0.0309062 0.154198 0.201654 -0.000675566 0.0987563 0.462561 -0.640472 0.555219 -0.508364 0.561063 -0.315526 1.02116 -0.660798 0.3523 0.155866 0.0673036 0.223878 -0.0671001 -0.480115 0.450084 1.46381 0.232914 0.656435 0.6171 0.790514 0.588981 0.702164 0.298116 1.02333 0.595546 0.101658 0.0436128 -0.596788 -0.0926585 0.181303 -0.385888 0.415926 -0.417208 -0.0675572 -0.419857 0.648061 -0.753664 -0.33151 0.809392 -0.481095 0.0958973 1.01326
comptroller||m.03tzmr -0.434127 1.28003 0.248955 0.876751 -0.253255 0.357659 -0.356953 -0.656421 0.143499 -0.201577 0.133583 0.715254 0.493616 -0.777812 1.48111 -0.0137286 0.505161 -0.565363 0.549943 -0.247775 -0.521798 -0.775222 0.149069 0.163123 0.593511 0.528525 0.202738 0.907704 0.556489 1.05241 0.415177 1.01814 0.324426 0.377507 0.108364 0.120103 -0.151204 0.420407 -0.415941 -0.483409 -0.582419 0.137928 0.328439 0.141642 -0.260443 -0.652715 0.358624 0.256468 0.00599601 0.527642
nonprofit||m.0259tnd 0.392544 0.443776 0.32089 0.459576 0.120892 -0.276453 0.169482 -0.939666 0.888401 -0.757 0.125945 0.05205 0.750074 -0.337598 0.639076 -0.798599 -0.0193625 0.0129838 0.217137 -0.336621 0.778778 0.0736836 -0.0307368 0.252638 -0.0574953 0.105473 -0.0574437 0.1688 -0.227619 0.0483532 0.591691 0.0421464 -0.127203 -0.13004 0.502972 0.0360593 -0.38276 0.303142 -1.0804 0.409471 -0.82777 0.465328 -0.254944 0.482174 -0.643072 -0.357697 0.228744 -1.06792 -0.629143 0.422063
qb||m.06b1q -0.152175 -0.106248 -0.217873 0.0390072 -0.474343 0.268483 0.0416471 0.193303 -0.490488 -0.735625 -0.728995 -0.0144656 1.06363 -0.933383 0.671436 0.599975 0.150211 0.465789 0.193548 -0.040723 0.470408 -0.887004 0.0158822 -0.169604 0.226855 0.490238 0.380414 -0.562928 0.137285 -0.147347 0.686772 0.104952 0.579192 0.988537 -0.59835 1.58203 0.238116 0.148773 -0.902653 -0.472073 0.525898 -0.0217863 -0.0855766 0.600124 -0.394835 -0.543022 0.255881 -0.458991 0.28121 1.05439
russia||m.06bnz 0.240882 0.357021 0.140893 0.775036 0.184341 0.118358 0.21987 -0.0311568 0.239355 0.294976 0.0464253 -0.396701 -0.100308 -0.632372 0.577793 -0.333105 0.313501 -0.403095 0.442677 0.658342 1.08512 0.186137 1.21586 0.438556 0.306649 0.460721 0.105534 -0.603182 -0.52627 0.0813109 -0.0510159 1.06974 -0.117245 -0.00727675 -0.297257 0.355939 -0.274319 -0.0224039 0.103797 -0.048989 0.394099 -0.441323 0.378434 -0.229732 -0.365739 0.291286 0.0751009 -0.255203 0.0402459 0.626129
japan||m.03_3d 0.397253 0.41472 0.0718544 0.563688 0.477583 0.314158 0.0497145 0.326104 -0.214884 0.671821 0.341188 0.121268 0.300036 -0.426626 0.721248 -0.100648 0.113839 -0.375234 0.0209089 0.506275 0.530557 -0.146316 0.930215 0.592617 0.463924 0.426349 -0.0980985 0.0782276 -0.156072 -0.110521 -0.0460486 1.24325 -0.271386 -0.10505 0.148945 -0.0406519 -0.023214 0.342164 0.0242878 -0.651701 0.669716 0.382705 -0.118927 -0.470359 -0.580826 0.608208 -0.0671381 -0.198079 0.0670848 0.95498
general_staff||m.04zm7_ 0.206798 0.399989 -0.162211 0.686555 0.0296195 -0.196933 -0.599868 -0.407466 0.0103965 0.181879 0.0310438 0.44187 0.590663 -0.804594 1.10304 -0.290983 0.632224 -0.334113 -0.281663 0.125443 0.952814 0.190837 0.76961 0.38651 0.158059 -0.71156 -0.413733 0.190915 -0.850312 0.0941704 0.392507 -0.202376 0.0087702 0.391361 0.396281 -0.420337 0.19984 0.0191014 0.0616257 -0.0978961 -0.0696225 0.00875115 0.142252 0.0610486 -0.477767 0.34956 -0.0225857 0.187245 0.108991 0.413917
world_war_ii||m.081pw -0.323995 0.328972 -0.464857 0.255631 -0.279561 0.203215 -0.107027 -0.103867 -0.334396 0.286314 -0.43863 -0.344192 0.713845 -0.369996 0.87888 -0.55937 0.18078 0.178147 -0.904402 -0.418125 0.746588 0.15875 0.729114 0.440983 -0.0183329 0.077201 -0.112792 -0.133062 -0.496122 -0.115203 -0.361439 0.171898 -0.349109 -0.110628 -0.0808715 -0.00456633 0.283689 -0.0194758 -0.144357 -0.583661 0.214057 0.60613 0.9244 -0.21327 -0.319858 1.3408 0.575987 -0.5636 0.146559 0.947327
bullying||m.027vd9 0.418006 -0.171664 0.0823972 0.556821 0.14074 -0.220507 0.587984 -0.287314 -0.405728 -0.856144 0.418852 -0.341259 0.240018 -0.267363 1.13126 0.285089 0.594726 0.352375 -0.242978 -0.256666 0.675819 -0.338479 0.0867958 0.142242 0.233216 0.603478 0.235556 -0.292353 -0.196149 0.179731 0.110708 -0.214252 -0.482608 0.301283 -0.139329 -0.36162 -0.203243 0.289073 -1.37608 -0.699215 -0.189785 -0.359069 0.388597 0.20281 -0.137708 0.445163 -0.0612673 0.111478 0.0501611 0.329001
boston_bruins||m.0j2zj 0.804666 0.827824 -0.245031 0.43746 -0.362057 0.240167 0.508243 -0.186432 -0.885939 -0.436318 -0.226561 -0.869781 0.459622 -1.64454 0.49657 0.343426 0.449056 0.992354 -0.396188 -0.395491 0.0379962 -0.0698831 0.646986 0.209118 -0.467092 -0.237553 0.524026 -0.492494 0.126541 -0.303898 0.761805 -0.186146 0.910874 1.29632 -0.0584669 0.295088 -0.0760037 -0.00528139 -0.444037 0.338275 0.149405 0.703641 -0.256201 0.47288 -0.883153 -0.343855 0.0257332 0.123144 0.617925 1.18168
warrior||m.01jnld 0.139193 -0.316862 -0.525177 0.509294 0.0358495 -0.49295 0.525557 -0.190862 -0.241344 -0.391221 0.0413604 -0.351744 0.908222 -0.655371 0.65115 -0.0390779 -0.190648 -0.0722023 -0.517127 -0.181769 0.873241 -0.00439794 0.264873 -0.497399 -0.0978673 -0.24653 0.0852508 -0.372411 -0.331262 0.040704 0.0761592 -0.110631 -0.0119516 0.402304 0.141088 0.140471 0.0424894 -0.317443 -0.538099 0.184815 0.292194 0.178264 0.299823 -0.16525 0.107195 -0.0444645 0.386554 0.226346 -0.0612173 0.285647
netminder||m.02qvzf 0.237885 0.709799 -0.516231 0.458087 -0.515248 0.771071 0.747212 -0.0798191 -0.297462 -0.353353 -0.210555 -0.415086 0.196241 -1.06612 0.615269 -0.0517851 -0.170535 0.365243 0.209843 -0.341908 0.141588 -0.2718 0.377768 -0.0633889 0.191142 -0.360555 0.256819 -0.39011 -0.443632 -0.498284 0.38689 -0.285619 0.855472 0.728601 0.313204 0.120188 -0.103819 0.126217 -0.61615 0.191825 0.187354 0.214558 -0.262819 -0.0583714 -0.626307 -0.465303 0.151193 0.105952 0.468607 0.689034
faceoff||m.02qwnm 0.0214928 1.29165 -0.462593 0.92659 0.0191601 0.745819 0.749724 -0.150563 -0.188552 -0.888435 -0.551865 -0.785259 -0.484641 -1.52019 0.476915 -0.227892 0.138688 0.405096 -0.311612 -0.716805 0.396672 -0.481956 0.256222 -8.38329e-05 -0.340865 -0.0883754 0.143604 0.430708 -0.526253 -0.628395 0.700481 -0.851722 0.95611 0.310274 0.0167026 0.21143 -0.180802 0.350351 -0.369127 -0.465327 0.69285 0.200125 -0.235168 -0.240265 -1.08736 -0.305181 0.145859 0.32069 0.915159 1.03691
bruins||m.0j2zj 0.572541 0.733757 -0.691605 0.107022 -0.674035 0.518686 0.858327 0.135978 -0.53881 -0.552003 -0.124133 -0.937985 0.367422 -1.44285 0.499101 0.458456 0.472411 0.730933 -0.306165 -0.453472 0.0531342 -0.189166 0.718792 0.193217 -0.535736 -0.047246 0.173797 -0.265583 -0.312192 -0.408575 0.810327 0.0142257 0.934726 1.21219 0.117435 0.137697 0.0316127 0.115523 -0.689463 0.280629 0.0209621 0.595377 -0.223532 0.484884 -0.672372 -0.500895 -0.115876 -0.174072 0.538654 1.10653
powerplay||m.0fv03p 0.04599 0.488516 -0.0542432 0.430758 -0.178943 0.259948 0.46953 0.277195 -0.445857 -0.45279 -0.290186 -0.315178 0.15069 -0.651439 0.332645 0.210128 -0.0886416 0.343652 -0.161508 -0.699693 0.232268 -0.254125 0.427645 0.0923598 0.211125 0.0445596 0.0210843 0.123524 -0.760994 -0.570537 0.317438 0.159619 0.758006 0.501387 0.394678 -0.0187708 0.0841785 0.113463 -0.49989 -0.175179 0.541081 0.440023 -0.288958 -0.13604 -0.552764 -0.0397021 0.00838414 0.402545 0.300126 0.630417
breath||m.0lyf6 -0.293291 -0.105224 -0.464595 0.0657121 -0.247452 -0.191319 0.666977 -0.497384 -0.266416 -0.494161 -0.0726622 -0.534134 -0.0205527 -0.771954 0.969383 -0.133316 -0.0184656 0.370956 -0.610724 -0.56426 0.18545 0.010464 0.0212174 -0.190956 -0.103405 0.543847 -0.0523733 0.0445493 -0.606117 0.200006 0.32729 0.272682 0.154311 0.189604 0.126377 -0.163956 0.393104 1.10091 -0.58285 -0.184506 0.461742 -0.22001 0.786961 -0.547326 0.0062617 -0.550266 -0.411659 0.867083 -0.240201 0.908931
detroit||m.02dtg -0.106953 0.382936 0.220591 -0.100437 0.485601 0.544354 0.135552 -0.0239637 0.0372021 -0.162583 0.305824 0.568752 0.850049 -0.949511 0.255828 0.160763 0.199888 0.713172 0.180168 -0.670008 0.30169 -0.149371 0.243991 1.04916 0.0877069 0.0173862 0.401244 -0.0192385 0.391724 -0.156513 0.510948 0.909288 0.636883 0.157421 0.181768 0.226167 0.0500561 -0.324243 -0.293826 -0.118834 -0.253904 0.180639 -0.306303 0.177438 -0.563871 0.0671511 0.270787 -0.550413 0.274529 0.686095
general_motors||m.035nm 0.458457 0.127215 0.0274251 0.23423 0.360192 0.398202 -0.0830406 -0.076176 -0.202633 -0.145635 0.561813 0.526412 1.60705 -0.185278 0.549199 -0.185989 0.487738 0.493861 0.162013 0.510251 0.369249 0.396117 0.430629 0.557636 0.482536 -0.237537 0.596323 1.1107 0.122654 0.108794 0.385313 1.01854 1.0724 0.284916 0.126963 -0.295183 0.428613 0.0879158 0.103514 -1.10128 0.380139 0.779233 -0.268355 0.0687069 -0.548718 0.181165 -0.140367 -0.673804 -0.0424498 0.796062
automaker||m.015smg 0.353963 0.17131 0.111034 0.218627 0.265891 0.69665 -0.269809 -0.12179 0.149786 0.070355 0.901196 0.194426 1.17441 -0.452996 0.70858 0.27892 0.276299 0.164617 0.504939 0.361788 0.181514 0.437889 0.622222 -0.0394051 0.486133 -0.183519 0.981047 0.711212 -0.367264 0.11161 0.745995 1.3335 0.412145 0.55583 -0.066703 -0.471724 0.345253 0.574048 0.367955 -0.548014 0.374775 0.962878 0.117079 0.0453446 -0.780844 0.782219 -0.074613 -0.501999 -0.258607 0.86714
gm||m.035nm 0.148644 0.257015 -0.138856 0.243124 -0.273534 0.371108 0.0146935 0.0469837 -0.163028 -0.136857 0.471481 0.37017 1.21465 -0.350851 0.790364 0.147908 0.560683 0.347658 0.440193 0.321944 0.107698 0.44025 0.428803 0.290716 0.323573 -0.0209479 0.165513 0.798987 -0.0853752 -0.106031 0.38784 1.25753 0.823359 0.419743 0.0149089 -0.287699 0.45912 0.275067 0.181769 -0.662831 0.274129 0.672955 0.141563 -0.00241195 -0.688016 0.068336 -0.178745 -0.688718 -0.505668 0.337725
chief_financial_officer||m.0krdk 0.257059 0.755248 0.0281463 0.940535 -0.758469 -0.0176938 -0.0123392 -0.282931 0.105084 -0.130244 0.233178 0.940347 0.629267 -0.055126 1.47767 -0.24488 0.798176 0.486163 0.274702 -0.109353 -0.395967 0.185873 0.148002 0.456796 0.672776 -0.32531 0.715772 0.632367 -0.208001 0.340405 0.144864 0.504155 0.89355 0.453656 0.389743 -0.437607 0.475764 0.326186 0.392991 -0.596256 0.329941 0.566192 -0.151518 -0.0592797 0.383058 -0.728919 0.438884 -0.513488 -0.865563 0.479061
common_stock||m.02zb8r -0.308185 0.613555 1.03543 0.0141388 0.0861031 -0.162544 -0.193938 -0.0501822 0.0642287 -1.1243 -0.229821 -0.380692 0.979891 -0.149296 0.971207 -0.0584166 0.871348 -0.485881 -0.395519 0.365814 0.603685 -0.101782 0.0387792 0.902017 0.900103 0.04556 0.706325 0.840014 0.101851 -0.40382 0.0229152 1.135 0.768519 1.20053 -0.198407 -0.224546 -0.0740948 0.83585 0.333347 -0.0704644 0.220822 0.808915 0.58885 0.38822 -0.418467 -0.658071 0.316535 -0.956812 -0.846848 0.466114
mercedes||m.052mx 0.00287074 0.229919 -0.411615 0.358639 0.079894 0.180827 0.0713818 0.21122 0.0972937 -0.0224033 0.548864 -0.336625 1.1005 -0.107193 0.319897 -0.0541033 -0.0144569 0.37247 0.5984 0.0653795 0.636495 0.302283 0.211195 0.0910809 0.52814 -0.403142 0.340406 0.591279 -0.325146 -0.00208468 0.539617 0.604137 0.676914 0.196617 -0.000116898 -0.495996 0.857525 0.174907 -0.150525 -0.778236 0.531876 0.348753 -0.0856028 -0.117862 -0.315122 0.777707 -0.532969 0.155644 -0.615955 0.283865
house||m.03mb9 -0.110294 0.50691 -0.201426 0.273398 0.20329 -0.0562404 0.405549 -0.256283 0.528347 -0.489168 0.310173 -0.553305 0.381427 -0.748174 0.55973 -0.201738 -0.293307 0.0485861 -0.228045 -1.05388 0.784601 0.0626177 -0.162481 0.0553947 -0.115041 -0.163959 0.0349237 0.670889 0.030423 0.112317 -0.0563169 0.364947 0.420038 -0.013631 -0.20707 -0.0752767 0.554143 0.44161 0.105651 -0.062235 0.229696 -0.179364 0.442134 -0.359102 0.17504 0.077186 -0.281038 0.132656 -0.19469 0.363884
underwear||m.09j1x -0.629777 0.0576596 -0.411991 0.45457 0.806298 -0.257022 0.869494 -0.701807 -0.107859 -0.592975 0.598242 -1.00387 0.841802 0.0948184 0.511119 -0.0101793 -0.159461 -0.0669828 -0.30786 0.143979 0.649913 0.637846 0.31045 0.125042 0.428254 -0.426952 0.615999 0.537757 -0.415953 -0.272162 -0.261308 0.369331 0.30323 0.21174 -0.262183 -0.191271 0.521919 0.664189 -0.401032 -0.463583 0.667625 -0.253657 0.592238 0.293092 -0.107399 0.173029 -0.65992 0.684149 -0.056671 0.310956
tv||m.07c52 0.655584 0.339608 0.0589944 0.806017 0.348538 -0.0943763 0.476314 -0.579176 -0.156674 0.0458855 0.360747 -0.548694 0.684748 0.136409 0.782003 0.562788 -0.17372 0.0646602 0.245419 -0.285173 0.535665 0.5118 -0.0488079 0.338965 0.0874527 -0.475863 0.0412926 -0.449473 -0.0588949 0.505369 0.390115 0.128527 0.773432 0.16556 -0.265105 -0.0226176 0.483287 0.0534704 -0.188869 0.384228 -0.0998256 -0.157374 0.764676 0.242094 -0.247614 -0.473579 -0.2589 -0.241569 -0.26022 0.278371
amnesty_international||m.012l0 0.870061 0.526878 0.421077 0.675026 -0.035923 -0.482461 -0.34519 -0.372009 0.48354 0.134401 0.243365 0.0178542 -0.225806 -0.555052 1.05847 -0.590428 0.453769 -0.090741 0.467795 -0.183926 1.29416 0.851679 0.957492 0.241021 0.437315 -0.105192 0.19968 -0.312469 -0.676409 0.79315 0.370573 0.0812009 -0.10987 0.549135 0.4285 -0.0111588 -0.778014 0.533358 -1.08873 0.425189 -0.528656 -0.325764 -0.185954 -0.0792522 0.19701 0.534519 0.196683 -0.679382 -0.197918 0.606187
geography||m.034ns 0.0981086 0.2283 -0.0557982 0.780272 -0.295266 0.178276 0.487911 0.180053 -0.139874 -0.390892 0.295995 0.0619099 0.0133214 -0.69713 0.906871 -0.0898125 0.604509 -0.438783 -0.25114 -0.228548 0.834336 -0.278929 -0.395519 -0.263839 -0.327679 -0.0838127 -0.135772 0.136017 0.428556 0.128748 0.485517 0.386315 -0.725624 -0.181898 -0.0096217 -0.00925054 0.0670176 0.0817974 -0.807635 0.0959707 0.367466 -0.180122 0.0182004 0.379007 -0.827413 0.241261 0.385335 -0.290632 -0.378486 0.544376
defamation||m.0731s 0.587681 0.120989 0.950853 0.377348 0.430182 -0.845731 -0.123182 -0.269056 0.0404477 -1.08319 0.325394 -0.0771011 0.288636 -0.512605 1.09882 0.330573 0.361235 0.463332 0.202624 -0.0473333 0.545118 -0.0189738 0.729195 0.605309 1.1129 0.553521 1.004 0.011681 0.172348 0.214061 0.553506 0.178179 0.102527 0.467618 -0.27573 -0.0480137 -0.289625 0.456615 -0.858851 0.356108 -0.452688 -0.26479 0.24365 0.718883 0.23245 0.531432 0.481818 -0.0231639 0.399178 0.01124
amnesty||m.012l0 0.330837 0.103646 0.0644172 0.516723 -0.290214 -0.287109 -0.176703 -0.500246 0.195142 0.40063 -0.0825461 0.11269 -0.11823 -0.594695 1.13086 -0.0205663 0.403462 -0.300175 0.318889 -0.389902 0.994044 0.419041 0.727601 0.123342 0.211461 0.00211718 0.119789 -0.180532 -0.975074 0.576965 0.555737 0.116708 -0.191099 0.535111 0.064853 0.0352256 -0.522823 0.493243 -0.72695 0.211731 -0.131426 -0.342745 0.0364749 0.0643657 0.0780652 0.639544 0.033751 -0.298291 -0.195701 0.392427
ally||m.0fy85 -0.0560147 0.637133 0.0588239 0.89971 0.166663 -0.220396 -0.733347 -0.109526 0.853534 -0.459031 0.167597 -0.27291 0.582476 -1.04786 1.29112 -0.403043 0.696792 -0.893117 0.144487 0.943551 0.635884 -0.291846 1.25636 0.122752 -0.255293 -0.532871 0.174185 -0.433488 -1.06405 0.436103 -0.219015 0.752643 0.976719 -0.544922 -0.194846 0.0330068 -0.129119 -0.44045 0.144767 -0.859025 0.638838 -0.331274 0.652466 -0.485389 -0.266271 0.0265948 0.633823 -0.092649 0.19731 0.853107
rockets||m.09rvcxw -0.119824 0.284105 -0.185143 0.0493136 -0.373567 -0.425371 0.204688 0.328937 0.326387 0.137494 0.0359807 -0.755036 0.448019 -0.241564 0.787822 -0.0659733 0.426321 -0.523743 -0.266043 -0.502016 1.28951 0.83063 1.50378 0.215779 -0.280519 -0.854064 -0.21371 0.125792 -1.11957 -0.0234463 0.0727415 -0.0644636 0.0162531 0.68273 0.159864 -0.56884 0.288836 -0.122104 -0.374583 -0.239117 0.685291 -0.0359869 0.154454 0.358463 -1.19478 -0.623441 -0.805059 -0.429645 0.848692 0.4425
devil||m.02cr2 -0.184627 0.184555 -0.34238 0.913043 0.0570607 -0.0317947 0.380175 -0.182738 0.0988692 -0.0633235 -0.132984 -0.357104 0.645034 -0.388215 0.869037 -0.185396 0.0209842 0.234203 -0.827491 -0.407704 0.747456 -0.0706827 0.365811 -0.0382263 -0.167865 -0.36366 0.0664013 -0.190129 -0.160683 0.327738 0.100606 0.575205 -0.00541443 0.120917 -0.247922 0.460202 -0.538051 0.178811 -0.378022 0.357767 0.186317 -0.15221 0.491598 0.250429 0.423466 -0.403482 -0.27045 0.071738 0.207341 0.195163
christianity||m.01lp8 0.194129 0.604464 -0.0544586 0.813551 -0.273339 -0.435247 0.561735 -0.110005 0.119906 -0.364047 0.43813 -0.615493 0.0928225 -0.743695 0.732732 -0.502146 0.416806 -0.793949 -0.714129 -0.269708 1.45421 -0.136296 0.399932 -0.139945 -0.600156 0.113461 -0.0701233 0.367277 -0.109587 -0.211247 0.418972 0.893561 -0.554474 -0.141445 -0.353921 -0.000307937 -0.789107 0.142653 -0.718753 0.111101 -0.403755 0.206702 0.488021 0.0522643 0.251601 0.51459 0.197619 0.263582 -0.0246443 0.859298
uk||m.07ssc 0.553899 0.356113 -0.0055521 0.263415 0.555774 0.00951576 0.268161 0.0984387 0.137063 0.255993 0.358782 0.0922539 0.0315736 -0.138234 0.809319 -0.423869 0.462845 -0.212594 0.294688 0.148361 0.395602 0.480052 -0.0585184 0.61333 0.288894 0.511978 0.253123 0.38982 -0.14359 0.111575 0.372174 0.922444 0.630187 0.359561 0.133064 0.0545187 0.134483 0.715606 -0.0473841 -0.0808361 0.308152 0.031191 -0.36799 0.236081 -0.69412 0.0777616 0.454563 -0.269767 -0.692059 0.791848
window||m.0d4v4 -0.898055 0.371654 -0.257661 0.359588 0.712807 0.367311 0.343761 -0.313081 0.519561 -0.435748 0.478299 -0.66017 0.00397571 -0.501228 0.424518 -0.376363 -0.328969 0.263643 -0.418711 -0.800731 0.643404 0.0731796 0.156117 0.315315 0.00278311 -0.0251006 0.139101 0.0111268 -0.233741 0.171318 0.274429 0.501854 0.436226 -0.14399 -0.253485 -0.188356 0.453481 0.327002 0.107424 -0.446333 0.624901 -0.00486184 0.398485 -0.00200805 -0.559463 -0.241151 -0.637245 0.218048 -0.427741 0.36395
military_helicopter||m.0275lwb -0.542646 0.444731 -0.223494 0.072786 0.413636 0.252651 -0.0269898 -0.439019 0.399094 0.449842 -0.146534 -0.374469 -0.0159488 -0.899472 0.586795 -0.504356 -0.0985535 -0.0450339 -0.228407 -0.74493 0.777457 0.100566 1.3321 0.302886 0.0889252 -0.0953201 -0.00284124 -0.027185 -1.26928 0.0443183 -0.294728 0.0592593 0.177874 0.886254 0.184109 -0.552855 0.833671 -0.0176241 0.0510246 -0.00204768 0.665873 -0.533839 0.868608 -0.244062 -0.708685 0.114265 -0.159318 0.191265 0.399432 0.647457
bank||m.017ql 0.132098 0.537553 0.109979 0.0957416 0.334166 0.390712 -0.0339111 0.0687903 0.290656 -0.0226464 0.562635 0.0587724 0.0887802 -0.302551 1.49452 -0.50145 0.433237 -0.116904 -0.176989 0.0283147 -0.0133718 -0.107012 0.43603 0.909161 0.0451962 0.678255 0.441752 0.955681 -0.177583 0.0864241 0.157983 1.11324 0.159379 0.677593 0.106537 0.124934 -0.38283 0.706906 0.235444 -0.123348 0.111137 0.085437 -0.244283 0.164795 -0.527651 0.0813776 0.26677 0.0831862 -0.434189 0.86286
citigroup||m.01dfb6 0.242096 0.771086 0.450199 0.345942 -0.0718702 0.341217 0.187547 0.398007 0.157428 -0.377006 0.434599 -0.0158896 0.407461 -0.307062 1.4484 -0.361037 0.805216 0.0838292 0.0488444 0.281041 -0.0361033 0.177479 0.619166 1.24812 0.649439 0.561162 0.802153 0.697149 0.622434 0.0564733 0.114682 0.793775 0.530497 0.748232 0.22806 0.0169902 -0.350596 0.408757 0.223847 -0.651941 0.161414 0.302013 -0.712128 0.529539 -0.474057 -0.116787 0.321455 -0.44336 -0.537617 0.645619
jpmorgan_chase||m.01hlwv 0.394969 0.49071 0.294694 0.163375 0.231124 0.343382 0.240735 0.00257188 0.174043 -0.353546 0.579392 0.116664 0.446526 -0.165783 1.48297 -0.41388 0.745746 0.112457 0.0510204 0.290487 0.14473 0.22945 0.476741 1.47261 0.589781 0.552134 0.872245 0.55296 0.800507 0.281646 0.0384099 0.691057 0.397044 1.02258 0.0570984 0.0259664 -0.485013 0.444841 0.248668 -0.70483 0.135978 0.158048 -0.652142 0.545667 -0.656187 -0.220935 0.249191 -0.391738 -0.356223 1.06664
technology||m.07c1v 0.324248 0.0210175 0.282199 0.504285 -0.0655806 0.354344 0.350912 -0.156025 0.206308 -0.287009 0.365719 -0.169808 0.640868 -0.135933 1.07005 -0.184733 0.0429761 -0.675822 0.58214 0.0990116 0.392551 0.272757 0.0170163 0.556614 -0.0649 0.0787579 0.0828618 -0.0704008 -0.277546 -0.0736001 0.447633 0.173936 -0.229095 -0.485433 0.0725216 -0.0783455 0.258645 0.422473 -0.594763 -0.766686 0.238153 0.273422 -0.248586 0.453475 -1.14834 -0.240194 -0.254838 -0.376155 -0.314985 0.425221
connecticut||m.01x73 -0.0433641 0.879161 -0.128666 -0.113602 0.532048 -0.126773 0.510488 -0.766183 0.390633 -0.523076 -0.430198 0.229463 0.387997 -0.596244 0.192682 0.0952734 0.135613 0.429172 0.26735 -0.424391 1.01609 0.0326586 0.377022 0.655394 0.122328 -0.0630205 0.383979 0.41334 0.589848 0.424859 -0.070148 0.21661 -0.469561 0.306439 0.0838292 0.289584 0.0126863 -0.235877 -0.956538 -0.688909 0.195038 0.16866 -0.292497 -0.0940983 -0.698952 0.00373376 0.166979 -0.783212 -0.0114028 0.244137
september_11||m.0d0vp3 -0.0814109 1.19132 -0.179851 -0.140797 0.609271 -0.146558 -0.297814 -1.23331 -0.193842 0.157594 0.0115582 -0.265166 0.793282 -0.243043 1.44348 0.0366109 0.842924 -0.0492347 -0.182092 -0.267369 0.70725 1.09882 1.07105 0.632344 -0.225472 -0.1328 0.743987 -0.178592 -0.0828549 -0.214435 -1.26762 -0.00676684 -0.593199 0.3898 0.0753404 0.312738 -0.226641 0.212818 -1.2431 -1.26916 0.0577536 0.332072 1.00104 0.485791 -0.94372 0.629108 -0.340099 -0.793994 0.696203 1.49759
suburb||m.0750y -0.0779944 0.394516 0.534953 -0.307338 0.560682 -0.15424 0.011861 -0.201593 1.30354 -0.135868 0.00944402 0.149273 0.87243 -1.29916 0.603727 -0.127817 0.115326 -0.193318 -0.555396 -1.36283 1.21088 0.194401 0.591328 0.35042 0.0455469 -0.33264 0.469895 0.247876 0.204864 0.202995 -0.236436 -0.211079 -0.0979144 0.176435 0.676773 -0.483999 1.0882 0.0207408 -0.137869 0.145408 -0.0623888 -0.255431 -0.137583 -0.716347 0.115545 -0.127193 0.48552 -0.047437 0.186755 0.806045
financial_industry_regulatory_authority||m.02w85_g 0.0926775 0.566708 1.02603 0.624978 0.257723 0.262025 -0.431367 -0.250756 0.0677626 -0.259517 -0.16731 0.109089 0.124564 -0.177789 1.37653 -0.469889 0.324564 0.477011 0.523412 -0.0160531 0.725444 -0.22563 -0.157968 0.854789 0.229353 0.426484 0.551551 0.366582 0.273178 -0.0776331 0.423747 0.191176 0.198755 0.770606 -0.208865 0.009867 -0.379641 0.918898 -0.0748202 -0.263588 0.107461 0.103866 -0.560264 1.2327 -0.297316 -0.259154 0.144732 -0.343894 0.0802049 0.559311
houston_rockets||m.0jmfb 0.354182 0.812199 0.137532 0.296144 -0.177469 0.236592 0.604735 0.178306 -0.0610394 -1.22176 -0.334818 -0.792245 0.766924 -1.18479 0.259513 0.64089 0.800436 0.796882 -0.0540238 -0.407615 0.358252 -0.592242 0.166222 0.314852 0.344063 -0.0386857 0.510071 -0.696374 0.0278037 -0.0363019 0.736978 0.123663 1.00177 1.81065 -0.328516 0.13722 0.139539 -0.618647 -0.542872 -0.319587 0.163073 -0.107064 -0.106953 0.186861 -0.0416924 -0.313885 0.471831 -0.379822 0.455199 0.964999
spurs||m.0jmh7 0.220384 0.794565 -0.454062 -0.0617452 -0.631448 0.482909 0.922343 0.741676 -0.335068 -1.15507 0.137599 -0.414012 0.617139 -1.34188 0.387717 0.530489 0.59783 0.309024 -0.108182 -0.571398 0.00970903 -0.495756 -0.116538 0.398651 0.128406 0.0882215 0.461071 -0.42608 0.116841 -0.253196 1.13863 0.581829 0.712834 1.52171 -0.166018 0.0324441 0.264111 -0.272477 -1.15861 -0.398549 0.0371794 0.441245 -0.11095 0.163521 -0.00635994 -0.0833523 -0.0697096 0.172086 0.287406 1.11874
celtics||m.0bwjj -0.0941405 0.776885 -0.585172 -0.251573 -0.638311 0.342382 0.863124 0.569453 -0.129037 -1.26604 -0.0748045 -0.801577 0.754449 -1.28435 0.33366 0.529829 0.76943 0.695969 -0.1912 -0.410756 0.372746 -0.47481 0.184124 0.214854 -0.0903091 0.0289224 0.239401 -0.322421 0.12677 -0.160861 0.701617 0.521678 0.67785 1.52619 -0.206958 0.0320268 0.405222 -0.540783 -0.665202 -0.317343 0.116001 0.58731 0.0337527 0.189832 -0.0724346 -0.256936 0.0148315 -0.373582 0.371418 0.916529
bulls||m.0jm74 0.121703 0.609044 -0.436329 -0.187056 -0.522751 0.540225 0.985889 0.586938 -0.28179 -1.0638 0.254934 -0.615176 0.369236 -1.58896 0.425101 0.716596 0.681499 0.436904 -0.280723 -0.638793 0.134719 -0.532328 0.105822 0.217405 0.0793236 0.267723 0.336208 -0.244826 0.129282 0.0082398 1.03669 0.300324 0.89957 1.66978 0.1182 -0.129711 0.510636 -0.0797949 -1.14292 -0.456046 0.172764 0.162348 -0.232883 0.289499 -0.0650926 -0.0988669 -0.0218859 0.0533119 0.450337 0.875843
cavaliers||m.0jm7n -0.266936 0.914527 0.0101923 -0.0328732 -0.36499 0.423394 1.03639 0.370077 0.0483791 -1.17573 -0.345166 -0.656747 0.698481 -1.25387 0.10781 0.432743 0.560841 0.530022 0.0303116 -0.471285 0.244342 -0.353953 0.117275 0.301174 0.277434 0.0021485 0.485819 -0.375555 -0.412362 -0.316988 0.617988 0.326346 0.803726 1.60166 0.184122 -0.331925 0.179933 -0.233115 -0.76776 -0.576733 0.411864 0.313265 -0.529171 -0.137093 -0.16068 -0.419948 0.275336 0.0592198 0.349065 1.04464
nov||m.05cw8 -0.21782 1.11222 0.152271 0.0396104 0.720998 -0.473951 0.258514 -0.860101 -0.213154 0.00664234 -0.642767 0.0315491 0.449625 -0.958643 0.0556954 0.953523 0.131918 -0.172457 0.0320437 -0.62062 1.09288 0.406646 -0.315304 0.544272 0.790174 0.26914 -0.26238 -0.350213 0.210429 -0.246411 -0.287354 0.393264 0.136081 0.756684 -0.110333 -0.124674 0.187752 0.152319 -0.411159 0.17682 0.147844 0.727141 0.143306 0.46704 0.0976974 -0.0309994 -0.0237839 -0.367013 0.518906 0.666233
suns||m.0jml5 -0.0687233 0.889668 0.0478587 -0.0686093 -0.727856 0.610209 0.967104 0.408887 -0.0372387 -1.0281 -0.293277 -0.357037 0.491566 -1.04215 0.198805 0.356273 0.723629 0.43858 -0.0258639 -0.582576 0.212737 -0.30261 0.131705 0.405958 0.204522 0.0944223 0.487987 -0.266351 -0.412171 -0.470707 0.458708 0.172909 1.11078 1.50059 0.185237 -0.0160126 -0.0126598 -0.0558727 -1.07252 -0.458482 0.31475 0.301489 -0.489455 -0.071675 -0.483101 -0.13108 0.183265 -0.210111 0.440907 1.27864
timberwolves||m.0jmgb 0.0974352 0.514253 -0.291905 -0.38846 -0.796695 0.36966 0.90487 0.665014 0.086855 -1.18068 -0.452935 -0.707094 0.619667 -1.06321 0.188541 0.370026 0.777708 0.380578 -0.243667 -0.356302 0.698828 -0.498251 0.384835 0.393532 0.515334 -0.156575 0.383177 -0.123583 -0.505953 -0.190469 0.551536 0.13656 0.961741 1.64074 0.206546 -0.0723472 0.245391 -0.0972022 -1.02435 -0.156679 0.286439 0.140563 -0.540754 -0.0700694 -0.268148 -0.218939 0.271839 -0.410113 0.406307 0.617257
vice_president_joe_biden||m.012gx2 0.18474 0.271899 0.609679 1.41477 -0.000528686 -0.0621008 -0.464961 -1.37838 -0.0233677 0.595269 -0.451314 -0.55564 0.587248 -0.89508 0.889845 -0.0544787 -0.811494 0.536136 0.432506 0.780993 0.919501 -0.0773981 0.82583 0.419414 0.0100605 0.0858288 0.159978 -0.057767 0.295913 1.04016 -0.0378053 0.512506 0.485893 0.392911 -0.0564055 0.14935 0.344246 -0.638921 -0.6061 -0.625169 0.205067 -0.106675 0.268904 -0.781023 -0.352201 -0.290284 -0.0309922 -0.485573 0.352564 0.302023
texas||m.07b_l -0.0881751 0.500117 0.0265837 -0.142186 0.305206 -0.167036 0.110216 -0.79535 0.212408 -0.192127 -0.487733 0.295224 0.685654 -0.538389 0.310062 0.261948 -0.0557242 0.247905 0.735076 -0.618553 0.787007 -0.189926 0.367659 0.500363 0.097689 -0.159899 0.301353 -0.133851 0.39902 0.353509 0.293841 0.252037 -0.0531531 -0.0461795 0.00833904 0.52499 -0.138019 -0.126579 -0.716087 -0.352691 0.254551 -0.251917 -0.163421 0.0101925 -1.04294 -0.11646 0.413965 -0.250336 0.340904 0.114945
