2989 50
spanish||m.06nm1 -0.19709 0.53423 -0.085385 0.028548 0.52276 -0.41841 0.016034 -0.33561 0.47735 -0.31247 0.69503 -0.31258 0.29784 -0.16014 -0.65466 0.044851 0.28066 -0.43435 -0.26586 0.061362 1.0334 -1.0418 -0.076178 -0.38409 0.91993 -1.2585 -0.12701 -0.56652 0.33227 0.10132 0.065807 -0.17603 -0.016392 -3.4685e-05 0.0722 -0.055086 -0.022705 0.065806 0.14666 0.4776 -0.20015 0.21469 0.4743 0.24354 0.31426 0.46708 -0.087776 -0.3623 0.44921 0.096662
law||m.04gb7 -0.16388 -0.23841 0.10986 -0.26749 -0.32397 0.19286 0.16103 -0.1304 -0.33921 -0.47291 -0.93113 0.5581 0.30807 -0.12452 0.040963 0.00071361 -0.042484 -0.60623 -0.94828 -0.38936 0.474 0.017878 -0.18732 0.15397 -0.27133 -0.59164 0.18611 -0.31339 0.17143 -0.28052 0.20979 0.058574 0.13544 -0.034002 0.46448 -1.1705 0.097544 0.78708 -0.24585 0.83657 -0.85213 -0.51868 -0.11759 -0.30876 0.74538 0.63091 -0.15467 -0.070724 -0.060737 -0.11851
expert||m.02pkl -0.34416 0.61924 0.15202 0.73738 -0.67491 -0.20565 0.30924 -0.3324 0.23714 0.13045 -0.88466 0.49737 0.15942 -0.12532 -0.38013 -0.11357 -0.38527 -0.0052779 -0.57233 0.13581 0.30979 0.38294 -0.66832 -0.3674 -0.10929 -0.11838 0.32636 -0.74217 0.27038 -0.51408 0.44336 -0.02413 -0.43543 -0.13515 0.099261 0.021052 -0.44693 1.2884 0.023023 0.47271 -0.58386 0.24948 -0.57007 -0.26566 0.40948 0.1689 0.2312 0.13691 -0.20867 0.044212
middle_east||m.04wsz 0.028976 0.696815 0.63571 0.72397 -0.2310625 -0.499915 0.245403 0.311265 -0.639785 0.195605 -0.000345 -0.46084 -0.34053 -0.1935345 0.062362 0.54093 -0.399645 0.73307 -0.37814 -0.16101 0.2072565 -0.09345 -0.34296 -0.225292 0.304435 -0.57975 0.44128 0.0489835 0.186095 -0.50588 0.36521 -0.33921 -0.1822855 0.194122 -0.118139 0.075159 -0.391925 0.44873 -0.301135 0.32257 -0.0814825 -0.49342 0.377495 0.137087 0.2767035 0.2669135 -0.1020005 -0.618845 -0.11202 -0.654245
lawyer||m.04gc2 -0.2335 0.19314 -0.16665 0.33045 0.087232 0.14279 0.42898 -0.29427 -0.34744 0.41141 -0.34163 0.41621 0.24116 -0.28529 -0.71579 -0.01332 0.40043 -0.26857 -0.55518 -0.19627 0.24743 -0.031861 -1.058 -0.23001 -0.36338 0.11829 -0.057126 -1.2974 0.40245 -0.48878 0.17031 0.11946 -0.18285 -0.84731 0.7727 -0.59686 -0.16093 1.0258 -0.096452 0.51444 -0.55115 0.13903 -0.12077 0.092746 -0.0087543 0.72127 -0.44883 0.59358 -0.16434 -0.70844
web_services||m.0n5rs -0.000955 0.2092675 0.01565 0.54538 -0.050825 0.437115 0.224605 -0.38363 0.07836 -0.608835 -0.1088605 -0.43345 0.05245 -0.1331685 0.1683725 0.627575 0.177116 -0.1704995 -0.40037 0.356225 -0.1165925 -0.722255 -0.19333 -0.506495 0.057015 -0.28094 -0.215052 -0.404625 -0.0377985 -0.20822 -0.139535 -0.26203425 -0.8091 0.003007 0.039259 -0.65944 -0.48418 0.68722 -0.102043 0.680755 0.0713465 -0.30875 -0.418585 0.097797 0.389385 0.37202 -0.160163 -0.0878315 -0.346335 0.4017875
britain||m.07ssc 0.11524 0.49731 0.30919 0.42706 -0.052496 -0.29411 -0.016911 -0.48272 -0.074728 -0.21557 -0.77315 -0.083248 -0.27777 -0.26527 -0.2274 0.078134 -0.11468 0.2095 -0.55328 -0.2687 0.93342 -0.84201 0.45615 -0.11704 0.26986 -0.94536 0.31409 0.050576 0.38218 0.39009 0.38448 -0.61921 -1.0386 -0.22202 0.079861 0.031694 0.00037621 -0.054354 0.32829 0.64264 0.53297 -0.1346 -0.30136 0.34982 0.085329 0.34404 -0.78233 -0.050213 0.17349 -0.53333
chemical_weapons||m.0bwkbcx -0.329995 -0.667555 0.18185 -0.351525 -0.76021 -0.156343 0.05981 -0.562015 -0.781585 0.06092 -0.32596 -0.1386705 -0.1168375 -0.323835 0.44223 -0.49597 -0.746255 -0.360478 -0.651055 0.127875 -0.03564935 -0.1464515 -0.6176 -0.86617 0.532355 -0.552965 0.333705 0.121904 0.770675 -0.56033 0.383965 -1.3031 -0.13993 0.05799 0.392045 -0.1004833 -0.701715 0.363055 0.050299 1.759 0.322085 0.302165 -0.79782 0.2201745 0.590195 -0.220905 0.17934 -0.089303 -0.01721 -0.156825
syria||m.06vbd 0.13012 -0.53658 0.78414 -0.29287 -0.53987 -0.22581 -0.38717 -0.58616 -0.97867 0.28634 -0.15456 -0.0014923 -0.24932 -0.20578 0.16174 0.11345 -0.98685 0.41353 -0.90245 -0.079472 -0.21883 -0.41517 -0.57298 -0.49681 0.80288 -1.009 0.62913 -0.015708 0.31404 -0.41611 0.34292 -0.98606 -0.41229 0.52928 0.44051 0.067156 -0.98788 0.55413 -0.09841 1.4768 0.32384 0.32734 0.011768 0.99641 0.18951 0.024301 -0.49817 -0.047008 -0.073002 -0.52225
washington||m.081yw -0.20353 -0.19949 -0.077655 0.58285 -0.30828 -0.031061 0.12641 0.61789 0.10978 0.31794 -0.84721 -0.015436 -0.25668 -0.17559 -0.083447 0.60321 -0.33495 0.21187 -0.82035 -0.37043 -0.20143 -0.15005 -0.35662 -0.0548 0.035359 -0.3347 0.91414 -0.50614 0.22277 -0.70588 0.59506 -0.616 -0.3068 0.31499 0.21334 -0.30862 -0.11454 -0.23609 -0.24617 0.61594 -0.61356 -0.37375 0.22668 0.14823 0.58976 -0.024547 -0.79309 -0.14626 0.29493 -0.0006314
action_movie||m.02kdv5l 0.31281 0.019305 -0.18646 -0.231915 -0.28005 -0.249365 0.3006045 -0.27788 -0.359855 0.04746 -0.25575 -0.074145 -0.238845 -0.4604 -0.334065 -0.0296717 -0.253425 0.1122615 -0.417935 -0.00235 0.33835 -0.12646 -0.719505 0.2119775 -0.17607 -0.522615 -0.346405 -0.0950615 -0.2852285 -0.2256245 0.25973 -0.534795 -0.815505 0.301202 0.138665 0.02027 -0.098445 -0.08328 -0.229465 0.59543 -0.273165 -0.31489 -0.04737 -0.52442 0.29744 0.1363575 -0.30513 0.1190045 -0.390845 -0.44793
vice_president||m.0dq3c -0.273708 0.10576 0.41697 0.554885 0.29902 0.245655 0.290075 -0.1678865 0.274512 0.03686 -0.370915 0.65342 -0.416265 0.33614 0.0846355 0.61733 0.468665 0.30542 -0.223845 0.595755 -0.36746 -0.047553 -0.659995 0.27862 -0.37058 -0.593835 0.081286 -0.666765 0.273355 -0.38944 0.322355 -0.735835 -0.45877 -0.511025 0.27284 0.005545 -0.21209 0.75632 0.03951 0.875215 -0.346405 -0.276593 0.247092 -0.68159 0.96388 0.5365 0.1919795 0.314875 -0.20928 -0.38376
humor||m.09kqc 0.41446 0.24023 -0.85388 -0.37491 0.26236 -0.63463 -0.28984 -0.058453 0.2422 0.2225 0.63646 -0.67552 0.080086 -0.060296 -0.22694 -0.17948 0.46601 -0.10193 -0.72801 0.15346 0.34613 0.11583 -1.0447 -0.11732 0.050951 -0.58973 -0.22529 0.10091 0.38144 -0.61484 -0.33093 0.13924 -0.39583 0.59259 -0.37439 0.32484 -0.34852 1.0117 -0.58083 0.76464 0.40268 -0.27499 -0.29324 -0.1322 0.74131 0.015055 -1.0997 0.58776 -0.58927 -0.29772
film||m.02vxn 0.54747 -0.024137 -0.60042 -0.13359 0.1933 -0.15654 0.45915 -0.26609 -0.10739 -0.25185 -0.45872 -0.21222 0.10775 -0.44873 -0.73732 -0.11977 -0.024169 0.33038 -0.76458 -0.31609 0.4306 0.21251 -0.93071 -0.31471 0.057638 -0.47162 -0.4064 -0.41457 -0.36219 0.054899 -0.025026 -0.74384 -1.1473 0.53815 -0.32647 0.34961 0.069415 0.05488 -0.45506 0.26664 -0.36548 -0.18684 0.0023083 -0.49348 0.46069 0.32858 -0.090856 0.08483 -0.41699 -0.68598
advertising||m.011s0 0.16713 -0.36902 0.14634 -0.012959 0.050798 0.23148 0.025676 -0.086443 0.31439 -0.92996 0.071198 -0.95353 -0.094277 -0.85635 0.012126 0.57037 -0.094826 0.22261 -0.41708 0.50018 -0.12378 0.077559 -0.46625 -0.15631 -0.22284 -0.71779 -0.47113 -0.36309 -0.13024 -0.53511 -0.39276 -0.35334 -1.3214 -0.080375 0.31484 -0.31076 -0.22729 0.14175 -0.22978 0.91631 0.082248 -0.38942 -0.35088 0.13895 0.6914 0.48558 -0.34055 0.21902 -0.37193 0.24286
horror||m.03npn 0.73513 0.18098 -0.35127 -0.081851 -0.19311 -0.721 0.53239 -0.38279 -0.23682 -0.17839 0.12358 -0.189 -0.42918 -0.53381 -0.39154 -0.27695 -0.024401 0.28893 -0.53154 -0.71804 -0.011836 -0.14798 -0.89724 -0.074375 0.30863 -0.51541 -0.14456 -0.10886 0.043352 -0.35445 -0.13172 -0.4511 -0.80129 0.94954 -0.20863 0.40095 -0.74219 -0.24459 -0.39649 0.34626 -0.048378 -0.42305 -0.40223 -0.33262 0.70811 -0.1625 -0.60021 0.52582 -0.20325 -0.68319
telephone||m.07cx4 0.31245 0.17666 -0.52292 0.45751 0.77351 -0.24054 0.29082 -0.35931 -0.39977 -0.28503 -0.21341 0.19522 0.41304 0.53384 -0.20359 0.40593 0.37987 0.065052 -0.026006 0.20315 0.35776 -0.66343 -0.52879 -0.040679 -0.1676 -0.096905 -0.072987 -0.51704 0.19582 -0.6091 -0.067316 -0.49832 -0.50683 0.27261 -0.15087 -0.78107 -0.62486 1.0575 0.63296 0.83834 -0.13695 0.12587 -0.65643 0.69488 0.32229 0.041759 -0.23848 0.2939 0.24459 -0.14789
saturday_night_live||m.039cq4 0.093398 0.23295 -0.250952566667 0.457483333333 -0.178506666667 -0.10882 0.371123333333 -0.186833333333 -0.188740666667 0.37009 0.45723 0.03021 -0.468793333333 -0.152095333333 0.0528193333333 0.22515 0.504116666667 -0.0731986666667 -0.314763333333 0.0127333333333 0.27226 -0.435743333333 -0.63121 -0.511436666667 -0.215529666667 -0.148862666667 -0.196053333333 -0.0963333333333 -0.103554666667 -0.052676 0.0511525 -0.604156666667 -0.388086666667 0.557886666667 -0.330663333333 -0.370636666667 -0.3069 -0.179271333333 -0.108256 0.508567 -0.409784 -0.200654333333 0.300293333333 0.285715 0.151520333333 0.0836966666667 -0.181951333333 -0.179486 0.154176666667 -0.28545
ford||m.02zs4 -0.15899 -0.9063 -0.7413 0.011847 0.61408 -0.58969 0.81066 0.2228 -0.33917 -0.64346 0.17232 -0.34686 -0.62711 -0.33745 0.11599 0.045624 0.02579 0.5341 0.012871 0.15815 0.18906 -0.11436 -0.092244 -0.24521 -0.08084 -0.88584 0.5148 -0.48953 0.19613 0.027872 0.37303 -0.97152 -0.25152 -0.62028 0.19127 0.75167 -0.39163 0.33743 0.10629 1.2043 -0.19708 0.31075 0.064761 -0.26935 0.20215 0.35194 -0.066823 -0.056391 -0.18467 -0.14452
male||m.05zppz 0.24849 0.63519 -0.018149 -0.5059 0.0094546 -0.41235 -0.091026 -0.30832 0.2277 -0.10718 -0.23273 -0.76313 0.083763 0.037381 -0.57304 0.16615 0.49726 0.25759 -0.41291 -0.38199 0.63984 -0.2434 -0.08477 -0.91345 -0.47104 -0.56714 -0.75618 -0.77368 0.17611 0.19052 0.42574 -0.15664 0.23554 0.77635 0.054987 0.5191 -0.29851 0.36956 0.018503 0.87444 -0.47114 -0.21464 -0.01833 -0.4274 -0.27523 0.14433 -0.34055 -0.29226 -0.46912 -0.40285
actor||m.02hrh1q 0.017288 0.19846 -0.62265 -0.15942 0.12318 0.055559 0.38859 -0.46686 0.23981 -0.070027 -0.3521 0.16616 -0.18328 -0.51332 -0.42667 -0.032873 0.93743 0.57243 -0.3502 -0.45449 0.50924 0.21969 -1.212 -0.26268 -0.70282 -0.90009 -0.4971 -0.38195 -0.016961 -0.15679 0.09879 -0.2714 -0.77324 0.33333 0.15397 0.72779 -0.17514 0.4085 0.055179 0.49231 0.017513 -0.077894 0.15189 -0.48642 -0.02732 0.16314 -0.78982 0.45797 -0.23874 -1.2255
grammys||m.0c4ys 0.36319 -0.28436 -0.95657 -0.15068 0.41471 -0.10087 0.66981 -0.03175 0.13196 -0.61234 -0.39705 -0.71821 0.4266 -0.27561 0.10617 0.086277 0.82637 -0.18867 -0.35692 0.29251 0.38449 -0.15966 -0.12581 -0.93752 -0.29075 -0.81561 -0.6298 -0.45754 -0.4427 0.30174 -0.34188 -0.65447 -0.39653 1.2146 -0.42083 -0.063098 0.086104 0.1539 0.37656 0.74667 -0.11305 -0.43409 0.39374 -0.70674 0.14962 0.25986 -0.98476 0.41115 -0.35161 -1.1133
italy||m.03rjj -0.36596 0.32474 0.58012 0.050311 -0.070337 -0.21301 0.091514 -0.77139 0.27429 -0.3749 0.23755 -0.00049861 -0.57773 -0.33908 -0.87919 0.30956 0.19395 -0.39635 -0.5172 -0.29551 1.1415 -0.6382 0.54998 0.12097 1.0315 -0.86259 0.37367 -0.44847 0.0070216 -0.18693 0.059104 0.131 -0.45582 0.13421 -0.42792 0.37578 0.10201 -0.067575 0.14166 0.98026 -0.18754 0.3754 0.13636 0.43284 -0.1296 0.78492 -0.33974 -0.30583 0.6137 -0.26289
actress||m.02hrh1q 0.43595 0.46065 -0.55473 -0.15482 -0.0078461 0.20288 0.71223 -0.32016 0.36324 0.021278 -0.41806 -0.049906 -0.22431 -0.26515 -0.56848 0.36198 1.1915 0.4545 -0.77702 -0.53839 0.15334 0.22492 -0.90161 -0.29306 -0.62701 -0.81367 -0.51528 -0.33997 0.080027 -0.37196 -0.40988 -0.38516 -0.72169 0.31294 0.09899 0.90492 -0.1334 0.3885 0.16856 0.49571 -0.40714 -0.029376 0.061514 -0.31698 -0.3764 0.58759 -1.2897 0.29963 -0.23886 -1.2679
generation||m.0ndhl -0.084394 0.17627 -0.25254 -0.023001 0.38145 0.08637 -0.20553 -0.76389 -0.053198 -0.62602 -0.19482 -0.60401 -0.51651 -0.30734 0.15887 -0.13796 0.37817 0.34136 -0.2665 0.45149 0.34256 -0.034816 -0.34199 -0.55881 -0.18113 -0.4184 0.6717 -0.28697 -0.18147 0.14063 0.25911 -0.3107 -0.26817 0.58874 -0.030541 0.58581 -0.17452 0.17734 -0.077737 0.59213 0.27445 -0.49123 -0.053341 -0.62342 0.22372 0.62853 -0.12053 0.013249 -0.32523 -0.10358
pants||m.07mhn -0.052898 -0.32034 -0.47709 -0.24447 0.017007 -0.45957 0.51374 -0.2287 0.59826 0.17488 0.35457 -0.37334 -0.25545 -0.024976 -0.62061 0.33238 0.60631 0.15944 -0.74928 -0.36153 0.28283 0.62468 0.27892 -0.37563 0.63981 -0.41261 -0.87335 -0.36761 0.25899 -0.9478 -0.35504 -0.69006 0.48455 0.074705 -0.0033044 -0.3368 -0.082987 0.20496 -0.21061 1.6421 -0.52043 -0.56984 0.35904 -0.68127 -0.42272 0.078281 -0.30867 0.31477 -1.2628 -0.0027381
short||m.02hmvc -0.18106 0.042201 -0.48877 0.11776 0.28352 -0.21801 -0.1122 -0.26138 0.29913 0.19729 0.21848 -0.024887 0.16885 -0.18629 0.074858 0.053046 0.040085 -0.13362 -0.23101 0.050965 0.18599 0.40648 -0.25925 -0.23871 0.8226 -0.83771 0.2759 0.3095 -0.10332 -0.48486 -0.11162 -0.26163 -0.37055 -0.011909 0.02091 -0.51246 -0.41149 0.26751 -0.44554 0.44359 -0.56294 0.044685 0.51965 -0.093473 -0.31499 0.5279 -0.3567 -0.33051 -0.6459 -0.42048
queens||m.0ccvx -0.38725 0.59805 -0.28039 0.71854 -0.078899 -0.20256 1.0288 0.22879 0.010853 -0.56877 0.46358 -0.72412 0.10484 0.054212 -0.26376 0.63588 0.0095392 -0.29193 -0.52564 -0.036037 0.60409 -0.4034 -0.6681 -0.27363 -0.6725 0.27339 -0.041827 0.053006 0.67554 -0.19561 0.30323 -0.12055 0.48711 0.19959 -0.01479 0.15854 -0.25702 -0.029972 -0.23587 0.50808 0.0090037 -0.21038 0.51652 0.23367 0.62686 0.93119 -0.97225 -0.54151 -0.073312 -0.70872
windows||m.0d4v4 0.20936 -0.19632 0.093023 0.3259 0.10716 -0.017151 0.7097 -0.68026 -0.0017345 -1.1392 -0.17838 -0.8119 -0.99998 0.0063887 -0.13574 0.45674 0.14776 -0.076341 0.71534 -0.20661 -0.29939 0.14046 -0.65828 -0.1191 0.81723 0.24563 -0.17033 0.029343 -0.048584 -0.49951 -0.094641 -0.7193 0.13926 0.050859 -0.5494 -1.0247 -0.41237 0.37358 0.025072 1.3649 0.0088711 -0.30166 -0.068663 -0.53629 0.4584 0.18103 -0.75849 -0.3288 -0.37613 0.24719
benjamin_netanyahu||m.0fm2h 0.184395 0.3364994 -0.169353 0.3842925 0.13293 0.32345 -0.052955 0.094964 -0.12893 0.545885 -0.509185 0.243145 -0.2479285 0.862605 -0.44674 0.052789 -0.36129 0.638185 -0.578395 0.01834 0.037115 -0.69963 -1.2919 -0.55294 0.404645 -0.884785 0.1468235 0.30767 0.395368 -0.24177 0.038428 -0.28322 -0.29877 -0.206627 0.104167 -0.140745 -0.076663 0.689465 -0.209422 1.05651 0.08744 0.080906 0.360045 0.18022 0.156745 0.662735 -1.21315 -0.288705 0.3596 -0.54931
iran||m.03shp -0.49578 -0.15291 0.10094 -0.11259 -0.70135 0.27372 -0.85936 -0.50275 -0.81803 0.047211 -1.0363 0.030453 0.28055 0.14386 -0.076233 0.13222 -0.34251 0.076525 -0.88205 -0.015014 -0.1646 -0.2046 -0.74417 -0.80569 0.65358 -0.86944 0.67839 0.14091 0.12212 -0.57118 0.15813 -1.0348 -0.35495 0.010516 -0.11985 0.1861 -0.29712 0.035906 -0.22976 1.0877 0.44617 0.22537 0.19983 0.55803 0.71832 0.57529 -0.41464 -0.10609 -0.56733 -0.49322
president_obama||m.02mjmr 0.091942 -0.32438 0.3054395 -0.057575 0.37658 0.1025505 0.031885 -0.1552775 -0.031997 0.435165 -0.514345 0.426487535 -0.26946 0.56076 0.2416605 0.44485 0.09212 0.0655515 -0.544825 0.120785 -0.36673 -0.18067 -0.56802 0.405875 -0.0856515 -0.74986 0.337045 -0.320045 0.2052 -0.449295 0.41665 -0.883145 -0.26816 -0.222715 0.1273525 -0.16545 -0.25659 0.416845 -0.2240475 1.0332 -0.63536 -0.417065 0.20065 -0.250296 0.797575 0.633125 -0.3977405 0.389945 0.069324 -0.20146
obama||m.02mjmr 0.25199 -0.49811 0.084319 -0.27593 0.30687 0.089351 -0.13516 0.054125 -0.034488 0.624 -0.60049 0.00044507 -0.05983 0.71151 0.41633 0.50843 -0.141 -0.027257 -0.7445 -0.10773 -0.33476 -0.21227 -0.41781 0.40492 -0.046103 -0.94186 0.43917 -0.11569 0.14351 -0.61709 0.47957 -0.98297 -0.15321 0.10113 0.034915 -0.15833 -0.29396 0.32135 -0.43056 1.0649 -0.78418 -0.35803 -0.02097 0.092638 0.62011 0.7462 -0.83789 0.33378 0.011048 -0.11592
united_states||m.09c7w0 -0.348025 0.197398 0.12049 0.063954 0.0799725 -0.155041 -0.20427 -0.181845 -0.597475 0.1692115 -0.605335 -0.08958865 0.0362345 -0.33274 0.1651545 0.85484 -0.270995 -0.194595 -0.74783 0.1503163 0.46008 -0.39309 0.138548 0.082621 0.1521875 -0.475595 0.19341 -0.278075 0.37552 -0.29108 0.626675 -0.78279 -0.219775 -0.096336 0.349525 0.1837885 -0.28383 -0.0939745 0.351455 0.614965 0.040065 -0.451925 -0.210265 0.211455 0.377075 0.5687 -0.12236 -0.29751 0.0530145 -0.546215
united_nations||m.07t65 -0.2558975 0.1991795 0.21996 -0.00575 -0.217725 -0.134642 -0.33827 -0.279605 -0.565935 0.03846 -0.57976 0.05266635 -0.07738 -0.217804 -0.0789455 0.88203 -0.48107 -0.0984035 -0.90389 0.4496 0.274102 -0.5398 -0.0266435 -0.078139 0.319485 -0.382805 0.044871 -0.34752 0.57617 -0.209155 0.59005 -0.94396 -0.1543795 0.01441 0.0748 0.451675 -0.35568 0.069385 0.243715 0.85384 0.088551 -0.51807 -0.13248 0.421545 0.259798 0.479815 0.02881 0.018145 0.306585 -0.714945
experts||m.02pkl -0.15344 0.18032 0.14098 0.10228 -0.39934 -0.15287 0.23376 -0.68299 0.021537 -0.044226 -1.0421 0.12532 -0.20812 -0.17732 -0.17887 -0.23805 -0.59537 -0.48725 -0.65687 0.45067 0.11259 0.10105 -0.43425 -0.48422 0.08267 -0.21346 0.1871 -0.71982 0.093243 -0.5461 0.76469 -0.18024 -0.090392 0.11351 -0.14046 -0.010401 -0.39913 0.43184 -0.17687 0.80285 -0.62861 0.046959 -0.65671 0.19117 0.20872 0.1004 0.066367 -0.11415 -0.32346 0.13499
retired||m.06lry -1.5899 0.22764 -0.33811 1.1682 0.37238 -0.3651 0.021377 -0.14795 0.36941 -0.24509 -0.1914 0.20284 -0.39644 -0.15888 -0.28279 -0.080371 0.6102 0.4212 -0.36099 0.1031 0.18854 -0.1993 -0.23318 -0.23588 -0.13029 -0.22645 -0.18416 -0.59745 0.42267 0.040793 0.31222 -0.17098 0.20935 0.12778 0.71758 0.06011 -0.55492 0.56391 0.22421 0.46693 -0.61014 -0.18685 0.091973 -0.6363 -0.0071136 0.49285 -0.32679 0.15292 0.33402 -0.5455
washington||m.0rh6k -0.20353 -0.19949 -0.077655 0.58285 -0.30828 -0.031061 0.12641 0.61789 0.10978 0.31794 -0.84721 -0.015436 -0.25668 -0.17559 -0.083447 0.60321 -0.33495 0.21187 -0.82035 -0.37043 -0.20143 -0.15005 -0.35662 -0.0548 0.035359 -0.3347 0.91414 -0.50614 0.22277 -0.70588 0.59506 -0.616 -0.3068 0.31499 0.21334 -0.30862 -0.11454 -0.23609 -0.24617 0.61594 -0.61356 -0.37375 0.22668 0.14823 0.58976 -0.024547 -0.79309 -0.14626 0.29493 -0.0006314
nightmare||m.0cjgc -0.31868 0.50935 -0.33825 0.35464 -0.24325 -0.29837 0.28419 -0.34573 0.0099545 0.11584 0.40041 0.090133 -0.68379 -0.8129 -0.056858 0.23495 0.45198 0.039915 -0.61181 -0.43879 0.18063 -0.024463 -0.92307 0.2634 0.57487 -0.60932 0.35475 0.2908 -0.2109 -0.42425 -0.25603 0.0035602 -0.14576 0.54432 0.032507 0.18903 -0.5569 -0.094056 -0.33591 0.45432 -0.095639 -0.12038 -0.52904 0.05698 0.66798 0.41551 -0.39288 0.92663 0.19862 0.20122
u.s.||m.09c7w0 -0.62245 -0.15915 -0.0086673 0.13498 0.10141 -0.32791 -0.11312 0.12564 -0.18619 0.28023 -0.55354 -0.23154 0.018069 -0.071961 0.052293 0.69691 -0.22979 -0.24968 -0.68985 -0.13101 0.37531 -0.58513 0.21936 0.058488 0.14228 -0.57106 0.40902 -0.21232 0.22791 -0.12263 0.81672 -1.0096 -0.48703 -0.2807 0.18785 -0.15924 -0.25408 0.041029 0.51576 0.31085 -0.38804 -0.09664 -0.42994 0.074956 0.33211 0.13476 -0.39451 -0.22849 -0.37137 -0.59583
carbon_dioxide||m.01s7k -0.37791 -0.404045 -0.55304 -1.056025 -0.33277 0.18367 0.37778 -1.2864 0.59363 -0.905885 -0.44643 -0.34647 -0.248895 -0.49574 -0.40654 -0.70208 -0.346325 -0.159905 -0.0429836 0.421275 0.5198 0.3260735 -0.22585 -0.354135 -0.0489955 -0.97577 0.17756 0.36678 0.298275 -0.770425 0.79775 -1.1942 0.31036 0.106745 -1.33215 -0.260185 -0.0425465 0.769745 -0.098288 0.63358 0.104535 -0.339505 -0.987235 -0.127055 0.62254 0.2622435 -0.394605 -0.263055 -0.243885 -0.66123
congress||m.07t31 0.049585 -0.4738 0.029004 0.19168 -0.090329 0.2737 -0.0049883 -0.79509 -0.12302 0.17189 -0.75044 -0.070032 -0.45138 0.39117 -0.14589 0.21954 -0.50189 -0.25909 -0.63066 -0.085397 -0.18587 -0.66431 0.45535 0.58674 -0.30377 -0.82685 0.16843 -0.40499 0.14588 -0.26856 0.48286 -0.57311 -0.11016 0.41113 0.21025 -0.54509 0.032398 -0.0070474 -0.50898 0.7727 -0.45348 -0.16735 0.14183 -0.22834 0.73988 0.67822 -0.88835 0.40032 -0.047101 -0.27617
executive_branch||m.02sdd -0.350475 0.2711555 0.34985 0.67246 -0.0698965 0.1870785 0.478 -0.1365005 0.112 -0.30787 -0.120356 0.33178 -0.591735 -0.023365 -0.489725 0.38524 -0.05828 0.122942 -0.031235 0.2757 0.2436 -0.201115 -0.179495 0.13614 -0.156085 -0.568385 -0.269845 -0.75158 -0.15801 -0.137165 0.443655 -0.514815 -0.54577 -0.271565 0.50282 -0.32796 -0.278755 0.68154 -0.469995 0.496315 0.084805 -0.224315 -0.1624895 -0.49593 0.76003 0.0641 0.1543205 0.15292 -0.29348685 -0.34246
action||m.02kdv5l 0.06624 0.16849 0.08665 -0.25667 -0.79343 -0.26614 -0.046521 -0.40297 -0.53022 0.54819 -0.29112 0.1083 -0.28619 -0.36893 -0.18204 0.0060606 -0.73216 -0.032617 -0.39281 0.49036 0.27615 -0.59523 -0.44232 0.52198 -0.20611 -0.52426 -0.37313 -0.075753 -0.063977 -0.40749 0.5495 -0.30587 -0.76736 0.076704 0.38962 -0.16589 -0.03516 0.21828 -0.16613 0.78203 -0.42148 -0.29643 0.12946 -0.51226 0.12048 0.098005 -0.26201 0.17919 -0.24644 -0.31524
alternative||m.016clz -0.16771 0.044208 0.30477 -0.4305 0.23358 0.26146 0.085605 -0.62974 0.19045 -0.21386 0.089736 0.12846 0.040636 -0.14729 0.26723 -0.18488 -0.030263 -0.21715 -0.18603 0.60675 0.98531 -0.43582 -0.44577 -0.56948 0.034566 -0.47656 -0.016259 -0.034179 -0.50437 -0.80559 0.68798 -0.13991 -0.36734 0.30914 -0.19824 -0.29125 -0.24178 0.43993 0.050864 0.45894 0.36923 0.22115 0.079874 -0.28846 0.34734 0.58212 -0.46419 -0.15574 -0.44398 0.13243
democrats||m.0d075m 0.30289 -0.3468 0.21606 -0.24367 0.21906 0.48823 0.017319 -0.62784 -0.010975 0.060522 -0.91094 -0.52586 -0.91299 0.17363 0.022324 0.32515 -0.64023 -0.6637 -0.57352 -0.21159 -0.11987 -0.20383 0.1221 0.12457 -1.0815 -1.2228 0.28985 -0.24976 -0.17274 -0.62539 0.22766 0.22691 0.10869 0.73172 0.12918 -0.37674 -0.50873 0.47156 -0.22704 1.2815 -0.22428 0.047349 0.84742 0.21958 0.19168 0.78364 -1.0401 0.41029 -0.014535 -0.5462
depend||m.03mcm3 -0.17659 -0.14735 0.18525 0.53761 -0.3427 0.1843 -0.15957 -0.616 -0.33763 -0.0095578 0.25732 -0.12205 -0.42927 -0.02337 0.018112 0.44617 0.38604 -0.24384 -0.97031 0.92273 0.45186 -0.1752 -0.18775 -0.58468 0.030166 -0.70702 -0.035278 -0.094847 -0.12996 -0.68228 0.56347 0.2999 -0.70308 0.088355 -0.62337 0.073405 -0.38362 0.32977 -0.30221 0.15048 -0.14471 0.28619 -0.36567 -0.011611 -0.33914 0.32782 -0.14909 -0.44908 -0.6615 -0.19535
days||m.02bbq -0.30865 0.16032 -0.28925 0.36492 0.024132 -0.32837 0.049128 -0.32621 0.018007 0.19356 -0.054145 0.10976 -0.54203 -0.015693 0.2455 -0.24268 0.24181 0.13631 -0.15612 0.32171 -0.07123 0.01483 -0.42255 -0.041015 0.4661 -0.20645 0.0065717 -0.49642 -0.52898 -0.093946 0.028835 -0.53346 0.0031315 0.66569 0.079873 -0.60767 -0.31163 -0.27706 -0.14624 0.48122 -0.38297 -0.42276 -0.25416 0.49277 0.054977 0.59611 -0.18582 0.2018 -0.10432 -0.71291
joe_biden||m.012gx2 -0.20774 -0.177935 -0.2527095 0.297735 -0.126062 -0.064385 0.187458 0.661985 0.040008 0.51652 0.14292 -0.173915 -0.368345 0.2787 0.2606105 0.814005 0.388325 0.33711 0.092615 0.40112 -0.32899 -0.236325 -0.943335 0.1387285 -0.66094 -0.932875 0.21793 -0.754875 0.27278 -0.509255 0.53604 -0.72474 0.331275 0.007062 -0.0283115 0.35916 -0.408475 0.1928265 -0.19087 1.17127 0.105352 -0.478295 0.077935 -0.254805 0.625995 0.773525 -0.46379 0.0285045 -0.0842915 -0.26742
organization||m.0qb7t -0.31007 0.2715 0.45271 0.026158 -0.44499 0.16025 0.063968 -0.27568 -0.37431 -0.26809 -0.203 0.17924 0.042324 -0.46491 -0.13383 0.42248 -0.23045 -0.4008 -0.75429 0.49869 -0.16535 -0.3381 -0.20159 -0.68189 -0.30097 -0.29529 0.057015 -0.97875 0.32997 0.45323 0.33589 -0.72557 -0.68408 0.29895 0.2935 -0.1391 -0.21422 0.52433 -0.70762 0.52693 -0.12088 -0.2526 0.15954 -0.017659 0.55517 -0.035734 -0.087963 0.66337 0.28852 0.28492
construction||m.01jnzj -0.65376 0.083477 -0.39528 0.079398 -0.13764 0.028221 0.8929 -0.37707 -0.20738 -1.0299 -0.39831 -0.32911 -0.44288 0.061626 0.13687 -0.26565 0.00045959 -0.11695 -0.55854 0.45184 0.00053326 -0.51247 -0.59169 -0.69579 0.54456 -0.36094 0.35651 0.090176 0.44026 -0.0054091 0.32523 -0.77108 -0.13443 -0.42351 -0.11119 -0.65946 0.33688 0.37707 -0.43312 0.20342 0.064995 -0.15475 0.29942 0.24248 -0.033103 0.39813 -0.3966 -0.17523 -0.32393 0.037769
night||m.01d74z -0.023126 0.12027 -0.41746 0.45743 -0.21168 -0.27214 0.45154 0.14461 -0.06426 0.77899 0.69409 -0.01288 -0.55069 -0.42098 0.014622 0.2021 0.44723 -0.17438 -0.36278 -0.36733 0.11711 -0.25136 -0.64334 -0.50994 -0.26285 -0.12233 -0.35764 -0.10985 -0.15676 -0.22919 -0.0022425 -0.76753 -0.38618 0.68075 -0.6277 -0.46833 -0.18079 -0.2797 -0.18787 0.82317 -0.57634 0.019311 0.39892 0.36829 0.242 0.10691 -0.21892 -0.056438 0.19667 -0.19202
stock_market||m.0drqp -0.4969 -0.19738 0.54417 -0.328425 0.40868 -0.83643 0.30727 -0.19799 0.187128 -0.172414 -0.234405 -0.267105 -0.278905 -0.44289 0.41002 0.58638 -0.1083495 -0.048844 -0.116331 0.36249 0.501785 -0.20839 -0.170185 -0.703825 -0.30215 -0.349125 0.0803606 -0.458445 -0.09005 -0.326725 -0.1404955 -0.336135 -0.475415 -0.836045 -0.883895 -0.81925 -0.122465 -0.00572 -0.3351 0.63434 0.46364 -0.24621 -0.501455 0.033349 0.106281 0.33612 -0.61064 0.0670665 -0.51511 -0.56122
plans||m.02q2rhf 0.019565 -0.089791 -0.11072 0.052614 0.054744 0.33909 0.55758 -0.35523 -0.17301 -0.093021 -0.25291 0.027988 -0.33586 0.51443 0.3327 0.14338 0.090613 0.10712 -0.51905 0.53067 0.35662 -0.77019 -0.30792 -0.32737 0.00079436 -0.46606 0.16929 -0.24003 -0.61265 -0.60226 0.41934 -0.69354 -0.38997 -0.50086 -0.029788 -0.59002 0.13376 0.13751 -0.29293 0.60275 -0.42175 -0.099448 -0.08613 -0.58693 -0.17333 0.31046 -0.087088 -0.17156 0.16138 0.20871
pension||m.0by51 -0.54061 -0.52001 0.28343 -0.27377 0.079506 -0.084252 -0.019478 -0.30407 0.24617 -1.322 -0.30408 -0.10185 -0.49414 -0.34047 -0.26634 -0.1954 0.40525 -0.29372 -1.2584 0.09747 0.32417 -0.87056 0.31364 -0.065551 -0.5292 -0.76944 -0.076844 -0.57843 -0.46004 -0.72856 0.27794 0.16299 0.27557 -0.59276 -0.35958 -0.65598 -0.17377 0.43616 -0.69666 0.50051 -0.65193 0.029835 0.20986 -0.25537 -0.070887 0.40679 -0.66455 0.16486 0.11344 -0.52802
baby_boom_generation||m.0cpgf -0.0994346666667 0.178276666667 -0.0572083333333 -0.164020333333 0.204526666667 -0.35578 0.29569 -0.251106666667 -0.134423 -0.524397 -0.100296666667 -0.455166666667 -0.477323333333 -0.185155666667 0.138793333333 -0.39999 0.474573333333 0.261089 -0.185956666667 -0.028303 0.424243333333 -0.138935333333 -0.289618566667 -0.398883333333 -0.114952 -0.583283333333 0.362116666667 -0.3438 -0.00638233333333 0.100988666667 0.09491 -0.50317 -0.373806666667 0.209812066667 -0.491440333333 0.0846833333333 -0.508093333333 0.150430333333 -0.0757056666667 0.441999333333 0.292855 -0.695653333333 -0.349823666667 -0.367156666667 -0.0398633333333 0.815916666667 -0.313556666667 0.00166966666667 -0.41669 -0.127958333333
baby_boomers||m.0cpgf 0.2094 -0.05404 0.0757035 -0.278325 -0.037215 -0.426555 0.19075 0.0576985 0.1186195 -0.3558205 -0.14769 -0.39085 -0.65018 -0.0831435 0.04262 -0.34404 0.79182 0.49717 -0.258835 0.035405 0.294315 -0.389715 -0.22396285 -0.899815 -0.412375 -0.869855 -0.222415 -0.47921 -0.0937835 -0.096406 -0.1077515 -0.30255 -0.19619 0.4279001 -0.60732 0.35766 -1.13435 -0.0273475 -0.1585575 0.731335 0.2111225 -1.2046 -0.597145 -0.23982 -0.49787 0.97851 -0.76264 -0.140133 -0.32312 -0.0807125
day||m.02bbq -0.20319 -0.12055 -0.28072 0.48798 0.01842 -0.6991 -0.022624 -0.084698 -0.0086737 0.37018 0.42749 0.22787 -0.39485 -0.23883 0.017697 0.048047 0.32238 0.044815 -0.071355 0.3704 -0.024117 0.08011 -0.22785 -0.27932 0.051092 -0.36558 -0.10976 -0.14322 -0.19268 0.21589 0.034988 -0.8748 -0.37273 0.56497 -0.00030024 -0.54364 -0.13733 -0.12442 -0.31072 0.36166 -0.27855 -0.55058 -0.21527 0.36819 0.035318 0.60327 -0.2698 0.20079 -0.12032 -0.48054
retirement||m.06lry -1.0717 -0.33458 0.15135 0.34896 0.26067 -0.20202 -0.053605 -0.13591 0.46341 -0.70166 -0.29026 -0.37449 -0.4744 0.08511 0.24851 -0.083727 0.85966 0.28641 -0.57223 0.4339 0.38739 -1.0016 -0.14199 -0.023445 -0.3674 -0.54334 -0.22093 -0.0096353 -0.26983 -0.25496 0.035323 0.042281 0.37396 0.11048 0.14911 -0.2731 -0.47236 0.21942 -0.66812 0.37703 -0.63593 -0.49603 -0.1385 -0.69029 -0.28764 0.44927 -0.64153 0.26795 0.12746 -0.30769
general_electric||m.03bnb -1.00867 -0.41172 -0.4235415 0.099815 0.19706 0.016679 0.41254 -0.160545 0.2251885 -0.4529786 0.29649 0.08548 -0.304445 -0.123038 -0.113945 0.2509055 -0.01536765 0.272985 -0.507305 0.564315 0.517085 -0.24276 -0.054589 -0.270325 -0.44036 0.0711375 0.1461245 -0.636275 0.11872 -0.0836375 0.540535 -0.440452 -0.05343 -0.220201 -0.311565 0.034299 -0.128578 0.343315 0.036292 1.02976 -0.018345 0.15009 -0.109369 -0.2249905 0.498275 0.30519 -0.03395815 0.138095 -0.3423255 -0.075455
rose||m.06m11 -0.58708 0.15317 -0.26975 0.035838 0.46096 -0.68379 0.50804 0.21193 0.61028 -0.087696 0.13462 -0.27974 -0.32005 -0.31503 -0.04678 0.62753 0.73775 0.11923 -0.71051 0.84224 -0.085947 0.32725 0.41954 -0.81055 -0.11632 -0.5656 0.5339 -0.01561 1.0402 -0.34713 -0.14282 -0.70797 -0.56384 -0.21976 -0.15161 -1.2167 -0.37003 0.14962 0.30608 0.45984 0.19939 0.25758 0.12693 -0.13323 -0.074044 0.25957 -0.05811 -0.262 -0.024464 -0.96502
south_korea||m.06qd3 -0.42872 0.02784 -0.202405 0.3062305 -0.41027 -0.341375 0.06867 -0.0937665 -0.51143 0.237595 -0.707695 -0.763015 -0.0396455 0.517075 -0.234475 0.627535 0.1561965 0.33667 -0.88255 0.423155 0.2582 -0.66997 -0.61405 -0.01151 0.232868 -0.76627 0.83033 -0.0999255 0.22622 -0.000695 -0.060955 -0.830835 0.248485 -0.1114545 -0.2254805 0.14882 -0.332065 0.1601055 0.219575 0.748195 0.01216 -0.683145 0.05395 -0.079184 0.367305 0.063524 0.0087 -0.91563 -0.142608 -0.427145
mta||m.021_5z 0.075691 -0.5012 -0.1485 0.53876 -0.20415 0.32695 0.91372 -0.52877 0.34876 -0.6317 0.32446 -0.061089 0.16309 0.025397 -0.51587 0.82939 0.024712 0.052046 -0.32533 0.52444 0.31357 -0.96287 -0.077258 -0.34046 -0.68974 -0.63985 -0.6919 0.32879 -0.32705 -0.25705 0.51593 -0.53562 0.75796 -0.61091 -0.6834 -0.33479 -0.15151 0.42441 -0.5829 1.0596 -0.26252 0.27507 -0.49557 0.29451 0.8239 0.64018 -0.35344 -0.23204 -0.060846 0.0017883
projects||m.0156dy 0.063607 0.31453 -0.2481 0.0060244 -0.071565 0.4143 0.6511 -0.84176 -0.036546 -1.1502 -0.28019 -0.17425 -0.23458 0.054309 0.57835 -0.19501 -0.32945 -0.23071 -0.75013 0.52804 -0.15787 -0.27529 -0.83719 -0.36987 0.2632 -0.58205 0.30125 -0.44125 -0.26639 -0.52797 0.23006 -0.78259 -0.36763 -0.32409 -0.44884 -0.035394 0.26124 0.52023 -0.58898 -0.15692 -0.30963 -0.015324 0.21434 -0.20001 0.19777 0.31124 -0.37097 0.060695 -0.30888 -0.26243
federal_government||m.01bqks -0.553935 -0.22398345 0.02301 -0.17616 -0.03352 0.33411 -0.010285 -0.50423 -0.110615 -0.28588 -0.23271 0.0833465 -0.249197 0.13767 -0.14600875 0.20042 -0.271175 -0.397185 -0.82605 -0.331269 0.1246339 -0.751695 -0.005065 -0.080284 -0.076375 -0.33719 0.27817 -0.39549 0.232595 -0.354916 0.4446105 -0.231005 -0.323915 -0.355915 -0.140222 -0.76404 -0.019341 0.009195 -0.232035 0.56092 -0.787385 -0.1347655 -0.24605 0.10973279 0.350485 0.28201555 -0.496195 -0.0478655 -0.215085 -0.322395
chief_executive||m.0dq_5 -0.565635 0.1627755 0.30537 0.75385 -0.0141285 0.123252 0.35224 0.022086 0.462115 -0.35838 -0.26477 0.54778 -0.76197 -0.16291 -0.661205 0.429945 0.352085 0.285445 0.22776 0.707975 0.0970225 -0.28164 -0.66831 0.16538 -0.36614 -0.48905 -0.1758545 -0.54732 0.04631 -0.2224 0.433305 -0.396125 -0.60453 -0.481795 0.35328 -0.241895 -0.4201 0.890785 0.03258 0.680725 0.0674235 -0.05148935 -0.470505 -0.599755 0.52944 0.30989 0.326185 0.38364 -0.11548185 -0.59421
tonnes||m.07ny7 -0.83685 -0.42901 -0.42927 -0.37949 -0.1566 -0.11842 0.4701 -1.3376 -0.40422 -1.0369 0.017387 -0.40334 -0.21336 0.10331 -0.41434 -0.4976 -0.24961 0.63501 -0.42491 0.74031 0.21312 0.6763 0.22451 -0.46671 0.60926 -0.9366 0.012559 -0.5939 0.60399 -0.75812 0.21744 -1.8212 -0.35718 -0.27532 -0.8878 -0.73085 0.26006 0.23984 -0.05047 0.56771 0.75413 -0.18795 -0.68427 0.38933 -0.3291 0.32052 0.34408 -0.12249 0.46583 -1.7285
the_delays||m.0557_6 -0.151215 0.09193 -0.319611 0.172085 -0.0776915 -0.16985 0.3522634 -0.38242685 0.059195 0.0016265 -0.11059 -0.12112 -0.260925 -0.39795 0.130235 0.1570085 -0.01473215 -0.0494544 -0.51195 0.349914 0.034215 -0.44622 -0.225037 0.231655 0.46005 -0.437935 0.1396 0.023507 -0.2620155 -0.27778 0.463245 -0.168277 -0.039365 0.07167 -0.31145 -0.494225 -0.097491 0.05759933 -0.16327 0.51166 -0.503325 -0.003504 -0.189965 0.22312635 0.261215 0.3356995 -0.27818 -0.152319 -0.082046 -0.14652
project||m.0156dy -0.089919 0.085799 -0.25566 -0.1256 -0.26537 0.32849 0.80367 -0.71021 -0.22483 -0.71537 -0.31336 -0.016889 0.22283 -0.054395 -0.11523 -0.10448 -0.22163 -0.15121 -0.49292 0.50477 0.058358 -0.065221 -0.80476 -0.17728 -0.093034 -0.22114 0.42779 -0.27577 -0.285 -0.15948 0.27982 -0.77285 -0.51383 -0.21476 -0.14816 0.014797 0.086308 0.43957 -1.0003 0.0035713 -0.41416 0.0082296 0.29641 -0.29164 0.39266 0.33272 -0.39544 0.016744 -0.055223 -0.044505
acres||m.0t8t -0.10456 -0.61545 -0.15408 -0.12477 -0.078829 0.22406 1.6578 -1.0484 -0.36245 -0.60331 0.44259 -1.6566 -0.79194 0.40723 0.067379 -0.13486 -0.12335 -0.30131 -0.57171 0.57238 0.21646 0.44396 -0.083918 -0.24307 -0.094961 -0.35132 -0.049722 -0.8456 0.4351 -0.6465 0.15695 -1.1206 0.30204 0.060728 -0.11249 -0.81976 -0.19912 0.69349 -0.78431 -0.1657 0.21385 -0.7365 -0.03491 0.49626 -0.11523 -0.1862 -0.66811 -0.28989 0.54826 -1.3897
chairman||m.09d6p2 -0.664 0.029454 0.23877 0.97929 -0.022662 0.54109 0.43554 -0.41289 1.0288 0.26331 -0.44806 0.22136 -0.67875 0.17661 -0.40475 0.31865 0.32248 -0.11701 0.18723 0.65898 0.58655 -0.6154 -0.11016 -0.065597 -0.80931 -0.39265 0.25132 -1.054 0.22021 -0.29542 0.45682 -0.32414 -0.33605 -0.233 0.2264 -0.38701 -0.33809 0.73255 -0.61384 0.48615 0.19977 0.44269 0.10043 -0.86001 1.0974 0.55028 0.37615 0.59379 -0.18815 -1.0062
prison||m.0d1w9 -0.74549 -0.01385 0.23648 -0.18286 0.082284 0.1802 0.025154 -0.98546 0.11555 0.13531 -0.03472 -0.27444 -0.11404 0.16028 -0.5483 -0.61004 0.87662 0.036455 -0.49369 -1.019 -0.18192 -0.39258 -0.84223 -0.12601 0.33206 -0.24433 -0.075988 -0.65886 0.0059956 -0.48729 0.25691 -0.53908 0.32809 0.67589 0.68479 -1.0738 0.39188 0.28061 -0.33611 0.31383 -0.65321 -0.45367 -0.57805 -0.11168 0.44874 0.70631 -0.17595 -0.37196 0.011444 -1.1747
portland||m.02frhbc -0.3011 -0.31623 -0.36151 0.58341 -0.14268 0.61125 1.0381 0.28706 -0.11846 -0.24099 -0.01845 -0.21972 -0.11467 -0.81404 -0.032223 0.74661 0.30137 -0.13422 -0.28375 -0.33081 0.64842 0.50939 -0.27842 -0.3282 -0.019379 -0.0081186 0.67167 -0.55395 0.17379 -0.046433 -0.060929 -0.11605 -0.63456 0.36741 -0.20881 -0.43859 -0.23374 0.33336 -0.28037 0.96646 -0.55592 -0.80344 0.41761 0.79156 0.08231 0.10745 -0.31077 -0.2306 0.34768 0.19735
correctional_facility||m.0d1w9 -0.741845 0.040805 -0.10111 0.31575 -0.286245 0.12432765 0.780615 -0.172619 -0.15565 -0.087644 -0.0433855 -0.0779315 0.003645 0.116898 -0.010475 -0.092304 0.20071 0.177785 -0.344825 -0.168955 0.471625 -0.423935 -0.37822 -0.338305 0.090842 -0.1237985 -0.1647425 -0.0540405 0.161985 -0.285175 0.37922 -0.38219 0.0079435 0.18558 0.234225 -0.663685 0.057202 0.595315 -0.56735 0.26856 -0.550405 -0.103876 -0.54521 0.18373 0.46924 0.1019325 -0.049035 -0.630505 -0.010745 -0.0871945
sheriff||m.0mb31 -0.53451 -0.30123 -0.56411 0.13302 -0.90497 0.19998 1.5297 -0.15544 -0.44827 -0.38757 0.59118 -0.26402 -0.55872 0.12384 -0.97154 0.22644 0.39697 -0.063974 0.38336 -0.5862 0.35938 -0.2927 -0.98547 0.67486 -0.8978 -0.4243 -0.71365 -0.7404 0.55279 -0.5512 0.57178 -0.046226 -0.25467 0.3236 0.4258 -0.47046 -0.43115 0.85235 -0.11361 0.94995 -0.69786 -0.31595 -0.4102 0.6286 -0.078963 0.31171 -0.33496 0.14206 -0.26696 -0.55154
telecommunications||m.029g_vk -0.161 0.27267 0.28182 0.60307 0.42252 0.28897 0.13711 -0.7573 0.36213 -0.6535 -0.657 -0.11924 0.099368 -0.32079 0.24564 0.41098 0.00093275 -0.30486 -0.52893 0.17104 0.48814 -0.75195 -0.1449 -0.13161 -0.1888 -0.74913 0.34328 -0.56315 -0.19301 0.027049 -0.0061271 -0.59865 -0.24867 -0.53382 -0.68274 -0.88836 -0.047749 1.0923 0.4261 0.78938 0.21421 0.32036 -0.36111 -0.13893 0.80666 0.31595 0.16642 -0.2844 -0.017434 -0.043342
times||m.09rkd 0.036357 0.24394 -0.67077 0.38883 0.23755 -0.40831 -0.24384 -0.071015 0.29049 -0.28668 -0.36581 -0.23329 -0.2457 -0.35317 -0.19314 0.15188 -0.17609 0.2354 0.042279 0.17659 -0.013978 0.09784 -0.62637 -0.58883 0.30769 -0.56691 -0.015903 -0.37208 0.052062 -0.095535 0.019724 0.028323 0.05117 0.042868 -0.028228 -0.5631 -0.45531 -0.4391 -0.26737 0.51909 -0.31022 -0.7625 -0.3286 0.40078 0.29629 0.20747 -0.32132 0.052667 0.33993 -0.44291
foreign_direct_investment||m.02n7nb -0.267239 0.26758 0.25941 0.171567 -0.0161526666667 -0.184104 -0.363166666667 -0.07135 0.0266213333333 -0.58158 -0.277032 -0.0388306666667 0.168187433333 0.105527666667 -0.102252 0.170246333333 -0.0774233333333 -0.113281333333 -0.725646666667 0.25632 0.27344 -0.51398 -0.542573333333 -0.0439973333333 0.02448 -0.808023333333 0.127922666667 -0.284744 -0.188436666667 -0.382351333333 0.373066666667 -0.502423333333 -0.516883333333 -0.301300333333 -0.1989093 -0.3157 0.00571 0.50575 -0.018996 0.501403333333 0.285930333333 0.339036666667 -0.32563 -0.0365553333333 -0.09694 0.236879666667 -0.213635 0.0220066666667 -0.251519 -0.585763333333
location||m.078x4m -0.177 0.15852 0.043392 0.42063 -0.077754 -0.36391 0.54472 -0.54723 -0.73546 -0.36778 -0.05852 -0.24116 0.19777 0.38594 -0.014214 0.68487 0.24798 0.04785 -0.02703 -0.081273 0.56183 0.20526 -0.67144 -0.47909 0.3925 0.014933 -0.61795 0.055115 -0.23251 -0.3115 0.37488 -0.47896 -0.38438 0.25599 -0.12238 -0.3602 -0.09931 0.56165 -0.72335 0.38887 -0.054198 0.00040314 -0.39853 0.37278 0.25837 -0.091514 -0.27821 -0.64625 -0.19797 -0.12049
general||m.0130xz -1.2548 -0.52515 -0.049693 0.31702 0.17401 0.05574 0.15045 0.10143 0.071227 -0.0069772 0.32433 0.42464 -0.33715 0.061964 -0.38209 0.48759 0.0071197 0.28782 -0.60433 0.73481 0.33602 -0.1484 0.085702 -0.20745 -0.46311 0.2044 -0.026921 -0.91255 0.34775 -0.068581 0.8604 -0.073574 -0.45393 -0.045762 0.16199 0.090895 -0.028306 0.37838 0.014906 1.2046 -0.17204 0.12239 -0.28228 0.045369 0.55917 0.34737 0.0091827 0.54411 -0.094191 -0.3455
champions_league||m.0c1q0 -0.50708 0.679225 0.090439 0.43869 -0.11066195 -0.166849 0.011995 -0.2824966 -0.5396 0.31927 -0.25706 -0.383045 -0.1062775 -0.88544 0.102803 0.5852 0.33132 -0.264864 -0.24674 0.313305 0.557555 -0.408425 -0.1057125 -0.562945 0.401285 -0.841965 -0.59448 -0.078159 0.05446695 -0.411985 -0.077945 -0.37177 0.086321 0.1958335 -0.209055 0.181355 0.50171 -0.0225275 -0.3112825 1.071305 -0.137165 -0.4385 0.8615 0.1605 0.668145 0.0697605 0.1190435 0.741955 0.57284 -0.625175
fall||m.0134l -0.29247 -0.058029 0.18187 -0.10254 0.20473 -0.23415 0.27509 -0.11298 -0.16098 -0.0964 -0.040737 -0.017163 -0.56188 -0.17988 -0.13237 -0.05491 0.0056284 0.0653 -0.34985 0.21223 0.045713 0.28569 0.17993 -0.34309 0.42178 -0.61426 0.21228 0.39658 0.26616 -0.43477 -0.3243 -0.32391 -0.80926 0.12656 -0.056535 -0.57026 -0.51936 -0.48787 -0.16341 0.55975 -0.71389 -0.1198 0.32082 -0.31373 0.07595 0.40554 0.041799 -0.13723 -0.61862 -0.66596
midfielder||m.02nzb8 -0.48532 0.48992 -0.071507 0.02975 0.014696 0.18958 0.29766 -1.1138 0.042031 0.13209 -0.3566 0.24434 0.23503 -1.0301 -0.017794 0.54165 0.62307 0.12517 0.43655 -0.069761 1.0134 -0.41533 -1.2597 0.015322 0.57322 -0.98219 -0.37614 -0.66822 0.95664 -0.87326 0.015077 0.017282 0.00020807 0.050067 -0.016375 0.43203 0.58311 0.29444 -0.41137 1.4924 0.70477 -0.23118 0.93317 0.1413 -0.39208 0.43395 -0.077099 0.15933 0.88654 -0.56983
news_conference||m.01s8fx 0.328455 0.0285535 0.067265 0.63061 0.006325 -0.2172925 -0.0503085 0.2526215 -0.02108 0.419285 -0.003541 -0.257255 -0.54191 0.1043515 -0.252355 0.387995 0.216775 0.072825 -0.011475 0.45909 0.324605 -0.802965 -0.82071 -0.45968 -0.2006 -0.601205 0.0509725 -0.654415 0.03225 -0.3001 -0.1229 -0.473625 -0.59569 0.092015 -0.47114 -0.492925 -0.223405 0.43326 -0.25456 0.602115 -0.62977 0.11124555 -0.183771 0.641095 0.573145 0.0356755 0.47774 0.40637 0.2926615 -0.1780785
borussia_dortmund||m.01w_d6 -0.1323745 0.12309 0.09822 0.235104 0.09337985 -0.23096 -0.0190685 -0.994715 0.311905 0.086024 -0.604035 -0.5597 -0.141229 -1.32695 -0.2121 0.0808771 0.5189 -0.49456 0.215827 0.0009725 0.892635 -0.76737 -0.31916 -0.35133 0.95201 -0.724805 0.228845 0.209615 0.322405 -1.3284 -0.683125 -0.433515 0.1205905 0.600105 -0.1241215 0.458935 0.181535 -0.332555 -0.301095 2.03265 0.27424 -0.140809 1.042405 0.189065 0.38788 0.31423 -0.417145 0.0183595 0.754945 -0.55068
dortmund||m.01w_d6 -0.18931 0.14559 0.10894 0.088418 0.18949 -0.15295 -0.064075 -0.98113 0.24848 0.018238 -0.45202 -0.61793 -0.24326 -1.3777 -0.23994 -0.0039358 0.46682 -0.44265 0.34665 0.087888 0.89516 -0.69219 -0.28428 -0.28534 0.83842 -0.74524 0.20802 0.29683 0.30773 -1.2059 -0.65979 -0.36534 0.17625 0.57274 -0.024693 0.44903 0.17456 -0.3044 -0.44741 2.0323 0.33139 -0.21282 0.87271 0.21381 0.41667 0.31016 -0.37802 0.085388 0.73314 -0.53561
striker||m.02sdk9v -0.45152 0.65193 -0.055079 -0.12876 0.14739 0.14179 0.42381 -1.1983 0.044875 0.31562 -0.38771 0.1595 0.28165 -0.85001 -0.32781 0.53512 0.70786 -0.066347 0.073092 -0.091053 0.80929 -0.31235 -1.1805 0.17083 0.62248 -1.1631 -0.44035 -0.33991 0.77606 -0.62233 0.1471 -0.064052 -0.08658 0.17854 -0.0654 0.3646 0.59447 0.054484 -0.30992 1.3876 0.70853 -0.35145 0.76387 0.042976 -0.19252 0.4319 -0.0013618 -0.014129 0.94216 -0.63418
king||m.04syw 0.19724 0.51801 -0.13153 0.52314 0.0098307 -0.3033 0.46307 0.095779 -0.28029 0.66733 0.44708 -0.017845 0.076856 0.35273 -0.2289 0.052662 0.30933 0.45451 -0.1339 -0.088566 0.79943 -0.60012 -0.023705 -0.015259 -0.34352 -0.37172 0.20699 -0.40388 0.11434 0.3706 0.68809 -0.36734 -0.27323 -0.15163 -0.054908 0.37094 -0.26289 0.24054 -0.21067 0.88192 0.50122 -0.35835 0.069662 -0.49154 0.67356 0.39408 -0.7622 -0.0086291 0.56112 -0.919
television||m.07c52 0.60934 0.27914 -0.30111 0.20198 0.62104 0.35267 -0.21744 -0.51335 0.00023901 -0.31959 -0.01348 -0.35848 -0.37814 -0.31207 -0.091087 0.11015 0.67244 0.56864 -0.25432 -0.23649 0.29776 -0.45054 -0.85099 -0.28909 -0.15919 -0.53689 -0.56481 -0.24677 -0.16586 -0.022459 -0.082272 -0.67984 -1.0525 0.21322 -0.37248 -0.40748 -0.17731 0.1176 0.16375 0.66189 -0.38149 -0.062109 0.12117 0.40771 0.90001 -0.050448 -0.11907 0.14041 -0.28105 -0.13038
real_mallorca||m.01vqc7 -0.301715 0.563985 0.1283185 0.06723 0.02539915 -0.2593 0.36815 -0.35945 -0.140654 -0.25594 0.49383 -0.4328065 0.420995 -0.26707 -0.397795 0.375095 0.65476 -0.590115 -0.085069 -0.100955 0.85862 -0.1605735 -0.83294 -0.001555 0.34847 -0.60181 0.199495 -0.01468 0.17744 -0.6184 -0.0354405 -0.03903 0.041765 0.04162 -0.256695 0.1859315 0.0893585 -0.258615 -0.362485 0.686205 -0.0199325 -0.155035 0.181243 0.32992 0.1395835 0.573875 -0.59693 0.1852665 0.3286515 -0.134323
ap||m.0cv_2 -0.15569 0.4521 -0.61725 0.46008 -0.28335 -0.18142 0.41917 -0.34641 0.0088358 0.10773 -0.36336 0.64498 -0.43424 -0.12155 -0.39405 0.63517 0.83673 0.58637 -0.39464 -0.18307 0.72093 -0.15651 -0.28158 -0.57305 -0.29812 -0.17864 1.0845 -1.3899 0.068971 -1.0928 0.32682 -0.78397 -0.46562 -0.045346 0.013276 -0.64103 -0.31163 0.16484 1.0119 0.18287 -0.75614 -0.8509 0.1356 0.08164 0.48548 -0.44139 0.077877 0.35066 0.60627 -0.061566
unemployment_benefits||m.0218w7 -0.25869 -0.0980695 0.280065 -0.821945 0.474315 -0.029755 0.26998835 -0.211975 -0.31049 -0.69491 -0.524115 -0.21987 -0.507265 -0.31764 -0.087045 0.26998 0.51899 -0.125074 -0.90261 0.2713395 -0.1019295 -0.71884 0.298965 -0.166025 -0.25489 -0.79615 0.075485 -0.1439945 0.9772 -0.83112 0.275055 -0.103242 -0.112902 0.44767 -0.4059395 -0.587 -0.0679125 0.370625 -0.38354 0.31017 -0.629835 -0.384415 -0.229256 -0.06095 -0.374615 0.636315 -0.70263 0.0739435 -0.19443 -0.65957
education||m.02jfc -0.019188 0.30191 0.19613 0.12793 0.20841 0.16062 -0.0094675 -0.08661 0.14756 -0.85792 -0.087447 0.12704 0.0006053 -0.10465 0.29643 -0.0047679 -0.16048 -0.14247 -1.1742 0.30293 0.18276 -0.50647 -0.18228 -0.39193 -0.8875 -0.79218 0.05906 -0.015457 0.50157 -0.080525 -0.051161 -0.28014 -0.25098 0.37116 0.04889 -0.24857 0.13557 1.3998 -0.55606 0.2545 -0.74832 -0.32213 -0.089484 0.019606 0.47834 0.94121 -0.17748 0.018959 -0.20114 -0.13389
glaxosmithkline||m.01bbm7 -0.41141 0.87408 0.38588 -0.17474 0.11024 -0.082053 0.88516 -0.46948 0.6143 0.061267 -0.85715 -0.28688 0.24092 -0.88271 -0.70775 -0.59362 -0.48013 0.0020982 -0.82321 0.43889 0.17237 -0.87022 0.020681 -0.82866 -0.10878 -1.1069 -0.19852 -0.80207 -0.45548 -0.36294 -0.38256 -0.7914 -0.24597 -0.94579 -0.29542 -0.28184 0.24319 0.027599 0.4256 1.3992 0.34748 -0.084572 -1.2501 0.13424 0.45856 0.41566 -0.57008 -0.43075 0.17484 0.0030378
travel_agencies||m.02ty15 -0.1013375 0.0496435 -0.0315625 0.383345 -0.210422 0.3545085 -0.1231517 -0.434545 -0.015885 -0.420975 -0.408925 0.029756 -0.155265 -0.252405 0.32244 0.68368 -0.07123 -0.102885 -1.0385 0.0317 0.218765 -0.465255 -0.4702 -0.1195 0.27256 -0.61082 -0.2969435 -0.604275 0.001385 -0.634595 0.162235 -0.479195 -0.341435 0.020565 0.18455 -0.45356 -0.283625 0.020743 -0.0703255 0.278 -0.2457155 -0.258495 -0.42073 0.381935 0.008345 0.388065 0.007378 0.0655515 -0.27767 0.15191
xinhua_news_agency||m.01n13b -0.250946666667 0.033221 -0.3263 0.216212333333 -0.415263 0.108985 -0.24153 -0.311852333333 0.0836793333333 -0.20544 -0.0778133333333 -0.206564333333 -0.228335333333 0.252741 -0.486893333333 0.320641666667 0.137256666667 0.283945 -0.57745 0.185875 0.0381703666667 -0.66283 -0.769443333333 -0.402851 -0.093766 -0.751516666667 -0.252621666667 -0.799876666667 0.477466666667 -0.01368 -0.135054333333 -0.569083333333 -0.691796666667 -0.25022 -0.591243333333 -0.461146666667 -0.51942 0.324225333333 -0.28113 0.582623333333 -0.616756666667 0.0455380666667 -0.67642 0.70337 0.562926666667 0.0376502 0.0151073333333 -0.09797 0.116733333333 0.130117666667
drugs||m.02kjb_ -0.24171 0.71947 0.32071 -0.64032 -0.21173 0.095203 0.63725 -0.66538 -0.39495 0.10347 0.13226 -0.50213 0.38762 -0.8687 0.50016 -0.33811 -0.13614 0.0522 -0.4784 0.03778 0.0046896 -0.30313 -0.037702 -0.90062 -0.025011 -0.90981 -0.40358 -0.77396 0.45307 -0.304 0.23436 -0.23202 0.24828 -0.019249 -0.19879 -0.079692 -0.14918 -0.12872 0.28286 1.005 0.0022075 -0.24365 -1.2045 -0.25261 0.45622 0.8247 -0.32677 -0.13921 -0.17834 0.30676
drug||m.02kjb_ -0.60405 0.73291 0.38733 -0.79662 -0.2995 0.29439 0.79095 -0.32972 -0.29003 0.12689 0.18216 -0.33592 0.36644 -0.9064 0.018565 -0.084669 -0.19089 -0.15516 -0.58059 -0.12402 -0.17135 -0.37088 -0.063553 -0.7391 -0.082705 -0.78808 -0.24013 -0.8011 0.25475 -0.33193 0.53631 -0.32947 0.057254 0.071345 0.042248 -0.088163 0.088512 -0.17623 0.20897 0.89965 -0.14064 0.023381 -0.95219 -0.30641 0.85358 1.1058 -0.17989 0.034599 -0.084593 0.38699
xinhua||m.01n13b -0.6842 0.086386 -0.53052 -0.092043 -0.91051 -0.33944 -0.44564 -0.37287 0.11095 -0.48325 0.23997 -0.36095 0.015744 0.891 -0.99025 0.014505 0.34148 0.43704 -0.84721 0.1674 -0.025279 -0.60554 -0.78043 -0.54656 -0.016008 -0.93231 -0.15241 -0.91902 0.48304 0.24447 -0.26451 -0.6676 -0.46481 -0.10313 -1.155 -0.35099 -0.58672 0.67569 -0.202 1.0105 -0.76642 -0.0091469 -1.0361 0.7397 0.53287 -0.0087054 -0.024988 -0.921 -0.008253 -0.01392
record_producer||m.0dz3r -0.1797865 0.40992 -0.43474 -0.0654575 0.251605 0.03374 0.236946 -0.037041 -0.1173455 -0.2743 0.0309865 -0.19714 0.053345 -0.541155 -0.13827 0.236445 0.426745 -0.06873 -0.064161 0.1419 0.198015 0.11755 -0.229365 -0.432945 -0.136294 -0.749015 0.0389935 -0.382716 0.50479 0.1215355 0.1968525 -0.8619 -0.749895 -0.1653115 -0.47046 -0.19066 -0.0496 -0.00471 -0.1331595 0.12047625 -0.08489 -0.0924145 0.057469 -0.122821 0.493685 0.184425 -0.09995 0.08213 -0.18483 -0.86967
injury||m.02kh4w -0.95731 0.85927 -0.122 0.19189 -0.71389 -0.2935 0.70302 -0.36245 -0.59919 0.75798 -0.50333 -0.050108 -0.21549 -0.91258 -0.064661 -0.093739 0.77493 0.56428 0.05611 0.10349 0.024246 -0.39138 -0.29897 -0.011555 0.68119 -0.71915 -0.60849 -0.02296 0.46258 -0.59556 -0.19853 0.35353 -0.021175 0.23728 -0.40851 0.0060289 -0.0032815 0.19976 -0.62434 1.2677 -0.76811 -0.035117 -0.12024 0.10354 -0.77467 -0.015153 -0.5314 0.44331 0.1449 -0.32883
chinese||m.01r2l -0.37433 0.299 -0.038662 -0.071043 0.20681 -0.59466 -0.40581 0.17553 0.040541 -0.38878 -0.41921 -0.81861 0.19283 0.50546 -0.65204 0.026364 -0.063238 -0.044051 -1.1326 0.12659 0.5873 -0.35397 -0.47003 -0.25375 0.12212 -0.48978 0.27332 -0.73161 -0.3004 0.38541 0.1459 -0.66565 -0.090641 -0.06629 -0.83557 -0.047194 0.035151 0.16866 0.38094 0.83433 -0.089597 -0.11436 -0.33016 0.055103 0.012172 0.20467 -0.20562 -0.84583 -0.32531 0.1233
hectares||m.09ppg -0.48584 -0.059565 -0.11946 -0.44707 -0.24298 -0.11723 0.94736 -1.2539 -0.21547 -0.64524 0.6719 -0.93108 -0.10768 0.42397 -0.28993 0.082144 -0.15784 0.098955 -0.90295 0.79052 -0.05941 0.31318 0.12439 -0.54018 -0.034453 -0.34001 0.16 -0.78802 0.18343 -1.0149 0.13879 -0.94819 0.36076 -0.059804 -0.2517 -0.46467 -0.20818 0.51241 -0.33252 0.28709 0.36174 -0.74257 0.097711 0.66226 -0.26262 -0.16836 -0.78268 -0.40326 0.82672 -1.1181
property_developer||m.028sdw -0.34007 0.255265 0.370785 0.1132023 -0.041325 -0.00916 0.967485 -0.255395 -0.468325 -0.921515 -0.24379 -0.58615 0.1898635 -0.177941 -0.0071575 0.126425 0.229762 -0.256715 -0.194081355 0.025305 0.379635 -0.116557 -0.77596 -0.2810685 -0.105245 -0.067445 0.21764 -0.34638 0.088245 -0.27208 0.157433 -0.295165 -0.185035 -0.73516 0.0715345 -0.5305 -0.09502 0.23488 -0.42764 0.249245 0.1394345 -0.2654 -0.239333 -0.1182295 0.2231205 0.232167 -0.81623 0.049437 0.1356675 -0.070561
natural_resources||m.05fsp -0.20091 0.0218025 0.197293 0.291202 -0.0971917 0.23879 0.2381005 -0.618665 -0.1952265 -0.32075 0.24218 -0.353665 -0.027441 -0.36521 0.0450605 -0.25126 -0.0432165 -0.602765 -0.726175 0.445985 0.261385 0.097195 -0.39115 -0.233118 -0.3110935 -0.599015 0.331255 -0.192603 0.31621 -0.077284 0.463295 -0.694285 -0.292925 -0.09123 -0.635665 0.1049355 -0.1355835 0.823745 -0.42922 0.152005 -0.084897 0.15306175 -0.369095 0.007159 0.2909295 0.0277185 -0.088144 -0.4721 -0.4541 -0.34913
heritage_foundation||m.01tw7q 0.110356 0.253855 0.40325 0.269145 -0.2019189 -0.034172 0.612975 -0.08722 -0.1707165 -0.407045 -0.22264 -0.178812 0.044555 0.1226215 -0.229225 0.2924265 -0.0193175 -0.639935 -0.73235 0.2222685 0.21526 -0.03382 0.100267 -0.370735 -0.057295 -0.46585 0.1157175 -0.548995 0.20991 0.1344685 0.316805 -0.61478 -0.88528 0.043426 0.249865 0.0734285 -0.33067 0.674145 -0.757565 0.31149 -0.167711 -0.401 0.452535 -0.56046 0.351695 -0.1489042 -0.39031 0.487905 0.36905 0.0772675
credit_suisse||m.03g776 -0.552975 0.40861 0.33083415 0.095054 0.39655 -0.25759 0.26702 0.379255 -0.045505 -0.772555 -0.52908 -0.052797 0.096591 -0.1250855 -0.358074 0.417645 -0.3278875 -0.30105 -0.67576 -0.0093 0.54068 -0.61299 0.0006955 -0.2325355 0.140845 -1.17532 -0.51235 -0.292427 0.034255 -1.16501 -0.59727 -0.0846735 -0.59067 -1.03428 -0.26563 -0.5017 -0.260085 0.30502 -0.151799 0.86616 -0.17357 0.017165 -0.34132 -0.142 -0.49956 -0.035577 -0.31829 0.36136 -0.26687 -0.703695
laws||m.04gb7 0.19606 -0.18642 -0.19939 -0.45968 -0.86259 0.21958 -0.2305 -0.52723 -0.5121 -0.68907 -0.65716 -0.00030223 -0.38176 -0.20105 0.15848 0.16773 -0.066893 -0.62531 -0.83405 -0.38171 0.66297 -0.2928 0.14404 0.1798 -0.36834 -0.67321 0.32822 -0.45668 0.32139 -0.12095 0.27397 0.21494 0.18081 0.00094266 0.36904 -1.1974 0.14689 0.54597 0.048383 0.91901 -0.37312 -0.61091 -0.45301 -0.36902 0.87866 0.69552 -0.095575 0.2481 -0.25052 -0.29951
arrangement||m.0z9w -0.18423 0.0034387 -0.27057 -0.010466 0.044045 0.65127 0.025961 -0.071078 -0.30965 -0.31189 0.034456 0.1555 -0.14308 0.092669 0.21268 0.24957 0.31749 -0.46321 -0.82104 0.44251 0.66131 -0.63547 -0.79132 -0.19383 0.59084 -0.19944 -0.45133 -0.014178 -0.29469 -0.18763 0.07697 -0.1846 0.02232 0.0059779 0.079769 -0.52944 -0.40278 0.43462 -0.42839 0.33187 0.43427 0.49358 -0.21179 -0.38349 0.24441 0.51431 -0.72492 0.41751 0.12122 -0.47976
communications||m.01lhf -0.12526 0.061868 -0.035016 0.85767 0.28344 0.41105 0.14795 -0.45728 0.23792 -0.3973 -0.38642 0.060679 0.37923 -0.17276 0.28351 0.79871 -0.24727 -0.26586 -0.51634 0.14423 0.099619 -0.73823 -0.31326 0.32922 -0.16251 -0.18598 -0.091637 -0.39098 0.0029248 -0.40134 -0.038283 -0.47207 -0.55259 -0.29918 -0.10908 -0.46177 -0.72441 0.9214 0.19928 0.88088 -0.10995 0.20522 -0.50432 -0.147 0.75794 -0.075793 0.10638 -0.15852 -0.11782 -0.025221
alec_baldwin||m.018ygt 0.364855 0.30796 -0.520065 0.28546 -0.186896 0.28684 0.528645 0.32522 0.3517775 -0.24202 0.0046745 0.1198615 0.0868185 -0.31918 0.088453 0.428155 0.40741 0.212665 0.1387185 -0.499865 0.343275 0.034255 -0.75495 0.246485 -0.286875 -1.13695 -0.1136795 -0.82662 0.0489155 -0.21252 -0.067656 0.086407 -0.608805 0.0483025 0.4026785 -0.001465 -0.229735 -0.0441925 -0.226045 0.737495 -0.31713 0.0806635 0.0888285 0.0588925 -0.405475 0.25853 -0.76869 0.138484 -0.477955 -0.9406
los_angeles||m.030qb3t -0.60415 -0.126555 -0.32728 0.217455 -0.002542815 -0.116375 1.0848 0.622005 0.14947 -0.53961 0.136549 -0.468145 -0.0760355 -1.2621 -0.91551 0.484085 0.35995 0.0389366 -0.53336 0.0061623 0.22674 -0.400025 -1.06655 -0.390185 0.12412 0.185105 0.299065 -0.637595 -0.278715 -0.3913 0.4733 -0.2024 -0.148505 0.789405 -0.16924 -0.340235 0.0194693 -0.09589 0.60565 0.66188 -0.786095 -0.494735 0.262765 -0.0729495 0.180055 0.03654 -0.72494 -0.0456324 0.374865 -0.25139
bipolar||m.01g2q -0.31983 0.83492 0.24574 -0.69171 -0.12528 0.037274 0.96863 -0.42362 0.34213 0.59402 -0.34384 0.15166 0.32527 -0.71417 0.10827 -0.27548 1.0963 0.46845 -0.716 -0.54184 0.27325 -0.03381 -0.37628 -0.16779 0.046919 -0.88003 -0.44506 -0.79009 0.35155 -0.22329 -0.091788 0.38416 -0.34547 0.67353 -0.13912 0.2641 -1.0626 0.46802 -0.65638 0.63024 -0.34324 0.40596 -0.99132 -0.22653 0.15532 0.60388 -0.95137 0.36048 0.19198 -0.42829
black||m.0x67 0.173 0.097036 -0.070236 -0.42789 0.35662 -0.70715 0.33094 -0.044617 0.21917 -0.18038 0.48739 -0.23451 -0.14943 0.2563 -0.33934 0.33146 0.55141 -0.25825 -0.32431 -0.2162 0.27501 0.38 0.25775 0.037681 0.07134 -0.27919 -0.36901 -0.43218 0.2796 -0.24746 0.85573 -0.50909 0.15406 0.1735 -0.11377 0.15629 -0.53667 0.45798 0.26809 1.0945 -0.56378 -0.64846 0.39632 -0.45508 0.30946 -0.0089828 -0.042835 -0.087598 -0.71979 -0.49573
november||m.05cw8 -0.9798 0.12795 -0.083226 -0.19083 -0.12259 -0.059574 0.4928 -0.034794 -0.27091 -0.18218 -0.23066 -0.059901 -0.23675 0.31579 -0.25892 0.31465 0.24376 0.1679 -0.16054 0.5389 0.010323 -0.18839 0.23101 -0.17968 0.036524 0.073165 0.20239 0.0072842 0.083297 0.082134 -0.040498 -0.45924 -0.65766 0.081868 0.034294 -0.71984 -0.1228 -0.55881 0.25131 1.1325 -0.50201 -0.091933 0.093669 -0.013653 0.37525 0.62846 -0.10017 0.099812 0.10828 -0.92331
harry_potter||m.03647x -0.07237 0.007845 -0.475215 0.64303 0.62002 0.397085 0.85792 0.172405 0.01466 0.40333 -0.509295 -0.1165195 -0.186312 -0.0864545 -0.51761 -0.234135 0.375935 0.036474 -0.33897 -0.42231 0.78529 0.040305 -0.134531 -0.61678 -0.05061 -0.27683 -0.018609 0.1810355 -0.0784755 -0.41132 0.2958271 -0.39849 -0.503865 0.397945 0.225586605 0.063537 -0.7245 0.15983 0.382935 0.651345 0.2183225 -0.554305 0.2308403 -0.517315 0.673265 0.25397 -0.89594 0.60164 -0.395135 -0.787075
harvard||m.03ksy -0.13472 0.23372 0.12133 0.99517 0.51091 -0.28573 0.50955 0.29223 0.4221 -0.26273 -0.98945 0.093646 0.87762 0.015433 0.066207 -0.35118 -0.16122 -0.36391 -0.72725 -0.035574 0.096254 -0.014304 -0.25714 -0.26131 -0.23403 -0.48415 0.33878 -0.31756 0.34827 -0.61382 -0.43464 -0.057903 -0.22665 0.4335 0.062227 0.01634 -0.48955 0.83074 -0.46451 1.0621 -0.93996 -0.4578 0.20405 -0.33753 0.40306 0.45441 -0.24088 -0.42011 0.24644 -0.34426
led||m.04myn -0.52103 0.95543 -0.469 0.46939 0.083379 -0.42756 0.57894 -0.061098 0.087226 0.13409 0.07818 -0.2578 -0.16055 -0.19733 0.111 -0.2752 -0.20134 -0.24979 -0.36208 0.1145 -0.21586 -0.34812 -0.12673 -0.064845 -0.099886 -0.33967 0.58931 -0.04179 0.11845 0.33287 0.59004 0.31 -0.62074 0.010236 -0.14541 -0.57892 -0.19875 0.5748 0.37685 0.98566 -0.17715 0.30862 0.43069 -0.46254 0.19041 -0.045165 0.1072 0.22089 0.34379 -0.5173
nfl||m.059yj -0.1963 -0.70598 -0.21415 0.52036 -0.32855 0.57762 -0.011377 0.42738 -0.66012 -0.12086 -0.086453 -0.71637 0.10661 -1.1886 0.40751 0.22083 0.43732 0.78453 -0.11258 0.21904 0.025245 -0.26547 -0.35949 -0.46974 0.13614 -1.3022 -0.72049 -0.53015 0.0054794 0.097125 0.065203 -0.096254 -0.19726 0.14669 0.24427 -0.16133 -0.031976 -0.011482 -0.73095 1.0511 -0.61498 -0.30889 0.017407 0.20492 0.64938 -0.44078 -0.44774 0.52013 -0.10058 -0.64028
touchdown||m.01nv7n -0.37258 -0.47887 -1.3779 1.0146 -0.92855 -0.012067 0.35679 -0.84033 -0.13021 0.45307 -0.025528 -0.88387 -0.15427 -0.91248 1.1009 0.07113 -0.26214 0.89801 -0.24495 -0.9432 -0.037911 0.65724 -0.51316 -0.086454 -0.43253 -1.7027 -0.3918 -0.18227 0.32178 -0.82686 -0.44055 0.13327 -0.61303 -0.015155 0.015676 -0.77412 0.42619 0.87628 -1.2033 1.5141 -0.069585 -0.34505 0.60001 -0.12981 -0.61489 -0.18697 -0.70239 -0.092551 0.71143 -1.3829
yards||m.087tz -0.41618 -0.12141 -1.0865 0.91719 -0.88294 -0.099695 0.16892 -1.1531 0.19513 -0.30929 0.08029 -0.96102 -0.20771 -0.66906 0.94326 0.14727 -0.032377 0.80978 -0.20996 -0.37369 -0.17558 0.82214 -0.23393 -0.34846 -0.14026 -1.3003 -0.2698 -0.083727 0.43119 -0.62552 -0.37383 -0.47474 0.20182 -0.0022007 0.32041 -0.95566 -0.081494 0.72158 -1.1459 0.88351 0.058363 -0.66506 0.53817 0.22448 -0.53375 -0.63396 -0.65156 -0.091829 0.79274 -1.401
quarterback||m.06b1q -0.62291 -0.6545 -0.24476 0.77287 -0.39119 0.34992 0.1203 -0.19763 -0.38376 0.088237 -0.37371 -0.60614 -0.30801 -0.67163 1.0894 -0.0038619 0.44876 0.89817 0.19809 -0.46728 0.54463 0.12439 -0.50857 -0.17693 -0.35796 -1.5759 -0.36568 -0.57945 0.16791 -0.64026 -0.29045 0.41653 -0.25976 0.29731 0.12552 0.13163 0.11652 0.35716 -0.94059 1.4201 -0.5526 -0.19243 0.32152 -0.043901 0.050344 -0.73196 -0.6399 0.18044 0.031511 -0.59825
playoff||m.0jxrg -0.61172 -0.061623 0.017237 0.41301 -0.52347 -0.36956 0.27359 0.04619 -0.5378 0.68827 -0.35376 -0.97287 -0.40042 -0.90009 0.59015 0.7932 0.51589 -0.4473 -0.079936 0.084285 0.19986 0.11653 -0.6429 -0.54239 0.49988 -0.95091 -0.053668 0.39765 -0.28588 -0.59169 -0.29021 -0.33326 0.029542 0.36858 -0.69142 -0.066786 -0.089939 0.14908 -0.59282 0.99682 -0.52945 -0.836 0.27368 -0.35755 -0.06849 -0.30338 0.32067 1.0997 0.42521 -1.1146
seed||m.09dh0 -0.314 -0.053205 0.60479 0.66636 0.072811 -0.16898 0.27439 -0.0081263 -0.55111 0.41453 0.26416 -1.3097 -0.73044 -0.5237 -0.075187 -0.031695 0.12223 -0.95556 0.16995 -0.25981 0.62924 0.4773 -0.17865 -0.94538 -0.15479 -1.1301 0.10683 -0.042945 0.22274 -0.64387 -0.56257 -0.71253 -0.23798 -0.16097 -0.96576 0.089744 -0.15383 0.5089 0.485 0.92719 -0.83273 -0.71863 -0.58344 -0.37674 0.26924 0.42323 0.5753 -0.46279 1.0079 -0.83989
dream||m.0c673 0.094641 0.20147 -0.50424 0.055526 0.020123 -0.11864 0.19125 -0.65252 -0.52714 -0.043014 0.1023 0.014914 -0.2717 -0.45495 0.065424 0.025907 0.72727 0.03585 -0.59083 0.041726 0.78993 0.078514 -0.771 -0.26256 -0.24372 -0.23906 0.6285 0.092772 0.059476 0.10691 -0.021807 -0.84561 -0.27199 0.44499 0.018893 0.51118 -0.096373 -0.15788 -0.64312 0.26974 0.17071 -0.61624 0.29145 -0.71635 0.61252 0.6896 -0.72044 0.61857 0.22459 0.065123
navy||m.07wg3 -1.0132 -0.41981 -0.43948 0.63235 0.15918 -0.19047 0.47277 -0.26964 0.29862 0.30013 -0.34503 -0.75401 -0.17168 0.24679 -0.23409 0.39435 0.052161 0.32857 -1.4922 -0.88065 0.23917 -0.18741 -0.13932 0.20706 0.28385 -0.27517 -0.32277 -0.33775 0.17495 0.096564 0.69656 -1.0485 0.11767 -0.020051 0.44508 0.28174 0.011267 0.41752 -0.30212 0.98826 -0.64066 0.080893 -0.45052 -0.18597 -0.16629 -0.37882 -0.019182 -0.46218 -0.24708 -0.28427
smart_phone||m.0169zh 0.249305 0.20534 -0.38034 0.2208765 0.708635 0.22862 -0.117084 -0.357885 -0.16803 -0.3343 0.002755 -0.1704895 0.01139 -0.007865 0.134255 0.492425 0.1408575 0.113561 0.008215 -0.211905 0.672835 -0.01914 -0.57248 -0.08265 -0.320677 -0.2436256 0.1576555 -0.40182 -0.0338935 -0.53757 -0.198635 -0.394205 -0.221395 -0.00807225 -0.20796 -0.4041975 -0.396705 0.48374 0.139469 1.05465 -0.236335 -0.17968 -0.605655 -0.218655 0.04226 0.1132455 -0.23784 -0.01673355 -0.336385 0.257175
chairs||m.01mzpv 0.61046 0.29763 0.28493 1.3026 -0.11985 0.4872 0.062452 -0.076239 0.74204 -0.097686 -0.18845 -0.23518 -0.98564 0.50341 -0.079876 -0.2326 -0.42166 -0.20321 0.066603 -0.17432 0.63841 -0.099783 0.33122 -0.46887 0.020588 -0.14778 -0.49726 -0.81474 0.55513 -0.61204 0.56471 -1.0521 0.64196 0.33257 -0.15446 -0.6394 -0.48785 0.62812 -0.0036881 0.62932 -0.018761 0.069664 0.45478 -0.59164 0.31721 0.63178 -0.32763 0.55177 -0.42441 -0.47132
yard||m.087tz -0.33617 0.16577 -0.69471 1.1547 -0.61187 -0.41604 0.55032 -0.1835 0.31148 -0.054668 0.22069 -0.92899 -0.25974 0.089807 0.11169 0.11429 -0.11155 0.24856 -0.40229 -1.1384 0.30872 0.19205 -0.39226 0.092956 -0.04075 -0.3236 -0.088222 0.18769 0.44157 -0.24754 0.25512 -1.1897 -0.030597 0.019326 0.52059 -0.62544 -0.11279 0.24761 -1.1685 0.6626 0.034147 -0.30662 -0.27931 -0.024979 -0.0935 -0.48333 -0.489 -0.42284 -0.026091 -0.18042
sleep||m.06xzh 0.077034 0.40902 0.25303 0.60518 -0.26574 0.036377 0.40397 -0.53703 0.24971 0.26791 0.21498 0.35144 -0.53665 -0.54665 0.050117 -0.64377 0.47185 0.0047617 -0.81436 -0.27108 0.32711 -0.094258 -0.75728 -0.72212 -0.37591 -0.03392 -0.42014 0.2255 0.057738 -0.34324 -0.4913 -0.4899 0.15786 1.0674 -0.83383 -0.45354 -0.43979 0.06801 -0.0083026 0.64438 -0.10375 -0.22032 -0.82129 -0.040863 -0.25204 0.52211 -0.80265 0.18115 -0.35148 0.084666
insomnia||m.0ddwt -0.10876 0.24355 0.27307 -0.44484 -0.028182 -0.21204 0.7341 -0.14482 0.2725 0.33806 -0.18001 -0.063112 0.088485 -1.0275 -0.065167 -0.32093 0.40089 0.22241 -1.023 0.18737 0.013286 -0.34825 -0.26621 -0.073462 0.19779 -0.43083 -0.16465 -0.12484 0.024774 -0.46089 -0.45706 0.22098 -0.18831 0.81737 -0.71338 -0.13299 -1.0028 0.32351 -0.41548 0.742 -0.10764 0.021495 -0.79104 -0.028907 0.21041 0.47028 -0.88036 -0.25211 0.25054 0.23963
chennai||m.0c8tk -1.0377 0.39279 0.27795 0.15004 0.066588 -0.31748 0.65665 -0.3869 -0.16487 -0.07242 0.050409 -0.76884 -0.085005 -0.011031 -0.57759 0.41307 0.37213 0.0067678 -0.87774 -0.063285 1.0757 -0.36022 -0.30023 -0.2391 0.11265 0.14442 -0.28089 0.019059 -0.88793 0.094703 -0.36079 -0.66477 -0.38153 -0.29963 -0.38213 0.4095 0.27138 0.41619 0.11373 1.0443 -0.42684 -0.48967 -0.34941 0.27483 0.16588 0.047349 0.18255 -0.37993 0.060603 -0.30301
photographs||m.068jd 0.53305 0.10832 -0.76419 0.26056 -0.40646 -0.2278 0.18225 -0.45029 0.22908 -0.48007 -0.49304 -0.63685 0.13441 0.34321 -0.016247 0.1579 0.35679 0.054865 -0.16346 -0.48773 -0.13196 0.098991 -0.93799 -0.76513 0.68086 0.43063 -0.60982 -0.93483 0.42195 -0.22512 0.19677 -0.4572 -0.62939 0.1533 0.032226 -0.19798 -0.685 0.11584 -0.011664 0.93913 -0.42995 -0.68627 -0.26372 -0.14842 -0.083599 0.029758 -0.63753 0.20363 -0.038423 -0.12664
tamil||m.01rv7x -0.85396 0.28513 0.081907 -0.43264 -0.46598 -0.3546 -0.45986 -0.94916 -0.57653 0.14966 0.43853 -1.0047 -0.46967 0.44604 -0.90257 -0.3408 0.029077 -0.64178 -0.74709 0.49333 -0.043464 -0.1968 -0.13735 -0.14451 -0.11592 -0.59899 0.52549 -0.39649 -0.44167 0.46022 -0.16397 -0.34192 -0.53197 0.0069099 0.45938 0.26417 -0.69778 1.3485 0.45571 1.3351 -0.38378 -0.87452 0.36998 0.32938 0.45927 -0.71847 -0.43958 0.41368 0.40597 -0.7643
vocal||m.09l8g 0.18595 0.3333 -0.19909 -0.50259 0.27097 -0.038073 -0.22509 -0.26901 0.50309 0.23493 -0.2765 -0.13159 -0.1761 -0.14898 0.75376 -0.25951 -0.11502 -0.090586 -0.4377 0.28194 0.72842 -0.32916 -0.69921 0.02943 -0.37532 -0.41492 0.13622 -0.8999 0.5304 0.39014 0.47691 0.16287 -0.432 0.6505 -0.32229 -0.044149 -0.28307 0.70637 0.35104 0.95388 -0.13162 0.39275 0.86004 -0.54907 0.4253 0.18661 -0.60307 -0.081488 -0.25634 -0.23445
tax||m.07g82 -0.41181 -0.03444 0.11737 -0.46975 -0.22269 -0.03195 0.10083 -0.17834 0.19503 -1.0532 -0.28937 -0.40799 -0.085756 -0.27818 -0.60415 -0.074019 -0.19367 -0.71525 -0.88794 -0.24552 0.090791 -0.36166 0.1266 0.14618 -0.087205 -1.6091 -0.079334 -0.058964 -0.10637 -1.2442 0.25654 -0.23373 -0.31363 -0.030243 0.35056 -0.85544 0.56964 0.044733 -0.024177 0.20693 -0.16458 0.37977 -0.35905 -0.12169 0.16884 0.89371 -1.1273 0.10427 0.16024 -0.12979
internal_revenue_service||m.03z19 -0.34252 -0.0278466666667 -0.0354923333333 0.48846 0.0538966666667 0.177883666667 0.0583186666667 -0.521223333333 0.159894 -0.41101 -0.115287666667 -0.65918 -0.303788 -0.36952 -0.436193666667 0.61326 0.20024 -0.102657333333 -0.551126666667 0.383366666667 -0.340717233333 -0.616182333333 0.114493666667 0.251226666667 0.0906933333333 -0.548803333333 -0.10175 -0.242215666667 0.0806473333333 -0.61114 0.0231366666667 -0.25841 -0.657913333333 0.0888333333333 0.139549 -0.668556666667 -0.236513666667 0.378926666667 -0.34459 0.550523333333 -0.00345933333333 0.127993333333 -0.541223333333 0.32209 0.457783333333 0.258153333333 -0.359656666667 -0.206125333333 -0.26985 -0.0408676666667
barack_obama||m.02mjmr 0.169281 -0.55151 0.0696895 -0.32112 0.145731 0.0554975 -0.0787065 -0.0091625 0.036376 0.688235 -0.696155 0.069727535 -0.093025 0.744315 0.41163 0.54522 -0.0223605 -0.0077115 -0.750945 -0.1479 -0.339295 -0.345785 -0.321015 0.35094 -0.016895 -0.933055 0.51003 -0.16534 0.086396 -0.723105 0.493645 -1.161835 -0.13696 0.0314475 0.0095625 -0.228705 -0.30066 0.293125 -0.2143445 1.1341 -0.805585 -0.559445 0.0280835 0.0523505 0.712635 0.69644 -0.813435 0.401835 0.108419 -0.0839245
irs||m.03z19 -0.40694 -0.42396 -0.27811 0.42605 -0.0032489 0.86536 0.31751 -0.14783 0.21622 -0.30486 -0.45938 -0.35153 0.017488 0.032395 -0.81433 0.20245 -0.75155 -0.53041 -0.99719 -0.10024 -0.44459 -0.4915 0.001634 0.62218 -0.1285 -1.1658 -0.71649 -0.72501 0.17162 -0.68864 0.14252 0.29058 -0.31248 0.41078 0.44943 -0.70285 0.13258 -0.050229 -0.5453 1.2469 -0.73037 0.069076 -0.65071 0.49317 0.36217 0.1915 -1.0012 0.91815 -0.35895 -0.39336
press_conference||m.01s8fx 0.398955 -0.0862555 -0.074255 0.461975 -0.1910755 -0.075165 0.0540145 0.276279 -0.134465 0.219855 -0.068966 0.04682 -0.298263 0.24796 -0.41823 0.38909 0.228715 0.111735 0.031841 0.35799 0.285783 -0.646515 -0.57543 -0.45928 -0.0592475 -0.59689 0.390075 -0.803955 0.14386 -0.620885 0.04381 -0.60822 -0.465465 0.266995 -0.27641 -0.525845 -0.007205 0.701365 0.11842 0.734895 -0.831835 -0.02037 -0.168581 0.38355 0.460975 -0.0742625 0.22522 0.635625 0.31581 -0.259502
al-qaida||m.0v74 -0.58695 0.26454 0.42954 -0.6654 -0.041666 0.11372 0.091052 -1.0334 -0.25983 0.3323 -0.20367 -0.42962 0.47433 0.61178 -0.04633 0.939 -0.46647 -0.28511 -0.76638 -1.0836 -0.34081 -0.94674 -0.39053 -0.53 0.85285 -1.199 0.33241 -0.55345 -0.33296 -0.42973 0.063156 -0.68851 -0.77645 0.72752 0.90755 -0.032836 -0.59093 0.59592 -0.43777 1.5616 0.32537 -0.19582 0.048033 0.329 0.5496 -0.58754 -0.12888 0.049473 -0.89234 -0.3731
u.n.||m.07t65 -0.36456 -0.44875 0.20705 -0.19732 -1.0087 0.12199 -0.38809 -0.38011 -0.7017 -0.22448 -0.58231 0.19363 -0.12188 0.28953 -0.62674 0.43538 -0.88154 0.20086 -0.82124 0.74177 -0.095958 -0.50255 -0.58383 -0.39035 0.46678 -0.33679 -0.27503 -0.15694 1.0276 -0.058797 0.48192 -1.199 -0.0543 0.25335 -0.077473 0.21396 -0.53568 0.55992 0.26678 1.5533 -0.26196 -0.35485 -0.31709 0.66803 -0.072675 0.41257 0.28612 0.41363 0.3397 -0.70478
associated_press||m.0cv_2 0.42152 -0.02046 -0.563455 0.011435 -0.309425 0.1236065 0.170763 -0.140006 -0.0017125 -0.103765 -0.090019 0.389525 0.0077605 0.23469 -0.635555 0.247845 0.629315 0.425715 -0.104564 0.27168 0.023195 -0.550115 -0.41808 -0.658135 0.1524825 -0.76487 0.597845 -1.13045 0.48791 -0.830225 0.14498 -0.510895 -0.48446 0.230665 -0.0676205 -0.584695 -0.36819 0.78988 0.4937 0.671015 -0.722425 -0.1578635 -0.529905 0.34068 0.36333 -0.375195 -0.23883 0.757715 0.096907 -0.0563535
democratic_party||m.0d075m -0.197005 -0.066125 0.32027 0.139866 -0.0981785 0.299545 -0.166845 -0.68967 -0.147555 -0.1289625 -0.30528 -0.4548 -0.51908 0.630855 -0.66078 0.331775 -0.05836 -0.222135 -0.356845 -0.0034265 0.0555596 -0.23072 -0.0862605 0.148125 -0.73671 -0.626565 0.32905 -0.382745 -0.172299 0.07569 0.379665 0.12796755 -0.38237 0.45179 -0.03072015 -0.0894805 -0.183655 0.544685 -0.163199 0.980685 -0.2554325 0.011796 0.916585 0.029713 0.5953 0.739705 -0.4874 0.44559 -0.1571475 -0.450845
web_site||m.085n4 0.1569925 0.022572 -0.30108 0.470845 -0.45771 0.094585 0.555515 -0.487 -0.21952 -0.59587 -0.192715 -0.633545 0.2683 0.2403965 -0.0220055 0.601315 0.131266 -0.036775 -0.191245 0.41034 -0.116279 -0.25274 -0.564165 -0.740475 0.26149 -0.365425 -0.22978 -0.2647585 -0.14522 -0.06746 -0.332825 -0.27456425 -0.82074 0.073766 0.070149 -0.53272 -0.557655 0.26304 -0.456295 0.74556 0.073069 -0.38797 -0.070009 0.23121 0.643395 0.20132 -0.094368 -0.0905365 -0.1125584 0.5885
pension_fund||m.02vk53c -0.57045 -0.281877 0.450125 -0.1542535 -0.010582 -0.257796 -0.046299 -0.178136 0.30481 -1.11378 -0.25709 0.08024 -0.148 -0.342085 -0.094917 -0.111026 0.047515 -0.34575 -1.10267 0.223465 0.300145 -0.74915 0.08065 -0.1948705 -0.51587 -0.542635 -0.045854 -0.65134 -0.343285 -0.56326 0.246055 -0.282035 -0.18412 -0.652355 -0.32286 -0.494685 -0.29848 0.36192 -0.75749 0.395755 -0.392535 0.057705 0.157215 -0.253345 -0.1456935 0.2090755 -0.548245 0.44531 0.14137 -0.637495
california||m.01n7q -0.86568 -0.35419 0.086121 -0.058694 -0.36819 0.18018 0.78519 0.19737 0.27799 -0.18746 -0.11163 -0.83561 0.021967 -0.21976 -0.27063 0.16419 -0.064209 -0.47161 -0.55433 0.074435 0.86881 0.048166 -0.22821 -0.028268 -0.50296 -0.53588 0.33541 -0.69658 -0.26258 -0.21781 -0.06025 -0.26329 0.11697 0.55347 0.28886 -0.37883 -0.67929 0.36412 0.55208 0.29716 -1.2574 -0.18163 0.26366 -0.0032709 0.43097 0.60421 -0.37098 -0.69366 -0.18743 -0.058345
pension_funds||m.02vk53c -0.57047 -0.287063 0.52559 -0.194495 0.0313055 -0.125731 -0.053524 -0.424945 0.148043 -1.1705 -0.1192005 -0.108795 -0.095285 -0.1796125 0.160785 -0.107277 0.092315 -0.45423 -1.07033 0.055491 0.22262 -0.718835 0.216615 -0.2083305 -0.43302 -0.62149 -0.102242 -0.67887 -0.361415 -0.63819 0.1208555 -0.12179 -0.030855 -0.57467 -0.35638 -0.66945 -0.255105 0.289385 -0.64885 0.464745 -0.38128 0.1099625 0.03739 -0.17958 -0.1953885 0.249301 -0.542505 0.31011 -0.10366 -0.679025
comptroller||m.03tzmr -0.7172 -1.0576 0.25268 0.33416 -0.013396 -0.31268 -0.11679 -0.022846 0.3975 -0.91777 0.17505 -0.63899 -0.022205 0.3134 -0.27887 0.53724 -0.38643 0.00020633 -0.038163 -0.04902 0.15549 -0.069917 -0.47621 -0.34814 -1.1762 -0.52073 -0.37286 -0.47981 0.54386 -0.461 0.5813 0.45006 -0.29998 -0.81602 -0.52199 -0.11634 -0.7692 0.19386 -0.29578 1.0503 -0.85473 0.24579 -0.087823 0.20039 0.5104 1.2518 -0.86826 0.58717 0.18916 -1.1811
nonprofit||m.0259tnd 0.042747 0.18965 0.45787 0.33932 -0.34227 0.49953 0.83066 -0.21083 0.1127 -0.85087 -0.23154 -0.31237 0.38627 -0.43458 -0.11356 0.40873 -0.4548 -0.45499 -1.1306 0.30095 -0.21645 -0.39757 -0.2051 -0.61902 -0.6644 -0.28734 -0.0099461 -0.85538 0.033175 -0.19143 0.22651 -0.48837 -0.61584 0.14081 0.38956 -0.3042 -0.43799 0.85526 -0.74923 0.24571 -0.233 -0.68472 0.37971 -0.48584 0.38998 0.3199 -0.40635 0.42602 -0.053115 0.12524
qb||m.06b1q -0.81612 -0.78314 -0.37553 0.55758 -0.56991 0.32698 0.30595 -0.18842 -0.41654 0.077493 0.001567 -0.51968 -0.47826 -0.24041 0.79443 0.55819 0.44018 0.62085 0.2008 -0.29812 0.69767 0.77085 -0.18794 -0.74116 -0.3715 -1.7032 -0.07691 -0.57298 -0.077611 -0.8626 -0.41885 0.29462 0.16697 0.53252 0.31881 0.27764 0.2938 0.27845 -0.73311 1.4624 -0.34492 0.13803 0.47034 -0.0766 -0.00020735 -0.82461 -0.50689 -0.13789 0.13496 -1.0152
russia||m.06bnz 0.19003 -0.15466 0.64192 -0.32461 -0.39386 -0.41683 -0.63439 -0.36561 -0.48709 -0.24089 -0.86843 -0.082156 0.35283 -0.31192 0.077529 0.10892 0.19381 -0.24271 -0.90611 -0.38333 0.7827 0.017215 -0.60337 0.26688 0.55217 -0.61864 0.70174 -0.42396 0.14 -0.12147 0.12274 -1.4695 -0.43097 -0.01877 -0.26578 0.17188 -0.11881 0.12322 0.2774 1.0802 -0.24376 0.50163 0.029256 0.41141 0.076012 0.61249 -0.0794 -0.34758 0.27703 -0.46671
japan||m.03_3d -1.0028 0.15741 -0.11053 -0.15082 -0.89378 -0.68305 -0.16114 -0.086859 0.099472 -0.21143 -0.48442 -0.45721 -0.50919 0.16297 0.0046482 0.76521 -0.54188 0.34868 -1.0837 0.11498 0.90102 -0.60702 0.13674 -0.18784 -0.01929 -0.92341 0.80775 -0.55489 0.13263 0.37532 -0.21594 -0.69739 -0.14469 -0.38044 -0.7918 0.45401 0.017039 -0.40801 -0.14474 0.88859 0.19507 0.34868 -0.076333 -0.37039 0.23721 0.21028 -0.58686 -0.60341 0.22196 -0.091162
general_staff||m.04zm7_ -0.79815 -0.207895 -0.0281757 0.573665 0.237625 0.199085 0.0763325 0.10711 0.1853735 -0.1769786 0.08283 0.103 -0.41843 0.138067 -0.27125 0.2353625 -0.03630815 0.281295 -0.461525 0.59795 0.09401 -0.38732 -0.094644 -0.1130275 -0.289045 -0.040145 -0.2710905 -0.7529 0.345245 -0.2756055 0.72681 -0.305112 -0.1792085 0.035089 0.36357 -0.0315275 -0.091953 0.31326 -0.204697 1.0111 -0.263015 0.0773955 -0.26569 0.0899395 0.216625 0.265065 -0.02658315 0.350085 -0.1437555 -0.252185
world_war_ii||m.081pw -0.225491 0.0283166666667 0.353476666667 0.459435333333 -0.112151666667 -0.633366666667 0.07552 -0.416433333333 -0.244523333333 0.0515816666667 -0.105297 -0.352576666667 -0.343276666667 -0.35624 -0.0449226666667 0.061839 -0.250892 0.418871333333 -0.73115 -0.09706 0.335156666667 -0.498929333333 -0.0290224666667 -0.43056 0.49373 -0.351746666667 0.37516 -0.0993408666667 0.275445233333 0.397353333333 0.307523333333 -0.605896666667 -0.264189 0.162293666667 -0.00071 0.371132333333 -0.65389 0.030414 0.0963686666667 0.57045 0.11413 -0.205624 -0.340286666667 -0.414 0.619176666667 0.204046666667 -0.231643 0.431373333333 0.308507333333 -0.75665
bullying||m.027vd9 0.3983 0.41975 0.031768 -0.14084 -0.27463 -0.45222 0.03402 0.27646 -0.33265 -0.29049 0.18257 -0.57417 0.13689 -0.4419 0.053988 -0.065833 0.039254 -0.038419 -0.91219 -0.30608 -0.13289 -0.48094 -0.48613 0.045618 -0.28432 -0.67007 0.14965 -0.4109 0.86815 -0.043023 -0.32063 0.63388 -0.13768 0.5854 -0.074308 -0.18356 -0.18008 0.15931 0.088761 1.4902 -0.66781 -0.43386 -0.486 -0.33696 0.60372 0.14212 0.036327 0.36479 -0.28167 -0.045115
boston_bruins||m.0j2zj -0.55109 -0.13364565 -0.094942 0.499235 0.1138415 -0.657995 0.392175 0.50474 0.170885 -0.019545 0.0155115 0.050245 0.183915 -0.825625 0.28957 0.241325 0.075333 -0.441985 -0.345385 -0.84226 0.155485 -0.312755 -0.52501 -0.418815 -0.0292237 -0.2768915 0.089165 -0.233235 -0.219355 -0.66866 0.29642735 -0.47571 0.2145965 0.467885 -0.679345 0.213855 -0.2127685 -0.142424 -0.69776 1.7428 -0.564285 -0.622155 0.074005 0.094 0.3024435 -0.287946 0.183842 0.3150265 0.301035 -0.588985
warrior||m.01jnld 0.080264 0.0069521 0.073582 0.25545 -0.35199 0.095001 0.2363 -0.40339 -0.0086695 0.45028 0.16519 -0.63088 -0.13677 -0.35277 -0.70041 0.16774 0.79485 0.3024 -0.74285 -0.080208 0.32076 0.22714 -0.37264 -0.36699 -0.05864 -0.22826 0.54051 -0.075322 -0.081187 0.45305 0.39871 -0.42107 -0.18355 0.94326 0.20196 0.34817 0.030298 0.59609 0.00035692 0.9783 0.10782 -0.3938 0.39766 -0.54449 -0.12441 -0.4245 -0.20645 0.23389 -0.15167 -0.60653
netminder||m.02qvzf -0.58303 0.47995 -0.53278 -0.097572 0.034519 0.040045 0.10736 0.19048 0.53936 0.089898 -0.20396 -0.32128 0.044977 -0.84548 -0.12938 0.55749 0.4447 -0.063507 0.019266 -0.73181 0.62548 0.06219 -0.58256 -0.22259 -0.01041 -0.20784 -0.11898 -0.22815 -0.20869 -0.64467 0.38137 -0.26841 -0.032384 -0.1598 -0.69794 0.16253 0.035485 0.56914 -0.55959 1.4929 -0.54627 -0.43694 0.20534 -0.31184 -0.19701 -0.20299 0.23317 0.64188 0.39979 -0.57556
faceoff||m.02qwnm -0.39437 0.39228 -0.6543 0.10707 -0.37211 -0.30286 0.44112 0.1213 0.075392 0.27639 -0.53511 -0.62015 0.14567 -0.98048 -0.48688 0.64922 0.10888 0.11406 0.047405 -0.81787 0.41445 0.32755 -0.56626 0.61932 0.24068 -0.52689 -0.052073 -0.07053 -0.27119 -0.68304 0.73016 0.079277 0.18674 0.33779 -1.0936 -0.5728 0.092153 0.73109 -1.105 1.7245 -0.36552 -1.0603 1.0105 0.084865 -0.58795 0.10827 -0.055924 0.88176 -0.1391 -0.78926
bruins||m.0j2zj -0.58591 -0.25848 -0.076774 0.17307 0.18988 -0.25169 0.19977 0.25573 0.12187 0.29852 -0.055282 -0.11808 -0.06761 -0.9434 0.13684 0.17891 0.037486 -0.55192 -0.33904 -0.87813 0.45021 -0.1278 -0.5455 -0.18022 -0.049964 -0.58467 -0.27212 -0.23483 -0.19722 -0.67757 0.0078147 -0.37256 0.41883 0.49317 -1.1636 0.13719 0.056053 -0.016478 -1.0349 2.0664 -0.64145 -0.85306 0.28634 -0.11762 0.039827 -0.51673 0.42191 0.53145 0.35594 -0.93961
powerplay||m.0fv03p 0.028864 0.44585 -0.78523 -0.15684 0.042231 0.13534 -0.42521 -0.1727 -0.050658 -0.089989 -0.43413 -0.28672 0.21522 -0.61764 0.10858 0.36736 -0.44031 -0.22627 0.20833 -0.30944 0.27467 -0.093318 -0.58304 -0.12841 0.019949 -0.22973 0.099306 0.024813 -0.23405 -0.46748 0.07073 -0.23896 -0.78928 0.12816 -0.75101 -0.042208 -0.13879 0.61377 -0.43789 1.2056 -0.37157 -0.035107 0.13492 -0.53429 0.25028 -0.30694 0.15489 -0.11321 -0.0058597 -0.20427
breath||m.0lyf6 0.1153 0.16195 -0.034697 0.15331 -0.28018 -0.42538 -0.16135 -0.51672 0.1722 0.61408 0.41678 0.040497 -0.24918 -0.47414 -0.067063 -0.82072 0.37057 0.054472 0.25138 0.002618 0.4501 -0.21194 -0.50275 0.048618 -0.067696 -0.038828 -0.29945 -0.21254 0.42974 -0.17304 -0.21753 -0.62046 0.011157 0.84192 -0.86156 -0.61992 -0.43106 0.43327 -0.84667 0.87764 0.082559 -0.41049 -0.33462 -0.49949 -0.16243 0.52339 -0.54679 -0.042747 -0.23914 -0.1436
detroit||m.02dtg -0.82707 -0.63387 -0.33755 0.2021 0.16999 -0.41024 0.48661 0.39327 -0.3191 -0.54964 0.44407 0.23044 -0.49312 -1.0195 0.049271 0.48629 0.12205 -0.13953 -0.45138 -0.56395 0.39706 -0.40637 0.063704 -0.32361 0.29662 -0.23714 0.36281 -0.73837 -0.55138 -0.33493 0.5684 -0.03507 -0.1979 -0.36311 -0.46668 0.14773 -0.34935 0.20048 -0.42782 1.0455 -1.0829 -0.35055 0.66318 0.089823 -0.076646 -0.26612 -0.49137 0.078952 0.39187 -0.061406
general_motors||m.035nm -1.1305 -0.742115 -0.3772315 0.062885 0.40344 -0.21854 0.441805 -0.101175 0.0881435 -0.3632586 0.13016 0.099385 -0.60389 -0.168458 -0.32074 0.4404 0.02559185 0.38283 -0.54904 0.69858 0.389405 -0.36304 0.213436 -0.375985 -0.29806 -0.023945 0.3117745 -0.916515 0.039185 -0.2013555 0.44907 -0.412532 -0.1898835 -0.546281 -0.061215 0.1451025 -0.208073 0.47059 -0.077097 1.34905 0.05024 0.05753395 -0.1020325 -0.1205505 0.42938 0.25769 0.05505135 0.351105 -0.2853055 -0.136032
automaker||m.015smg -0.69104 -0.64129 -0.61212 -0.55435 0.54322 -0.77216 0.46617 -0.18719 -0.60152 -0.84501 -0.43191 -0.46229 -1.0874 -0.60506 -0.16107 0.4906 0.054717 0.13489 -0.4728 0.07141 0.53314 -0.71863 0.25994 -0.44222 -0.039352 -0.81689 0.3362 -0.39127 -0.41302 -0.10552 -0.29366 -1.0316 -0.11348 -1.044 -0.33765 0.27419 -0.19934 0.46953 -0.1687 1.2245 -0.2582 0.42597 -0.29876 -0.074756 0.14138 0.54805 -0.0048744 0.0046531 -0.16173 0.31131
gm||m.035nm -0.83365 -0.47307 -0.32908 0.05182 0.48521 -0.12007 0.61652 0.26429 -0.28277 -0.74453 -0.23802 -0.44213 -0.86894 -0.043711 -0.050145 0.038518 0.29494 0.072798 0.20225 0.95939 0.061704 -0.35445 0.42293 -0.21611 0.42652 -0.32948 0.18965 -0.66497 0.042337 -0.50688 0.27806 -0.72321 0.18895 -0.81962 -0.45577 0.43048 -0.44845 0.10475 -0.75689 1.5359 0.3688 -0.033968 0.12315 -0.57605 0.22288 0.054955 -0.185 0.03864 -0.047696 -0.073634
chief_financial_officer||m.0krdk -0.762456666667 0.215826666667 0.331833333333 0.543743333333 -0.013702 -0.274798666667 0.174236666667 0.0336306666667 0.369686666667 -0.512106666667 -0.310250666667 0.253554333333 -0.518386666667 -0.240096666667 -0.437388333333 0.352865366667 0.171185666667 0.0850766666667 -0.0483933333333 0.0232933333333 0.0566916666667 -0.627246666667 -0.655028 0.141260333333 -0.201846666667 -0.31427 -0.066453 -0.231239666667 0.048685 -0.332813333333 0.281136233333 -0.199776666667 -0.46724 -0.454766666667 0.28849 -0.3402 -0.493636666667 0.72779 -0.162568 0.75917 -0.110179333333 -0.0851629 -0.690963333333 -0.16449 0.267056666667 0.203873333333 0.244056666667 0.271149666667 -0.364463333333 -0.498043333333
common_stock||m.02zb8r -0.321145 -0.002415 0.244115 -0.27724 0.154675 -0.695635 -0.00143 -0.13938 0.223303 -0.0041205 0.08287 -0.1908575 -0.170375 -0.336475 0.29593 0.448395 -0.0599445 -0.182909 -0.408495 0.402505 0.37873 -0.29573 -0.08428655 -0.77455 -0.106465 -0.330855 0.0583156 -0.38035 -0.182967 -0.274705 0.027595 -0.05063 0.01723 -0.44289 -0.491103 -0.550352 -0.610395 0.10565 -0.337985 0.65815 0.333175 -0.20077 -0.288925 -0.1102425 0.304091 0.229485 -0.54716 -0.1413835 -0.355625 -0.48352
mercedes||m.052mx -0.43203 -0.031609 -0.5692 0.042924 0.38363 -0.7724 0.75933 -0.38122 -0.14615 -0.67235 -0.080188 -0.4304 -0.19345 -0.5845 -0.10951 0.42306 -0.14322 -0.10629 0.39112 0.17477 0.76383 -0.51617 0.32232 -0.25933 0.37329 -0.75483 0.020141 -0.10555 0.22887 -0.00038204 -0.031227 -0.74152 0.29227 -0.40746 0.32716 0.47115 0.34894 0.40342 0.36954 1.6227 -0.043947 0.3645 -0.042551 0.19587 -0.29975 0.933 -0.57552 0.69572 -0.14731 0.22287
house||m.03mb9 0.067597 -0.051318 0.017683 0.383 0.048236 0.54 0.58206 0.15458 0.018709 -0.092679 -0.28984 -0.41672 -0.77685 0.83756 -0.33384 0.045988 -0.063075 -0.50519 -0.16994 -0.56789 0.17798 -0.11545 -0.046685 -0.15351 -0.22271 -0.40124 0.17659 0.056498 0.18755 -0.48631 0.5989 -1.0426 -0.23583 0.46863 0.47945 -0.50511 -0.13274 -0.092147 -0.51912 0.64436 -0.079939 0.1469 0.26971 0.1858 0.54311 0.47333 -1.0929 0.27908 -0.16579 -0.29136
underwear||m.09j1x -0.30896 0.37661 -0.33913 0.035589 -0.081219 -0.24723 0.31128 -0.25074 0.25673 -0.035076 0.18612 -0.22086 -0.44982 0.05285 -0.12543 0.13475 0.53582 0.2615 -0.64384 -0.81094 0.41033 0.47559 0.058158 -0.63409 0.66366 -0.21884 -0.62496 -0.13944 -0.24471 -0.31073 -0.11169 -0.72928 -0.22525 -0.39623 -0.0941 -0.31309 -0.46078 -0.14276 0.017429 1.5505 0.017933 -0.27788 -0.29261 -0.48809 -0.14155 0.22065 -0.17254 0.46566 -1.1775 0.35971
tv||m.07c52 0.026059 0.34855 -0.065815 0.35632 0.16268 0.54297 -0.28374 -0.16347 0.13721 -0.75868 -0.070447 -0.17664 -0.32633 -0.37529 -0.13277 -0.068587 0.56574 0.45223 -0.41857 0.16262 0.53378 -0.52453 -0.64061 -0.18536 -0.38645 -0.39047 -0.50327 -0.052433 -0.59165 -0.25083 -0.44916 -0.46992 -0.8291 -0.16207 -0.30246 -0.44628 -0.5023 0.11429 -0.33019 0.71086 -0.34415 0.17336 0.057032 0.202 0.67312 -0.52943 -0.23344 0.16919 -0.68538 -0.20754
amnesty_international||m.012l0 -0.031028 0.024135 0.377205 -0.30855 -0.41832 -0.08407 -0.0801805 -0.42852 -0.112575 -0.099325 -0.4487 0.377555 0.525625 -0.413401 -0.46724 0.068495 -0.1591229 -0.197854 -0.911465 0.34951 0.30086 -0.454975 -0.53711 0.0540635 0.17413115 -0.353255 0.0113165 -0.32281 0.0775365 0.1525025 0.663755 -0.71402 -0.53992 0.101625 0.123797 -0.600235 0.042243 0.3233665 0.0616822 0.678965 -0.277905 -0.400935 -0.024065 0.015924 0.04112 0.1491285 -0.11662 0.534955 0.30692 -0.48421
geography||m.034ns 0.11064 0.10933 0.20859 0.25874 -0.10724 -0.35229 0.10713 -0.57614 -0.38484 -0.56019 -0.13937 -0.35279 0.22931 -0.1007 -0.02112 0.60326 -0.21365 0.011333 -0.7595 0.40574 0.95591 0.03907 -0.26016 -0.143 0.20587 -0.76841 0.0047385 -0.14869 0.058227 -0.27968 -0.078388 0.3192 -0.2958 0.61512 -0.10993 0.32347 -0.24576 1.64 -0.57589 -0.0054625 -0.57178 -0.19109 -0.3388 0.050535 0.83348 -0.27796 -0.1282 -0.33193 -0.28121 -0.46472
defamation||m.0731s 0.26756 -0.16752 -0.60462 -0.14 -0.49996 0.019274 0.010645 -0.59945 -0.67186 0.14484 -0.18369 -0.24296 0.43514 -0.91477 -0.84473 -0.12813 0.46259 -0.16407 -1.0674 0.29695 -0.10796 -0.73244 -0.36937 -0.14392 -0.28613 -0.4663 -0.076811 -0.8831 0.41611 -0.14092 0.0023856 0.50233 -0.58544 -0.54293 0.67105 -0.50037 -0.21141 0.27292 -0.0090308 0.96235 -0.43553 -0.50365 -0.21019 -0.17604 0.68767 -0.031673 -0.22465 -0.056059 0.18537 -0.58565
amnesty||m.012l0 0.047894 -0.23948 0.29768 -0.86608 -0.24974 0.24065 -0.073128 -0.6802 -0.35332 0.15042 -0.4205 0.40006 0.59129 0.021078 -0.65396 -0.22134 -0.0074358 -0.4784 -0.89493 0.10806 0.15606 -0.26149 -0.74854 0.047818 -0.0015877 -0.63484 -0.052265 -0.48998 0.033943 0.37933 0.76912 -0.56132 -0.6317 0.34582 0.26846 -1.0318 0.016427 0.55038 0.0091144 0.79098 -0.30227 -0.56569 -0.17044 0.020439 -0.17808 0.28809 -0.21888 0.84224 0.49082 -0.78337
ally||m.0fy85 -0.48093 0.28598 0.74778 -0.087174 0.27727 -0.1446 -0.51637 -0.73154 -0.74764 0.38069 -0.80432 0.035984 -0.59052 0.23404 0.066666 0.63812 0.28297 0.20565 -0.54693 -0.14848 0.1481 -0.086929 -0.69706 0.08776 -0.10761 -0.58899 0.64918 -0.45885 0.22398 -0.18962 0.50131 -0.49274 -0.3651 -1.0157 0.13587 -0.056275 -0.6239 0.62181 0.087838 0.89481 0.24161 0.63876 0.63959 -0.26731 0.61405 0.48996 -0.10021 0.19384 -0.055834 -0.68433
rockets||m.09rvcxw -0.79164 -0.15503 -0.52106 -0.12509 0.021165 0.18028 0.36452 -0.19873 -0.75622 0.22951 -0.50194 -0.45138 -0.12393 -0.87313 0.38432 -0.0035094 -0.51274 0.43657 -0.52403 -0.24191 0.07102 0.30731 -1.1265 -0.87863 0.26294 0.070145 0.52144 0.21966 -0.014604 -0.08739 0.11516 -0.90465 -0.17582 0.62162 -0.17288 -0.67007 -0.26719 0.28986 0.25356 1.5292 0.027677 -0.15064 0.43052 0.55323 -0.33457 -1.0655 -0.087008 -0.097277 0.085556 -0.40949
devil||m.02cr2 0.014487 -0.28254 -0.34257 -0.047654 -0.28807 -0.0086736 0.15419 -0.29687 -0.033335 0.42769 0.49104 -0.026137 -0.048158 0.26525 -0.55736 0.024739 0.58469 -0.42541 -0.52319 -0.73685 0.35489 0.33631 -0.52473 -0.2691 0.48112 -0.24464 0.53948 -0.46671 -0.11538 -0.20471 -0.036048 -0.24359 -0.28721 0.55732 0.041326 0.1411 -0.89083 0.14275 -0.50996 0.931 0.081661 0.028097 0.20762 -0.85912 0.47764 -0.11735 -0.54272 0.26996 -0.17941 -0.079715
christianity||m.01lp8 0.58704 0.026232 0.29683 -0.093443 -0.30245 -0.58113 -0.17096 -0.37705 -0.41971 -0.45558 0.23706 0.051567 -0.23069 0.22661 -0.18358 0.01208 0.01663 -0.30063 -0.73808 -0.31551 0.047448 -0.28081 -0.2348 -0.49632 0.53309 -0.71549 0.71032 -0.65185 0.11446 0.27758 -0.42678 0.26289 -0.4292 0.43168 0.5932 -0.022728 -0.23609 0.88582 -0.66356 1.0681 0.46987 -0.50052 0.11573 -0.17145 0.46297 0.21841 -0.40289 -0.34821 0.084189 -0.62632
uk||m.07ssc -0.23899 0.31657 0.30381 0.33794 -0.042633 -0.084365 0.22019 -0.23985 0.15663 -0.83816 -0.72756 -0.083819 -0.25715 -0.5378 -0.63099 0.1402 -0.22866 -0.17813 -0.29197 0.19675 0.96294 -0.77692 0.39101 0.096294 0.17857 -1.2597 0.089202 0.064425 0.059077 0.17322 0.22304 -0.33263 -1.121 -0.35138 0.051873 -0.5983 0.30896 0.17795 -0.0039057 0.49981 0.75399 -0.016311 -0.37417 0.0018284 -0.32314 0.021489 -0.87432 -0.066848 -0.30455 -0.60722
window||m.0d4v4 0.3368 0.24857 0.25174 0.23399 -0.1045 -0.42015 0.46327 -0.15368 -0.18174 -0.23613 -0.096079 -0.28922 -0.097829 -0.062069 -0.19061 0.29896 0.2267 0.26722 0.53183 -0.3998 0.34624 0.050545 -0.56776 -0.09668 0.8213 0.070614 -0.19296 0.33285 0.15679 -0.51042 0.20343 -0.78058 0.23299 0.067327 -0.30347 -1.0384 -0.069702 0.080507 -0.46923 1.035 0.11806 -0.0034975 0.0092783 -0.4192 0.16014 0.84937 -0.7182 0.068172 -0.33883 0.10483
military_helicopter||m.0275lwb -0.62053 -0.33366 -0.01682 0.074895 0.1497705 -0.343845 0.18904 -0.86871 0.03741 0.22246 -0.19507 -0.29771 -0.29726 0.1719055 -0.1188175 0.107668 -0.161395 0.610675 -0.788475 -0.46267 0.21519 -0.760665 -0.45798 0.184068 0.360135 -0.2344425 -0.1643417 -0.23566 0.0117755 0.0383215 0.651895 -0.958395 -0.13024711 0.2046525 0.31327 -0.287735 -0.30011 0.562435 -0.161106 1.01753 -0.324675 0.0902025 -0.17723 0.076909 -0.13345 -0.308785 0.12902 -0.33666 -0.29031 -0.1978425
bank||m.017ql -0.46731 0.22617 0.65153 0.20336 -0.62541 -0.40013 -0.026328 0.038884 -0.33332 -0.68653 -0.58799 -0.21466 -0.57389 0.69238 -0.48082 0.079208 -0.32962 0.062615 0.012696 -0.28052 0.79405 -1.2049 -0.17299 -0.38935 0.14124 -1.1506 0.048391 -0.55081 0.0064858 -0.61174 -0.067205 -0.1336 -0.58085 -1.1466 -0.14598 -0.48892 -0.14774 -0.028423 -0.97856 0.58349 0.17123 -0.34056 -0.26766 -0.093839 0.021678 -0.12352 -0.044164 -0.16679 0.16438 -0.91848
citigroup||m.01dfb6 -0.57555 -0.085621 0.37201 0.251 0.30771 -0.31626 0.49908 0.29214 0.17186 -0.25731 -0.63751 -0.37394 -0.19029 -0.4544 -0.65539 0.68159 -0.59381 -0.33907 -0.35901 0.37252 0.21433 -1.0295 -0.057249 -0.51049 0.021118 -0.79809 -0.31584 -0.91648 -0.28494 -0.87532 -0.41395 -0.037203 -0.15355 -1.3886 -0.053731 -0.25457 -0.51234 0.17512 -0.57637 0.68979 -0.065262 0.072347 -0.23369 -0.36323 0.062831 0.33567 -0.39354 -0.02623 -0.46718 -1.2259
jpmorgan_chase||m.01hlwv -0.606075 0.15595 -0.098025 0.54721 -0.162815 -0.48364 0.71725 0.383935 0.079452 -0.17423 -0.03411 -0.65055 -0.0787615 -0.450665 -0.605375 0.43616 -0.65599 -0.2006305 -0.0758 -0.052055 0.256365 -0.9722 -0.3196 -0.44018 -0.20497 -0.967545 -0.0797495 -0.394595 -0.396605 -0.5136 -0.042855 0.0149215 0.0389415 -1.013505 -0.076844 -0.148038 -0.43735 -0.18185 -0.425695 0.716035 -0.288335 -0.015835 -0.28510465 -0.288455 -0.1106215 -0.0735455 -0.3088135 0.29347 -0.66361 -0.86252
technology||m.07c1v -0.40952 -0.30843 -0.18965 0.31382 0.20455 -0.082487 -0.0067468 -0.42995 0.3193 -0.59098 -0.96007 -0.36726 0.25553 -0.57798 0.43184 0.17508 -0.27987 -0.15483 -0.32332 0.31768 0.46866 -0.12305 -0.6501 -0.76307 -0.16182 -0.23876 0.65725 -0.19421 -0.3076 -0.46988 -0.1324 -0.55814 -0.27161 -0.12652 -0.38425 -0.15777 -0.21702 0.96146 0.046309 0.7555 -0.068583 -0.23719 -0.67334 -0.36295 0.61877 0.2024 0.039664 -0.27403 -0.59763 0.47068
connecticut||m.01x73 -0.30057 -0.16326 -0.13357 0.24875 -0.24101 -0.42776 0.57103 0.81435 -0.12984 -0.44124 0.026055 -0.38586 -0.16982 -0.39452 0.6543 0.15748 -0.14846 -0.31728 -0.39053 -0.48546 0.87932 -0.48547 0.048356 0.0010348 -0.97906 -0.248 0.34053 0.11262 0.041839 -0.53249 0.10964 -0.50637 0.18223 0.23618 0.46269 -0.23219 -0.96135 0.10703 -0.084537 1.1382 -0.73848 -0.56734 -0.075404 0.23887 0.68393 0.28937 -0.0017369 -0.32372 0.39077 -0.59407
september_11||m.0d0vp3 -0.618485 0.35207 -0.15895 0.26613 -0.1192705 -0.218586 0.42572 -0.313285 0.0673025 -0.1657515 -0.042555 0.239095 -0.114304 -0.119695 0.209756 0.641345 0.0430763 -0.1608242 -0.162896 0.0945535 -0.13328295 -0.1783335 0.39122 -0.18125 0.267395 -0.096214 0.331735 -0.041885 -0.27169 0.050735 0.08527 -0.67403 -0.533845 0.30151 0.168395 -0.56955 -0.32489 -0.473135 0.0991245 0.83601 -0.42693 0.00165 -0.089401 -0.0554255 0.1488135 0.370176 -0.281705 -0.088654 0.2518193 -1.082125
suburb||m.0750y -0.53642 0.17988 0.30904 -0.10319 -0.16495 -1.1145 1.5364 -0.4936 -0.41205 -0.36572 0.03258 0.12057 -1.1118 -0.289 0.423 -0.10492 0.68641 0.12406 -0.41941 -0.49296 0.44266 -0.051369 -1.197 -0.60707 -0.29271 0.59341 0.42432 -0.49301 0.17557 -1.0034 -0.19428 -0.8612 -0.20357 0.19257 0.69088 -0.54045 -0.12632 0.46829 0.15325 0.73947 -0.3732 -0.68488 0.53853 0.61351 0.44253 -0.24788 -0.16946 -0.28906 0.2979 -0.081046
financial_industry_regulatory_authority||m.02w85_g -0.3978975 -0.05385025 0.220999 0.1825155 -0.3115715 0.0500185 -0.06722 -0.206507 0.0508225 -0.544905 -0.650915 0.007145 -0.4232475 -0.545637 -0.18218125 0.070141525 -0.1813275 -0.148238 -0.5155725 0.20096675 0.4202825 -0.56169475 -0.2046925 -0.10398975 -0.0446375 -0.48858 0.0195675 -0.2696155 -0.103475 -0.2151445 0.412039675 -0.07865025 -0.25460075 -0.566435 -0.378667 -0.663495 -0.17314975 0.4271725 -0.4625075 0.5049075 0.003134 -0.0422625 -0.4525025 0.152280275 0.637685 0.37061 -0.249635 0.1867075 -0.35299675 -0.2099475
houston_rockets||m.0jmfb -0.736885 -0.2742 -0.327645 0.434965 -0.0400525 0.09326835 0.69486 0.08605 -0.46179 0.1486905 -0.2679625 -0.33117 -0.0590305 -0.978615 0.164869 -0.0943497 -0.2569469 0.2369025 -0.41268 -0.26823 -0.024065 0.304945 -0.952175 -0.87068 0.00365 -0.2823375 0.520575 -0.064665 -0.052266 0.009345 0.300395 -0.695935 -0.187545 0.554415 -0.0497525 -0.606205 0.134695 0.1646395 0.180575 1.14048 -0.2577715 -0.18849 0.494695 0.446165 -0.02793 -0.53647415 -0.308294 -0.1912135 0.202313 -0.309425
spurs||m.0jmh7 -0.61727 -0.38574 0.014896 0.83012 0.1099 0.51231 0.65271 -0.34575 -0.016034 0.044471 0.037795 -0.74839 -0.29547 -1.275 -0.34885 0.042716 0.13362 -0.49973 -0.17461 0.094734 0.37391 0.12467 -0.91299 -0.37657 0.25287 -0.27151 0.11527 0.22624 0.17393 -0.071058 -0.27094 0.37255 0.26002 0.86196 -1.0327 -0.13724 0.54003 -0.094494 -0.27511 1.9639 -0.0019296 0.11914 0.1211 0.26837 -0.26269 -0.097799 -0.3972 0.437 0.57304 -0.99956
celtics||m.0bwjj -0.37926 -0.96938 -0.056286 0.76568 0.70566 -0.13269 0.62413 0.4141 -0.48311 0.12067 -0.11917 -0.64768 -0.17719 -1.07 0.27806 0.20047 0.55985 -0.42768 -0.42993 -0.59906 -0.010625 -0.4417 -0.51612 -0.61443 0.077382 -0.21429 0.31111 0.13207 0.35583 -0.19484 -0.10576 -0.19639 0.38871 0.97079 -0.96743 -0.072664 -0.10183 -0.064759 -0.64839 2.032 -0.12899 -0.092636 0.013435 0.14789 -0.096623 -0.55162 -0.43598 0.67815 0.50886 -1.0613
bulls||m.0jm74 -0.022604 -0.2754 -0.22146 0.34876 0.36948 -0.099997 0.95407 0.086126 -0.20473 0.49499 0.42472 -0.69505 -0.30315 -0.83445 0.17905 0.32668 0.38551 -0.035095 -0.18693 -0.32169 0.1094 -0.25796 -0.37268 -0.86197 0.17273 -0.82145 0.44865 0.086126 0.56314 -0.38663 0.31041 0.19573 0.80977 0.30422 -1.1711 0.17929 0.28181 -0.007341 -0.22076 1.9333 -0.2304 -0.44679 0.21963 0.23026 -0.26897 -0.14187 -0.031028 0.28327 0.14269 -0.53793
cavaliers||m.0jm7n -0.39185 -0.44052 -0.69843 0.24092 0.45894 0.14239 1.0444 0.096073 -0.21581 0.25918 -0.094344 -0.46185 -0.52557 -0.86491 0.021888 -0.12194 0.2473 -0.16113 -0.68695 -0.68798 0.29759 0.012561 -0.31261 -0.75594 -0.010411 -0.54378 0.12652 -0.23472 0.38399 -0.064234 0.21681 0.26632 0.085655 0.51304 -0.63787 -0.30895 0.60432 0.19965 -0.26952 1.5717 -0.39996 -0.33409 0.51347 0.24018 -0.9369 -0.40135 -0.50575 0.2366 0.67969 -1.1809
nov||m.05cw8 -0.44277 0.062781 -0.31213 0.3244 -0.755 -0.070979 0.85223 0.1295 -0.11526 -0.30618 -0.010443 0.22842 -0.13624 -0.051234 -0.089245 0.45527 0.43262 0.28782 -0.48775 -0.023101 -0.15692 0.12974 0.0696 -0.42231 0.055304 0.18582 -0.054714 0.077291 -0.57315 0.054387 -0.14297 -0.47613 -0.84113 0.56558 -0.15185 -0.72191 -0.34023 -0.65554 0.042083 1.4469 -0.79971 0.065757 0.096875 -0.25804 0.30657 0.3626 -0.11937 -0.2539 0.72795 -0.94043
suns||m.0jml5 -0.74404 -0.74113 -0.59629 0.23071 0.23759 0.70889 0.75833 0.20405 -0.10115 0.35617 0.0052487 -0.88319 -0.27139 -1.2419 -0.087755 0.37513 0.57808 -0.3115 -0.1765 -0.17417 -0.25363 0.44818 -0.58237 -0.52192 0.077515 -0.24042 0.36551 -0.30712 0.16688 0.060271 -0.11999 -0.36703 0.21779 0.77199 -0.83179 -0.7001 0.38354 0.48979 -0.28943 1.4912 -0.23857 -0.42886 0.038996 0.39319 -0.65719 -0.22808 -0.43644 0.47288 0.13727 -1.3405
timberwolves||m.0jmgb -0.64256 -0.19436 -0.36638 0.21065 0.26009 0.79061 0.6746 -0.013726 -0.53658 0.36262 0.24385 -0.75546 -0.42285 -1.2652 -0.045499 0.31067 0.65624 -0.69743 -0.39087 -0.38662 0.082781 0.0054037 -0.38669 -0.63739 -0.37218 -0.5339 0.38847 -0.6602 0.27394 -0.22187 -0.21144 0.021766 -0.072788 0.72275 -0.79499 -0.51334 -0.15332 0.38202 -0.36997 1.5544 -0.36516 0.063542 0.65324 0.48372 -0.51166 -0.3062 -0.18366 0.21573 0.55711 -1.0793
vice_president_joe_biden||m.012gx2 -0.240724 -0.0360875 0.08213025 0.42631 0.086479 0.090635 0.2387665 0.24704925 0.15726 0.27669 -0.1139975 0.2397525 -0.392305 0.30742 0.172623 0.7156675 0.428495 0.321265 -0.065615 0.4984375 -0.348225 -0.141939 -0.801665 0.20867425 -0.51576 -0.763355 0.149608 -0.71082 0.2730675 -0.4493475 0.4291975 -0.7302875 -0.0637475 -0.2519815 0.12226425 0.1823525 -0.3102825 0.47457325 -0.07568 1.0232425 -0.1205265 -0.377444 0.1625135 -0.4681975 0.7949375 0.6550125 -0.13590525 0.17168975 -0.14678575 -0.32559
texas||m.07b_l -0.82273 -0.2949 -0.19553 0.45742 0.0062815 -0.24362 0.99484 0.22805 -0.051754 0.15147 0.22416 -0.48433 0.4466 -0.44963 -0.25799 -0.32331 -0.055643 -0.085258 -0.19593 -0.44015 0.495 -0.15071 0.18295 -0.24916 -0.66698 -1.4909 0.48772 -0.6497 -0.58913 -0.15369 1.095 -0.22046 -0.080297 0.90714 0.29503 -0.36964 0.09377 0.30762 -0.10554 0.39567 -0.64567 -0.36161 0.20978 0.12066 0.72185 0.063371 -0.14958 -0.5967 -0.14018 -0.23457
philadelphia||m.0dclg -0.57117 -0.2011 0.047084 0.59121 -0.28293 -0.16176 0.46209 0.8838 0.40139 0.20886 0.51465 -0.2689 -0.39215 -0.96366 0.38245 0.3237 0.074914 0.17708 -0.46344 -0.53155 0.28812 -0.66938 -0.32037 -0.84339 0.10154 -0.086612 0.17814 -0.65739 -0.049046 -0.2146 0.34761 -0.093412 -0.23629 0.18361 0.16951 -0.35469 -0.20326 0.11377 -0.35644 0.7922 -0.73673 -1.0005 0.18658 0.0077751 0.067363 -0.050474 -0.66227 -0.28438 0.71571 -0.17483
doctor||m.05t4q -0.41576 0.41488 0.36052 0.45057 0.044496 0.22918 0.42033 -0.66072 -0.17815 0.50144 -0.039718 0.38288 0.14271 -0.05648 -0.062673 -0.48837 0.43014 0.56177 -0.2156 -0.32902 0.41745 -0.4243 -0.34772 -1.0001 -0.3028 -0.3809 -0.45898 -0.52208 -0.023288 -0.22539 -0.20997 0.12818 -0.099833 0.1814 0.27826 -0.12131 -0.55546 0.39978 -0.30021 0.90971 -0.46808 -0.28635 -0.61569 0.06666 -0.11723 0.78984 -0.41304 0.1385 -0.046871 0.29679
nbcuniversal||m.02_l39 -0.078127 -0.13099 -0.39295 -0.24504 0.41178 0.6975 0.41516 -0.095668 0.46306 -0.5571 0.27454 -0.54076 -0.60986 -1.0131 -0.39391 0.87644 0.33813 -0.080308 -0.28352 0.43657 0.25875 -1.1278 -0.72049 -0.54942 -0.77226 -0.50065 -0.29897 -0.29007 -0.3949 -0.26202 -0.22092 -1.0457 -0.99715 -0.45543 0.022213 -0.18081 -0.5649 0.32142 -0.9705 0.85207 0.28805 0.27508 -0.20336 -0.21356 1.4685 0.22539 -0.17629 0.13815 -0.12673 -0.51884
fox||m.016tt2 0.54709 -0.27247 -0.50489 0.27125 0.74069 0.69612 0.50584 0.091405 -0.023502 0.25901 0.26632 -0.73248 -0.3572 -0.64895 -0.37377 0.31103 0.4332 0.61796 0.16873 -0.066064 0.20931 -0.79534 -0.63564 -0.42335 -0.079982 -1.122 -0.12245 -0.41191 -0.2733 -0.23435 -0.015634 -0.41637 -0.73637 0.036291 -0.0068882 0.011588 -0.63512 0.063932 -0.57206 0.33082 -0.43084 -0.18305 -0.14212 -0.032156 0.9518 0.062092 -0.20904 -0.11557 -0.099204 -0.66201
piracy||m.0ddct -0.32423 0.13486 0.04059 -0.30306 -0.52644 -0.10131 0.2859 -0.92185 -0.19206 -0.47129 -0.012977 -0.44586 0.28206 -0.67017 -0.57012 0.34744 -0.28971 -0.411 -0.93859 -0.52775 0.1501 -0.90149 -0.53148 0.29143 0.31198 -0.78967 -0.049036 -0.62999 -0.20665 0.10036 0.31746 -0.50085 -0.92521 0.64038 -0.17164 -0.39268 0.15203 -0.18379 0.35307 0.30543 0.26107 -0.17972 -0.81275 -0.2046 0.54727 -0.19065 0.18353 -0.43253 -0.85031 -0.73498
sports||m.06ntj 0.34193 0.17191 -0.062109 0.36128 -0.043789 -0.083124 0.055395 -0.032443 -0.10337 -0.67192 -0.13183 -0.20059 0.038889 -0.92672 0.16322 0.14536 0.83538 0.70308 -0.22553 0.50664 0.56317 -0.3321 -0.143 -0.63286 0.041335 -0.7934 -0.19516 -0.65891 0.16874 -0.12148 0.0079687 -0.65744 -0.063005 -0.077205 -0.05588 0.16042 0.10625 0.34048 0.054822 0.67053 -0.54508 -0.37932 0.068511 0.30486 1.1235 -0.24784 0.0092989 0.55029 -0.33236 0.30751
destiny||m.02d9wb 0.20912 0.042762 0.68373 0.64928 -0.49505 -0.020402 -0.1362 -0.90852 -0.81445 0.22579 0.13599 -0.51436 -0.48282 -0.47479 -0.15479 0.35974 0.76015 0.095543 -0.22169 -0.34396 0.64109 0.27372 -0.80566 -0.2704 0.25769 -0.38743 0.36461 -0.10721 -0.36854 -0.051515 0.029448 0.0085739 -0.21216 0.66344 0.13058 0.43911 -0.60894 0.41285 -0.81789 0.54471 -0.13319 -0.18633 -0.24381 -0.58774 0.17894 0.22663 -0.15873 0.094493 0.23479 -0.35996
grand_central||m.01rz3c -0.180335 0.331575 -0.003195 0.346845 -0.36173 -0.54524 0.233843 -0.357515 -0.47082 -0.51529 0.213576 -0.3154255 -0.65188 0.373487 -0.17380425 0.364175 0.02517 -0.112243 0.0936525 -0.39558 0.81243 -0.73211 -0.162043 -0.2394514 0.236425 -0.43079 -0.035755 -0.1264 0.009095 -0.2277855 0.219322 -0.62875 -0.360415 -0.102413 -0.036005 -0.009215 0.173019 0.3436145 0.02448 0.24361 -0.81967 0.11604 0.337635 0.0710655 0.55788 0.05633 -0.391375 -0.08463 0.1100725 -0.639895
miles||m.04vb3 -0.20807 -0.11213 -0.58981 0.45928 -0.6555 -0.80341 0.84474 -1.2853 -0.018054 -0.52193 0.21206 -0.49938 -0.27253 -0.019073 0.1158 0.47042 0.19074 0.90222 -0.32572 0.28035 0.53839 0.36988 -0.49664 -0.3188 -0.34766 -0.14749 0.70516 -0.64206 -0.34934 -1.0756 0.1571 -0.8131 0.62339 0.62547 0.14156 -0.67623 -0.37289 0.47704 -0.38312 -0.071435 0.0081385 -0.47445 0.26735 0.57577 -0.27286 -0.22333 -0.096642 -0.46657 0.31798 -1.0958
anna_nicole||m.0hwfl 0.54799 0.54217 -0.0945545 0.37977 -0.2271 0.016565 0.38684 0.137215 0.377585 -0.330355 -0.173565 0.26624 -0.190675 -0.338565 -0.55328 0.2049 0.578615 0.150425 -0.48676 -0.55361 0.38488 0.1610215 -0.51732 -0.41757 -0.101857 -0.643415 0.143415 -0.341562 0.43556 -0.2809045 -0.67186 -0.434135 -0.540605 -0.109978 0.252075 0.467715 -0.40575 0.431925 0.322095 0.50729 -0.747925 0.02415545 0.028111 -0.21714 -0.382245 0.67524 -0.531235 0.2108365 0.25019 -0.69149
brooklyn||m.0cr3d -0.15357 0.07259 0.16157 0.60298 0.39208 -0.091899 1.091 0.60015 -0.048025 -0.27001 0.88569 -0.56175 -0.083487 -0.31111 -0.15098 0.50164 -0.26694 0.13904 -0.46922 -0.26438 0.431 -0.27394 -0.70116 -0.64894 -0.25473 0.43195 -0.057391 0.11365 0.41643 -0.12989 0.43882 0.031597 0.00014606 0.28213 0.032373 -0.026471 -0.2858 0.23447 -0.21768 0.83344 -0.18622 -0.43729 0.32026 0.03719 0.65688 0.7433 -0.92881 -0.49471 -0.0072177 -0.66345
