2989 50
spanish||m.06nm1 -0.074183 0.37809 0.30317 0.21531 -0.024021 -0.052342 -0.23312 -0.53593 0.48188 0.34727 -0.71545 -0.22475 0.57748 -0.24461 -0.50451 0.4328 0.081722 0.2994 0.77961 -0.41556 -0.09177 0.061251 0.58943 -0.6381 -0.26481 -0.94323 0.69333 -0.0085015 0.0064198 0.55511 0.58143 0.50809 -0.28624 -0.27592 -0.2071 0.15714 0.3562 -0.14364 0.15602 0.81791 0.38546 0.69726 0.51535 -0.26112 0.1591 0.35884 0.50599 -0.24492 0.54791 -0.63754
law||m.04gb7 -0.42891 0.63203 -0.49069 -0.015552 -0.033803 -0.38804 -0.33803 -0.11317 -0.056127 -0.052163 0.08928 0.42184 0.097494 -0.48757 0.25471 1.136 -0.36378 0.055009 1.0404 -0.63974 0.25955 0.38304 0.22295 -0.085115 -0.099705 0.46447 1.3801 0.1916 0.19613 0.28308 0.56662 0.44961 -0.14608 -0.23645 -0.22009 -0.16668 -0.0093872 1.069 -0.062165 -0.63942 0.21019 -0.45012 -0.3339 -0.13534 -0.10795 -0.32831 0.062514 0.11546 -0.0248 0.35073
expert||m.02pkl -0.29397 0.25979 0.061004 -0.52123 -0.33421 0.24692 -0.51089 -0.98218 0.30787 0.33088 0.018706 0.40465 -0.02656 -0.56065 0.91564 0.98286 -0.37774 -0.47448 0.83763 -0.16927 -0.56506 0.58162 0.16182 -0.17343 -0.27572 0.14928 0.10945 -0.18448 0.5531 -0.29935 0.018758 0.36694 -0.017914 -0.57674 -0.48436 0.0017907 -0.17362 0.25399 -0.56954 -0.31532 0.20858 -0.66208 0.17596 0.12224 -0.37277 -0.28835 0.43675 1.0758 0.15823 -0.35053
middle_east||m.04wsz -0.010059 0.07692 0.147827 0.015385 0.2484985 0.93954 -0.612095 -0.006565 0.45516 0.50973 0.16416 0.033315 -0.1356695 0.1313766 0.045817 0.360985 0.0673865 -0.34145 -0.272565 -0.79135 -0.00545 0.114675 -0.1288795 -0.2861005 -0.64815 0.0097775 0.53871 -0.218935 0.463915 -0.554205 0.047895 -0.630525 -0.61994 -0.135111 0.066213 -0.0700225 0.460715 0.1252905 -0.36502 -0.23936 0.64718 -0.81128 0.480315 -0.18221 0.6386 0.0747955 0.362735 0.1299215 0.078992 0.0880925
lawyer||m.04gc2 -0.68991 -0.062564 -0.15315 0.43545 0.13706 0.22427 -0.51775 -0.41091 0.43748 0.62989 0.45844 0.27178 -0.28189 -1.0564 0.89493 0.40015 -0.036918 -0.054688 0.73573 -0.26941 -1.1548 -0.45546 0.70305 -0.046656 0.54629 -0.045351 0.39991 -0.17048 -0.035523 0.093246 0.51888 0.55455 -0.084325 -0.22684 -0.01371 -0.1311 -0.058867 1.288 0.0578 -0.41596 0.35117 -0.098333 -0.039321 -0.16657 -0.16044 -0.74115 0.58848 0.62785 0.32057 -0.26886
web_services||m.0n5rs 0.023165 0.058155 -0.27108 -0.26675 -0.191385 0.192195 -0.23775 -0.58478 0.380825 -0.50257 -0.373029 0.2852515 -0.055784 -0.251089 0.058817 0.64152 -0.38119 -0.0875435 0.42988 -0.422485 -0.71979 -0.134627 -0.1289985 -0.2118615 -0.42901 0.306655 0.50666 0.18436 0.0041095 0.60633 0.1012525 -0.00248 -0.27568 -0.3737415 0.01042 -0.20906 0.543435 0.62873 -0.334074 0.663545 -0.28109 0.1903725 0.670765 0.170343 0.55325 -0.00408 0.06467 0.1897285 -0.259634 0.330373
britain||m.07ssc 0.32773 -0.15199 -0.14411 0.39012 -0.073549 0.30386 -0.089193 0.35565 0.86071 0.83717 -0.36025 0.44878 0.20656 -0.19699 -0.63631 0.34344 -0.73981 -0.27288 0.10229 -0.68711 -0.098691 0.41142 -0.21364 -0.42799 -0.18159 -0.11175 0.70839 -0.59387 -0.23738 0.36615 0.067512 -0.15157 -0.052847 -0.79505 -0.33573 -0.41116 -0.56476 0.25997 0.31078 0.2689 -0.060204 -0.083063 1.0721 -0.21493 0.2988 0.095032 -0.28399 0.075096 0.73771 0.058466
chemical_weapons||m.0bwkbcx 0.207185 1.03971 -0.519145 0.07446 -0.18737 0.20564 -0.47356 0.69607 1.008475 0.266015 0.38555 0.68753 -0.2985685 0.540485 -0.786925 1.00434 -0.361075 -0.43704 -0.271125 -0.67605 -0.292565 0.75501 0.459665 0.003885 0.249365 0.321875 0.88392 0.123784 0.495655 -0.37408 0.487655 -0.0902215 0.99972 -0.79087 0.060254 -0.46359 0.491565 0.26117 -0.501065 -0.34283 -0.534145 -0.0461915 0.614585 0.55055 -0.407815 -0.16086 0.31145 1.052435 -0.392465 -0.42971
syria||m.06vbd 0.26229 0.8677 -0.064031 -0.065461 0.31327 0.70112 -0.8847 0.81831 1.4673 0.37728 0.087715 0.11362 0.033987 0.2266 -1.2689 1.0852 0.13902 0.08927 -0.57752 -1.0207 -0.64651 0.61962 0.30766 -0.15317 0.34633 0.36052 0.33413 0.32246 0.24696 -0.47542 0.76361 -0.391 0.32794 -0.51373 0.17201 -0.43396 -0.064015 0.017743 -0.68539 -0.49063 0.0059414 -0.29538 1.0301 -0.19745 0.18471 -0.20421 0.20149 0.66359 -0.060919 0.016249
washington||m.081yw 0.044625 0.18446 -0.42819 0.43095 0.54377 0.97429 -0.32249 0.28462 0.35365 0.22309 0.55704 0.42901 0.21496 -0.39332 -0.15952 1.5343 -0.19735 -0.15715 0.26312 -0.51039 -0.19951 0.086401 0.48797 -0.13824 -0.64574 0.06898 0.20054 -0.31976 0.20987 -0.0085127 0.47314 -0.30525 -0.10801 0.054936 -0.22662 -0.2632 -0.048241 -0.17082 -0.020096 -0.22262 0.26139 -0.96475 0.13217 0.51454 0.21144 -0.068961 -0.48514 -0.0013042 -0.10147 0.73423
action_movie||m.02kdv5l -0.07844 0.004625 -0.414005 -0.18533 -0.64339 -0.0916485 -0.338207 0.10822 0.5274 0.596015 0.278335 0.079765 -0.13581 -0.27706 -0.0687415 0.5957 -0.51219 0.198348 -0.052795 -0.670783 -0.1824455 0.461425 0.075285 -0.1215255 -0.171635 -0.267805 0.28188 0.463975 -0.01251 0.129595 0.0660715 -0.33148 0.1012505 0.15405 0.085085 0.0715055 0.13837746 0.42287 -0.018615 0.10857 -0.05007 -0.51822 0.201317 0.537331 0.339605 -0.45926 -0.16422 0.247085 0.597395 0.292517
vice_president||m.0dq3c -0.27956 -0.2043975 0.0976835 0.034635 -0.333425 0.330455 -0.132314 -0.247885 0.033157 -0.349915 0.71578 0.25675 -0.1043785 -0.33444 1.041695 0.69941 -0.790905 -0.0858595 0.37201 -1.02595 -0.88524 -0.28913 0.229985 0.064465 0.630975 0.35783 0.50699 0.382 0.685545 0.190445 0.4429 -0.261495 -0.166625 -0.262581 -0.86405 -0.23201 0.32134 -0.27874 -0.308315 0.2468445 0.1383355 -0.595165 0.03957 -0.28575 0.46843 -0.44109 0.091956 0.366455 0.51842 0.292585
humor||m.09kqc 0.15997 -0.362 -0.40017 0.03444 -0.79789 -0.23496 -0.13437 -0.24779 1.0911 0.17879 0.41688 0.079432 -0.33591 0.3137 -0.58559 0.17805 -0.05001 -0.071912 0.5133 -0.091958 -0.080469 -0.46373 0.3597 0.024039 -0.52993 -0.79945 0.30494 0.10515 0.20883 -0.3232 0.54026 0.66666 -0.08739 0.030553 0.64007 -0.054021 0.12593 0.035637 -1.288 -0.093071 0.20481 0.33555 0.35965 0.51857 1.0026 -1.2956 -0.042962 0.3358 0.39106 0.1513
film||m.02vxn -0.30929 0.16447 -0.38339 -0.3976 -0.75578 -0.087386 -0.055937 -0.30604 0.85384 0.48955 0.48329 -0.39474 -0.2674 -0.55178 -0.19596 0.71195 -0.7489 0.059747 -0.16111 0.035907 -0.13134 0.27895 -0.11986 -0.24194 -0.022001 -0.34909 0.46221 0.0038116 0.56661 0.23913 -0.12422 0.027293 0.098749 0.24564 0.30077 0.22981 0.013891 0.35828 0.33261 0.45452 0.15208 -0.49874 0.37705 0.72822 0.20513 -0.82577 -0.10801 0.15032 1.0577 0.59202
advertising||m.011s0 0.11587 0.28175 -0.13452 -0.37251 0.015129 -0.086758 -0.22881 -0.33836 0.93928 -0.65225 0.51135 0.27105 -0.39518 -0.25242 -0.02789 0.21873 -0.88071 -0.081363 0.52596 -0.80667 -0.45241 0.057735 -0.09863 -0.1642 0.051067 0.040848 0.594 0.44784 -0.50992 0.50426 0.49186 -0.4846 -0.42439 -0.35005 -0.080581 0.13615 0.48017 0.4474 -0.67302 0.95462 -0.079587 0.16459 0.30954 0.83414 0.58278 -0.25455 -0.18011 0.0014607 0.060685 0.78812
horror||m.03npn -0.15365 0.44407 -0.66239 -0.21587 -0.65867 0.084088 -0.10648 -0.36853 1.0826 0.73046 0.24058 0.043452 0.063421 -0.1635 -0.70772 0.34895 -0.33416 -0.11659 -0.55734 -0.02614 -0.16955 0.59835 0.17394 -0.10341 -0.53859 -0.55107 -0.027813 0.33847 -0.19731 -0.26444 0.28143 0.035321 -0.25231 0.00061762 0.81174 0.24748 0.05794 -0.14041 0.22851 0.10726 0.34355 -0.70721 0.48838 0.6164 0.76073 -0.98908 -0.2159 0.5383 0.42417 0.33826
telephone||m.07cx4 -0.52174 0.28561 0.1081 0.41274 -0.25106 -0.20935 -0.54611 -0.30725 0.44765 -0.70948 -0.28839 0.16362 0.16813 -0.23163 0.056407 0.63457 0.041353 0.056262 0.061959 -0.11421 -1.2299 -0.48982 0.89401 -0.73718 0.33584 0.16408 0.26209 -0.69755 0.17156 0.53512 0.19134 0.15229 -0.17652 -0.25809 0.0019426 -0.19973 0.20974 0.23558 -0.30083 -0.094928 -0.45133 0.097173 0.92517 -0.024982 0.093145 -0.55272 0.76516 0.35744 0.12781 0.67293
saturday_night_live||m.039cq4 -0.472226666667 0.154293333333 -0.38975 0.198167 -0.35223 0.407906666667 -0.24593 -0.122202 0.410773333333 0.569923333333 -0.018946 0.200332 -0.194641666667 0.21121 -0.2068452 0.625706666667 -0.0260653333333 0.312046666667 -0.274593333333 -0.211100533333 -0.406506666667 -0.374216666667 0.49498 -0.639106666667 -0.229450333333 -0.0457566666667 0.102606 0.203542666667 0.1740027 0.32907 -0.421783 -0.286143333333 -0.09817 0.31144 -0.156683333333 -0.0162893333333 0.51649 -0.0729166666667 -0.030935 0.2794322 0.208756666667 -0.194315666667 0.311019333333 0.0873398333333 0.408196666667 -0.406472966667 0.33465 -0.313853333333 0.00313303666667 0.0162766666667
ford||m.02zs4 0.087196 -0.094691 -0.0056928 0.29234 -0.19196 0.62006 0.23771 0.34981 0.96291 -0.10112 0.43802 -0.084542 -0.72215 0.19082 0.85522 0.10843 -0.61717 0.24281 -0.53075 -0.48122 -0.33224 0.27058 0.17296 -0.16258 0.16136 -0.95626 0.89912 -0.37345 -0.17082 0.46402 0.76901 -0.24679 0.224 -0.40271 -0.24955 -0.68851 0.53433 -0.60079 0.15422 0.58368 -0.2713 -0.16756 -0.45396 0.48814 -0.021395 -0.60032 0.52429 0.23614 -0.1431 0.30328
male||m.05zppz -0.1642 0.11934 -0.23951 0.037521 -0.2255 0.77182 0.20456 -0.56395 0.53586 0.82193 0.48552 -0.49472 0.38239 -0.19207 0.065548 -0.023447 -0.13829 0.29556 -0.25832 -0.80192 0.82061 0.44502 -0.18335 -1.0119 -0.23642 -0.068875 0.11949 -0.25881 0.27706 0.45933 -0.043899 0.83041 0.054634 0.0021077 0.032413 -0.34651 0.056526 0.43891 -0.18292 0.1059 -0.69036 0.27467 0.47553 -0.081178 0.52825 -1.077 0.38619 0.097051 0.26912 0.1023
actor||m.02hrh1q -0.85314 -0.83496 -0.35278 0.32085 -0.48475 0.2037 0.090433 -0.28925 0.75539 0.4983 0.36378 -0.21683 0.11294 -0.29245 0.17296 0.69008 -0.99409 -0.23444 -0.062608 -0.14779 -0.26716 -0.12737 -0.0077884 -0.22889 0.13249 -0.39025 0.10389 0.20355 0.34129 -0.19401 0.23679 0.52044 0.34189 -0.67411 0.45166 0.3882 -0.35662 0.43765 0.35419 0.33355 0.069706 -0.20154 -0.17049 0.69725 1.062 -1.461 0.15684 -0.018507 1.0375 0.0050095
grammys||m.0c4ys -0.40691 -0.44859 -0.30659 0.65896 -0.69356 0.38838 0.23555 -0.35233 0.66795 -0.3185 0.10964 -0.25707 -0.39659 -0.49647 -0.39956 0.60084 -0.70219 0.23119 -0.53176 0.14641 0.44672 0.25057 0.295 -0.70461 -0.27969 -0.58031 1.3417 0.12317 0.43364 0.15095 -0.57321 0.36468 0.43448 0.12961 0.59745 -0.2855 -0.30987 0.44278 0.2553 1.1218 -0.21903 -0.1436 0.43967 0.77006 0.77099 -0.99381 -0.47272 -0.41749 0.61619 0.57395
italy||m.03rjj -0.17838 0.10841 0.30559 0.18073 0.24295 0.12946 -0.72036 0.18467 0.68221 0.77383 -0.59211 0.92542 0.39222 -0.065996 -0.54269 -0.022686 0.071366 0.067826 0.64208 -0.74715 -0.12393 0.49091 0.12844 -0.80483 -0.52819 -0.27502 0.36758 0.11895 0.006784 0.71851 0.4392 0.23356 0.28174 -0.92382 0.15405 -0.36329 -0.3604 -0.61331 0.25563 1.0149 0.49619 -0.010456 0.61016 -0.50229 -0.25164 0.1153 0.1697 -0.47368 0.66272 -0.39756
actress||m.02hrh1q -0.64231 -0.82864 -0.29796 0.6919 -0.37069 0.20552 0.088696 -0.40513 0.72098 0.45635 0.14191 -0.14312 -0.21148 -0.32918 0.067122 0.19253 -1.0621 -0.57733 -0.26672 -0.30446 -0.57418 -0.25096 -0.21683 -0.6985 -0.23298 -0.24005 -0.096939 0.20036 0.40424 0.37396 0.27438 0.66946 0.58466 -0.21752 0.58472 0.00016854 -0.60663 0.51199 0.30007 0.12149 0.12882 -0.34979 0.057045 0.36369 1.1831 -1.8432 0.11534 -0.27714 1.0031 0.36383
generation||m.0ndhl 0.015468 -0.15266 0.31013 -0.14928 -0.39195 0.31701 0.1315 -0.23077 0.97991 0.2202 0.18271 -0.050894 -0.33343 0.016409 0.40029 0.35795 -0.4845 0.432 -0.093646 -0.29855 0.255 0.91488 -0.078135 0.16586 -0.068401 0.0075707 0.68172 0.31975 0.52665 0.086388 0.020727 0.19958 -0.43673 -0.42302 0.060378 -0.23977 0.064966 -0.31082 -0.087395 0.7336 -0.28035 0.23382 0.33407 -0.06326 0.21222 -0.94548 0.40265 -0.30594 -0.25156 0.19627
pants||m.07mhn -0.57598 0.63773 -0.53744 0.62148 -0.14994 -0.27881 -0.28533 -0.21225 0.12786 0.47238 1.4365 0.49352 0.38905 0.66892 -0.01221 -0.62868 0.53471 0.019277 -0.18664 -0.812 -0.27242 0.28966 -0.39099 -0.76469 -0.30531 -0.77747 0.5742 0.22281 0.62222 0.47885 0.62672 0.55946 0.073076 0.24275 -0.47729 -0.073417 0.038348 0.43054 -0.75269 0.37872 -0.55603 -0.056907 -0.62779 0.88522 0.88435 -0.3735 0.17685 0.27468 0.38458 0.72467
short||m.02hmvc -0.2551 0.065866 -0.33144 -0.12888 0.46582 -0.2237 -0.33761 0.55946 0.17787 0.49509 0.5529 -0.0073886 -0.18687 0.50956 -0.035113 0.4813 0.10296 0.45718 -0.19212 0.065361 0.0371 0.064776 -0.019522 -0.56489 -0.35733 -0.74403 0.59343 -0.33548 0.46343 0.11924 0.036247 -0.11121 -0.36359 -0.24511 -0.27362 0.045576 -0.036361 0.44333 -0.53394 -0.30726 0.085139 0.33525 0.69201 0.24496 0.668 -0.24072 -0.14429 -0.063413 0.43379 0.55256
queens||m.0ccvx -0.052677 0.24236 -0.017871 0.29825 -0.096456 0.64607 -0.73494 -0.39728 0.75217 0.248 -0.082799 -0.13182 -0.28977 0.25798 0.51467 0.47672 -0.079162 -0.81732 -0.026377 -0.94174 0.022489 -0.44851 0.74616 -0.66468 -0.65998 0.15926 0.4789 -0.27819 -0.16536 0.17999 0.33267 0.17758 -0.35846 0.061909 0.013585 0.22496 1.3804 -0.038744 0.84954 0.34496 0.5735 0.093682 -0.50773 -0.52475 0.68806 -0.3761 -0.29458 0.031257 -0.44105 0.1011
windows||m.0d4v4 -0.19564 0.17182 -0.36302 0.21703 0.56284 -0.15881 -0.7554 -0.28421 0.42199 0.12284 0.31037 0.28557 0.12498 -0.029522 0.41428 0.75558 1.3188 -0.13524 -0.061897 -0.10221 -0.55298 0.33903 -0.49312 -0.15659 -0.68264 -0.051093 0.55958 0.45336 -0.097335 0.58078 0.20277 -0.10246 0.24216 -0.44463 0.71666 -0.40035 1.0439 -0.25418 0.093222 1.4422 -0.55035 0.11554 -0.13472 0.038707 0.33353 -0.15026 -0.083431 0.38848 -0.096093 1.3876
benjamin_netanyahu||m.0fm2h -0.413815 0.01169 -0.162015 0.261095 0.01093 0.549585 -0.240867 0.449969 0.471525 0.655415 -0.265475 0.110293 -0.34992 -0.505075 -0.26728 1.39195 -0.1361655 0.17074 0.10855 -0.717045 -0.88367 -0.45051 -0.16885 -0.196177 -0.22744 -0.32655 0.511325 -0.76554 1.31265 -0.16789 0.28433 0.0319408 0.2267795 -0.3306 0.322285 -0.020745 0.21423 -0.104105 -0.05296 -0.625425 0.00627 0.3121175 0.36238 -0.63703 0.707615 -0.41181 -0.550135 0.347885 0.33237 0.346695
iran||m.03shp 0.21454 0.20909 0.0098938 -0.23823 -0.15595 0.74952 -0.49794 1.0777 0.63084 0.5406 0.68882 -0.1235 -0.24467 -0.56819 -1.1646 1.3601 -0.41843 -0.30599 -0.32378 -0.6365 -0.35087 0.35257 0.11182 0.19958 -0.18599 0.71705 1.1199 -0.082968 0.73531 -0.47323 0.49239 0.37836 0.48168 -1.0579 -0.099354 -0.41248 0.048914 -0.10357 -0.60076 -0.19449 -0.060842 0.018421 0.67159 -0.022599 0.14689 -0.10425 0.030795 0.23766 -0.25997 0.29245
president_obama||m.02mjmr -0.324395 0.2106375 -0.0400785 0.193954 -0.107445 0.4438 -0.49301 0.262135 0.2140205 -0.19441 0.381055 0.1702975 0.064002 -0.25241 0.232585 0.837925 -0.58433 0.2764105 0.23544 -0.96952 -0.70524 -0.173425 0.28288 0.25334 0.26467 0.106445 0.8027 0.452665 0.61642 0.314865 0.722475 -0.27372 0.130075 0.179069 -0.56104 -0.465645 0.1033025 -0.228635 -0.40054 -0.5047505 0.092065 -0.4487 0.027465 -0.12109 0.16722 -0.701235 -0.279349 0.058709 0.629135 0.719345
obama||m.02mjmr -0.22197 0.33504 -0.093984 0.29024 0.11806 0.53837 -0.74841 0.3852 0.33088 -0.2047 0.1073 -0.019475 0.066231 -0.18931 -0.15702 0.83352 -0.49658 0.46918 0.12942 -0.91774 -0.47705 -0.17083 0.37935 0.24497 -0.2326 -0.10405 0.84919 0.3411 0.62902 0.40117 0.83308 -0.13907 0.45379 0.26989 -0.37749 -0.6357 0.063115 -0.13495 -0.52264 -0.91842 -0.11131 -0.44045 0.18235 0.16385 0.19961 -0.84462 -0.60178 -0.062152 0.52407 1.0847
united_states||m.09c7w0 0.57616 -0.090561 -0.0515885 0.661915 -0.047638 0.634115 -0.371015 0.1180145 0.340435 -0.103563 -0.067413 0.28984 0.260255 -0.249055 -0.35727 0.45134 -0.577815 -0.054802 -0.17695 -1.002525 -0.18479625 0.456265 0.51657 -0.406445 -0.37056 0.272035 0.95948 -0.0465335 0.120895 -0.239565 0.613725 -0.20162 -0.0670295 -0.351525 -0.385085 -0.466705 0.202425 0.33892 0.21728 -0.122268 -0.0866725 -0.42334 0.46142 -0.092742 -0.029645 -0.0704795 0.253945 -0.1350255 0.29738 -0.052534
united_nations||m.07t65 0.350824 0.10772 -0.16394 0.584835 -0.1351575 0.783595 -0.383675 0.221345 0.804505 -0.252535 -0.1667155 0.37344 0.265315 -0.38745 -0.64673 0.419515 -0.47763 -0.079377 -0.28628 -1.212 -0.30695 0.438155 0.259002 -0.44104 -0.1905075 0.154651 0.843825 -0.14358 0.170555 -0.46107 0.5456 -0.139716 0.249662 -0.196128 -0.62395 -0.484665 0.085335 0.25037 -0.05436 -0.010058 0.0348935 -0.41626 0.602505 -0.340355 -0.05828 -0.0350265 0.276665 0.1119045 0.183676 -0.245605
experts||m.02pkl -0.12682 0.37878 -0.086614 -0.3143 -0.12046 0.30719 -0.6019 -0.65842 0.67676 0.51723 -0.18368 0.61013 0.015324 -0.45408 0.51714 1.0809 -0.27254 0.091462 0.24777 -0.45693 -0.19695 0.68678 0.038104 -0.21642 -0.19965 0.17179 0.45472 0.11252 0.039935 -0.23836 0.35439 0.36585 0.32594 -0.11371 -0.41437 -0.20893 0.1286 0.075193 -0.52857 -0.2382 -0.2275 -0.19567 0.45308 0.39897 -0.92158 -0.28341 0.14274 0.76116 -0.074723 -0.1951
retired||m.06lry -0.27302 -0.35164 -0.45048 0.72838 0.37727 0.62411 0.42784 -0.085177 0.12732 -0.048914 0.60156 0.1102 0.32006 -0.38648 0.81677 0.56648 -0.24972 0.2862 0.31187 -0.050453 0.084188 0.023592 0.37821 -0.20465 -0.51294 -0.34316 0.4091 0.40421 0.4788 0.29569 0.32011 0.89954 -0.37341 -0.78695 -0.79889 0.24839 0.14179 -0.055051 0.28265 0.41158 0.23564 -0.45071 0.08835 -0.55808 0.58296 -0.4705 0.52435 0.68493 0.03444 -0.71513
washington||m.0rh6k 0.044625 0.18446 -0.42819 0.43095 0.54377 0.97429 -0.32249 0.28462 0.35365 0.22309 0.55704 0.42901 0.21496 -0.39332 -0.15952 1.5343 -0.19735 -0.15715 0.26312 -0.51039 -0.19951 0.086401 0.48797 -0.13824 -0.64574 0.06898 0.20054 -0.31976 0.20987 -0.0085127 0.47314 -0.30525 -0.10801 0.054936 -0.22662 -0.2632 -0.048241 -0.17082 -0.020096 -0.22262 0.26139 -0.96475 0.13217 0.51454 0.21144 -0.068961 -0.48514 -0.0013042 -0.10147 0.73423
nightmare||m.0cjgc -0.25866 0.37226 -0.72353 0.33654 -0.33572 -0.12618 -0.51676 0.40755 1.0423 0.50264 -0.43715 0.71355 0.55663 -0.2826 -0.20395 -0.034287 -0.44228 -0.10411 0.42658 0.33723 -0.29774 0.33816 0.39358 0.10566 -0.66914 -0.58815 -0.19077 0.58557 0.077876 0.044856 -0.021153 -0.051289 -0.33151 -0.62948 -0.075588 0.32473 0.17896 -0.41148 -0.54028 0.15478 0.58933 -0.49 -0.12707 0.30761 0.75759 -0.56286 0.17384 0.23618 -0.021517 0.14244
u.s.||m.09c7w0 0.67557 -0.10787 -0.23835 0.29326 0.31038 0.38484 -0.25845 0.065981 0.00074895 0.23117 0.012172 -0.0058459 0.33791 -0.20949 -0.026653 0.58238 -0.43764 0.04929 0.10634 -0.67223 -0.42099 0.31609 0.57282 -0.31656 -0.61991 -0.14145 0.80279 0.04661 0.086396 -0.084476 0.78022 -0.071785 0.15947 -0.35949 -0.41123 -0.84859 0.11218 0.17951 0.54818 -0.25725 -0.13081 -0.62435 0.87719 0.39561 0.040935 -0.0068539 0.078755 0.016998 0.21789 0.07079
carbon_dioxide||m.01s7k 0.17401 0.78792 -0.3562195 0.1347365 -0.40169 -0.695495 0.054517 -0.361425 1.009935 0.593765 0.073292 -0.395645 -0.720195 0.703785 0.092391 1.07271 -0.1833385 -0.23961 -0.41651 0.17829 0.551725 0.7879 -0.45479 -0.72945 0.67272 -0.41711 0.778965 0.52094 -0.173365 -0.0583 0.7578 0.631655 1.13432 -1.35075 -0.762085 -0.55316 0.0913085 0.08025865 -0.521655 0.190425 0.10609 0.093125 0.649845 0.013395 -0.605135 -0.68763 0.241685 0.1558075 -0.18445 1.5109
congress||m.07t31 -0.44249 -0.15018 -0.068068 -0.11366 -0.028972 0.37301 -0.97931 0.39049 0.18251 0.24169 -0.05209 0.30583 0.18629 -0.4264 -0.51905 0.97138 -0.10366 0.33534 0.063923 -0.69703 0.033088 0.1309 0.32734 0.31937 -0.00094063 0.099594 1.1232 0.31438 -0.26111 0.54047 0.87312 -0.31237 0.064202 0.085359 -0.5527 -0.56183 -0.19091 0.17883 -0.19402 0.062006 -0.48091 -0.83588 0.12222 -0.52102 0.1595 -0.6696 -1.1296 0.2886 0.29181 0.72381
executive_branch||m.02sdd 0.24052005 0.117125 -0.3179575 -0.167085 -0.306475 0.080805 -0.2204165 -0.002095 0.161621 0.057475 0.413815 0.28101 0.07447 -0.3281075 0.85058 0.748215 -0.407815 0.178047 -0.05679 -0.56211 -0.44054 -0.3564875 -0.32764 0.0400505 0.240755 0.11067535 0.2198015 0.0640755 0.04836535 0.60617 0.1422825 -0.048705 -0.2077885 -0.679155 -0.44824 -0.376345 0.14911 0.465025 -0.355655 0.664605 0.06604 -0.925115 0.25748 -0.1320935 0.546815 -0.00624765 0.2689835 0.461575 0.51481 -0.104865
action||m.02kdv5l 0.0277 -0.18739 -0.4572 -0.24461 -0.77782 0.074423 -0.60667 0.43479 0.25307 0.57813 0.1893 0.45428 -0.13307 -0.2063 -0.064403 0.6993 -0.43963 0.31846 0.40641 -1.2907 -0.33083 0.56873 0.11926 -0.22616 -0.2283 -0.26801 0.1992 0.62894 -0.30363 -0.12099 0.11682 -0.3856 0.25321 0.31869 -0.42304 -0.044439 -0.00082508 0.69876 -0.3141 -0.33678 -0.20757 -0.45273 0.30283 0.020662 0.20263 -0.06242 -0.18361 0.34279 0.40272 -0.040686
alternative||m.016clz 0.11574 0.28995 0.26538 -0.45983 -0.57912 0.25361 -0.59981 0.051018 0.19869 0.4327 -0.65417 0.57688 -0.4347 0.11453 0.26494 0.91887 -0.029437 -0.04421 -0.25296 -0.55364 0.062932 0.37169 0.24378 -0.065566 0.059464 -0.22901 0.12358 0.60296 0.45064 0.28422 0.055733 0.45294 0.18747 -0.87628 -0.20471 -0.076735 -0.077623 0.48754 -0.55759 0.30732 0.00083667 0.80386 0.45225 0.46499 0.33514 -0.27521 -0.13503 -0.29105 0.15329 0.15361
democrats||m.0d075m -0.36884 0.25884 0.17579 0.45353 0.16599 0.64623 -1.1905 0.14317 0.44159 0.48636 -0.17615 0.3314 0.25266 -0.19317 0.19687 1.2291 -0.32103 0.6038 0.40704 -1.0298 0.43982 -0.29605 -0.094562 -0.26017 0.17313 0.031662 0.63508 0.53925 -0.45412 0.3252 0.38653 -0.46847 0.24323 -0.44277 0.30305 -0.43213 -0.54863 0.019907 -0.64911 -0.37566 -0.71792 -0.073353 0.03981 -0.48934 0.38401 -1.3021 -1.3087 -0.23636 -0.42303 0.75669
depend||m.03mcm3 0.12972 -0.76605 0.1853 -0.25619 -0.62525 0.14855 -0.51421 -0.45183 0.15362 0.47773 -0.2696 0.6519 -0.19062 0.16661 0.19676 0.79809 -0.22624 0.91266 0.12318 -0.32348 -0.15305 0.094575 0.094902 -0.37489 -0.29799 0.61311 0.20078 0.27909 0.10954 -0.35666 0.61441 0.084937 -0.18457 -0.077336 -0.49159 -0.3768 0.60483 0.24515 -0.4349 0.7296 0.73767 0.21025 1.1092 -0.086544 0.10725 -0.26556 0.021821 0.05307 -0.13845 0.28049
days||m.02bbq -0.54977 0.075795 -0.32454 0.30109 0.35427 -0.064541 -0.47196 -0.022655 0.62813 0.2868 0.21187 0.4635 -0.28158 -0.23775 0.10903 0.43848 -0.11902 0.63963 -0.66355 0.2019 -0.20719 -0.19207 0.29355 -0.30624 -0.46138 0.05482 0.7767 0.77273 0.18803 0.11119 -0.17987 0.31251 -0.14239 0.10541 -0.28315 0.23945 0.025752 -0.28389 -0.3018 -0.0034503 0.00094967 -0.47279 0.49199 0.033168 0.2546 0.11827 0.054338 0.041962 0.090188 0.090288
joe_biden||m.012gx2 -0.56803 -0.156082 -0.04723 0.469535 -0.42314 0.8432 -0.65094 0.0704885 0.43414 -0.3346605 0.61233 -0.35069 -0.031055 0.164085 0.39854 0.132975 -0.623045 0.380005 0.2063 -1.30278 -0.371515 -0.68913 1.03055 -0.050955 -0.159065 0.001175 0.407945 -0.0508365 0.452195 -0.044069 0.55557 0.00972815 -0.0578545 -0.330045 -0.393935 -0.15045 0.77504 -0.47839 -0.452335 -0.11053 0.045045 -0.370435 -0.1856055 0.24642 0.778255 -0.359221 -0.39384 0.04004 -0.04433 0.4316725
organization||m.0qb7t 0.16019 0.32972 -0.87429 -0.20215 -0.40268 0.70671 -0.47906 0.24619 0.68011 -0.32106 -0.15245 0.038352 0.38961 -0.74847 -0.019501 0.741 -0.49843 -0.48288 -0.15189 -0.57225 -0.36517 0.13335 0.053777 0.19771 0.35726 -0.050398 0.42468 0.096604 0.20525 0.62788 -0.36718 -0.032862 -0.032902 0.12064 -0.48986 -0.75987 0.014706 0.81703 -0.72409 0.41089 0.31378 -0.22801 0.2558 0.12935 -0.041319 -0.41747 0.10998 0.13302 -0.38311 -0.50423
construction||m.01jnzj -0.39182 -0.18097 -0.13911 0.19726 -0.076116 -0.22591 -0.16819 0.36675 0.56192 0.28869 -0.29592 0.37315 -0.029558 -0.10676 0.37083 1.3003 -0.16404 -0.52581 -0.16717 -0.21675 -0.04801 -0.15528 -0.66367 -0.041925 -0.31413 -0.45613 1.0538 0.27357 0.57552 0.16487 0.31941 0.3724 0.34882 -0.043092 -0.21333 -0.36749 0.70639 0.55998 0.60788 0.48939 0.52925 0.43596 0.40952 0.35218 -0.20324 0.40815 0.17344 0.17667 -0.70004 0.41913
night||m.01d74z -0.49103 0.24745 -0.57341 0.31263 -0.37429 0.58693 -0.26646 -0.24012 0.40913 0.64703 0.24989 0.21349 -0.16865 0.30116 -0.43453 0.60653 0.2734 0.29273 -0.25771 -0.0085616 -0.45001 -0.48861 0.74237 -0.70915 -0.21502 -0.45465 0.064758 0.44851 0.14484 0.57855 -0.62339 -0.39653 0.26596 0.26769 -0.15539 -0.098842 0.81082 -0.34818 -0.1433 0.10917 0.22428 -0.40016 0.087538 0.33813 0.49478 -0.35063 0.21533 -0.39308 0.043112 0.14872
stock_market||m.0drqp 0.66829 -0.403155 -0.074745 0.287666 0.151982715 0.1868555 -0.445845 -0.471085 -0.010105 0.4845 0.0142 0.435945 -0.655025 -0.353775 0.15063726 0.1041925 0.39825 -0.241035 -0.32655 -0.515975 -0.412815 0.239595 -0.385205 -0.422665 0.21774 -0.479065 1.2515 0.337125 -0.436785 0.447555 0.261355 0.33339 -0.26822 -0.89009 0.141607 -0.56452 0.085875 -0.0971055 -0.19903 0.17252 0.1290785 -0.00926 0.929635 0.821135 0.46343 -0.0338075 0.031272 -0.07593 -0.43443 0.363835
plans||m.02q2rhf 0.10064 0.33493 -0.18217 0.45413 -0.48915 0.22245 -0.17468 0.25619 -0.20688 0.30226 -0.19161 0.67656 -0.60483 -0.07112 0.6342 0.75518 -0.42214 0.61645 0.14419 -0.52469 -0.51962 0.073996 -0.43232 0.12966 -0.22725 -0.1584 0.43155 0.20575 0.54504 0.7125 0.44978 -0.002851 0.52192 0.020885 -0.39441 -0.0055998 0.1514 0.35391 -0.034495 0.25728 -0.16535 0.14984 0.56425 0.33365 0.2984 -0.17023 0.41868 -0.37231 -0.24554 0.46986
pension||m.0by51 -0.54146 0.44961 -0.28023 0.70619 -0.27321 0.30851 -0.23245 -0.068996 -0.31752 0.051801 -0.32909 0.74177 -0.34388 -0.41278 0.36643 0.94028 -0.08736 0.3968 0.58705 -0.6965 0.73894 -0.057769 -0.59495 0.17298 0.3148 -0.74701 0.65388 0.69145 -0.85465 0.88181 1.2836 0.88384 -0.083028 -0.69348 -0.065876 -0.45934 0.088746 0.34933 0.092185 0.57488 0.46812 -0.12757 0.79964 -0.15929 -0.00933 -0.5166 -0.20921 -0.38512 -0.095095 0.32151
baby_boom_generation||m.0cpgf -0.268664 -0.108863333333 0.13039 0.175485 -0.456786666667 0.1625 0.119416666667 -0.492593333333 0.733346666667 0.5491 -0.0662733333333 -0.102003666667 -0.416273333333 0.089814 0.211856666667 0.0913833333333 -0.54835 0.19443 -0.378048666667 -0.3124975 -0.078932 0.537246666667 -0.09410362 0.0830566666667 -0.370008333333 -0.325826433333 0.925043333333 0.355310666667 0.244947666667 0.425429333333 -0.004197 0.315686666667 -0.42142 -0.393313333333 0.329162666667 -0.42395 -0.064339 -0.0568943333333 -0.0122116666667 0.349764333333 0.234193333333 0.189887666667 0.43141 0.139546666667 0.120846666667 -0.43593 0.28511 0.173356666667 -0.228601666667 0.34038
baby_boomers||m.0cpgf -0.58293 0.060992 -0.397915 0.53497 -0.426625 0.565645 0.2579425 -0.856265 0.803095 0.666345 -0.423745 -0.063986 -0.672625 0.022805 -0.0434475 -0.268735 -0.812465 0.87159 -0.63412 -0.92262 0.04768 0.362875 -0.432635 -0.22119 -0.60053 -0.407855 0.57385 0.163106 0.0731385 0.614985 -0.071989 0.694675 -0.53559 -0.23913 0.345025 -0.3528015 -0.575895 -0.080505 -0.371365 0.301705 0.36189 0.50938 0.39489 0.312155 0.70098 -0.699435 -0.000445 0.50902 -0.5085525 0.57595
day||m.02bbq -0.26044 -0.1409 -0.5177 0.35604 0.27261 -0.24733 -0.31605 -0.18502 0.58813 0.22758 0.14605 -0.067239 -0.18852 -0.1594 -0.085466 0.25548 0.11598 0.55846 -0.38137 0.072974 -0.29881 -0.15857 0.39376 -0.32431 -0.43904 -0.040378 0.77957 0.67489 0.028666 0.41503 -0.52317 -0.071983 0.029243 0.11621 -0.67714 -0.15777 0.11134 -0.12414 -0.32277 -0.0018164 0.46923 -0.39368 0.37776 0.38383 0.55219 -0.21808 0.099524 0.022421 0.082671 -0.23106
retirement||m.06lry -0.35381 -0.016904 -0.45556 0.67936 0.081715 0.15361 -0.049984 0.016805 -0.34019 -0.16518 -0.19857 0.27137 -0.22167 -0.021507 0.43683 0.47691 -0.47363 0.98149 0.57686 -0.61278 0.3636 -0.035304 -0.49353 0.28857 -0.3364 -0.39317 0.45287 0.79226 0.062695 0.61222 0.70209 0.83726 -0.39538 -0.43575 -0.34058 0.34085 0.42161 -0.08427 0.37225 0.24339 0.47587 -0.11441 0.75702 -0.24264 0.70392 -0.75399 0.37887 0.078232 -0.16995 0.050187
general_electric||m.03bnb -0.147995 -0.0939745 0.04095 0.252435 -0.22702 0.373055 0.38274 0.335995 0.042708 -0.424035 -0.0962505 0.5508085 -0.51071 0.00865 0.54609 0.7116 -0.137301 -0.0545035 -0.201475 -0.62356 -0.147905 -0.11648 0.4515225 -0.309875 -0.0912745 -0.489275 0.640125 0.1451 0.23435 0.2959605 0.38114 0.1979 0.041723 -0.7772 -0.209835 -0.704155 0.6669 -0.225595 -0.07447 0.794375 -0.2652725 -0.26561 0.0696145 0.2982545 -0.117492 -0.35806 0.15422532 0.485545 0.1592485 -0.067315
rose||m.06m11 -0.081304 -0.8414 -0.82469 0.96632 0.23496 -0.261 0.049786 -0.47704 0.065006 -0.038736 0.46378 0.062967 0.10683 0.37396 0.61971 0.33579 0.34665 -0.88249 -0.21073 -0.21244 -0.047651 -0.27211 0.52804 -0.93894 0.24267 -0.4096 0.88924 0.15564 0.53735 0.46707 0.41681 -0.52498 -0.31663 -0.55248 -0.49715 -0.78223 0.051462 -0.16316 0.16595 0.33034 0.15056 0.29974 1.2761 0.28791 0.73878 0.044233 0.027248 -0.2176 -0.16785 0.018553
south_korea||m.06qd3 -0.532265 0.0004675 -0.07185 -0.04458 -0.40949 0.731495 -0.613285 0.631835 0.56969 0.48732 0.167525 -0.2471555 -0.210615 0.029255 -0.14881 0.364545 -0.487205 -0.0469585 0.428835 -0.79349 -0.1277425 -0.10067 0.032176 -0.46293 -0.79307 0.2448145 1.2335 -0.708125 0.911845 -0.541065 0.69619 -0.160147 -0.3326665 0.12511 -0.366335 -0.465605 0.22876 -0.361725 -0.05761985 0.1130995 -0.2662335 -0.449475 0.38988 0.378165 0.014995 0.291135 0.279653 0.083715 -0.075605 0.06223
mta||m.021_5z -0.32474 0.45919 -0.48304 0.16853 -0.48933 0.18288 -0.21314 0.17752 0.26197 -0.26176 -0.68386 0.25689 -0.78018 -0.21066 0.74982 0.79428 -0.10352 0.38567 -0.18198 -0.39715 0.11113 -0.4222 -0.18451 -0.3327 -0.21728 0.15516 0.44422 -0.30474 -0.51204 0.56754 0.073303 0.11715 0.62652 -0.89927 -0.57688 0.16144 1.2679 0.35088 0.20162 0.77132 -0.2879 -0.46804 0.052859 -0.016802 0.49039 -0.34499 -0.29284 0.37977 -0.2129 0.59134
projects||m.0156dy -0.10588 0.13959 0.34156 -0.053776 -0.69635 0.1429 -0.46492 0.059401 0.69262 0.027482 -0.25938 0.25686 -0.47788 -0.28481 0.47231 1.18 -0.75801 -0.54739 -0.24535 0.072548 -0.27176 -0.10184 -0.85418 0.10412 -0.13427 -0.4014 0.55415 0.66406 0.37753 0.024176 0.40149 0.51608 0.34073 0.19799 -0.35274 0.033843 0.53673 0.75649 -0.02633 0.55937 0.43738 0.028552 0.62885 0.18333 -0.18245 -0.2076 -0.1798 -0.41557 -0.14293 0.72214
federal_government||m.01bqks -0.136915 0.23184 -0.301885 -0.285465 0.181644 -0.01474 -0.235725 0.103775 -0.10697 0.42096 -0.06548 0.50891 0.08622 -0.338755 0.022535 1.019705 -0.21243 0.13515 0.183929 -0.48592 -0.47838 0.085675 0.142725 -0.20398 -0.163925 -0.23051 0.780925 0.31772 -0.2099585 0.34939 1.0839 0.283618 0.202297 -0.2482 -0.33018 -0.495665 0.263195 0.398985 0.254748 -0.1368286 0.052075 -0.332225 0.485915 -0.2339985 -0.201435 -0.307245 -0.21053 -0.204575 -0.2637 0.3559575
chief_executive||m.0dq_5 -0.04498995 -0.240295 -0.428175 0.062115 -0.26554 -0.132505 -0.02389095 -0.2669 0.33586 -0.19103 0.477985 0.346685 -0.15339957 -0.545955 1.4125 0.512535 -0.49169 0.288355 0.293965 -0.840515 -0.765515 -0.1516575 -0.0982135 -0.033785 0.57345 -0.06472965 0.001352 0.0127735 0.218974 0.3308 0.1524025 0.0753 -0.1080535 -0.99843 -0.60766 -0.258955 0.101535 0.036775 -0.270871 0.515495 0.1076685 -0.779565 0.289245 -0.352485 0.70979 0.09853005 0.55499 0.437275 0.34845 -0.022605
tonnes||m.07ny7 -1.0068 0.29104 -0.065806 0.47726 -0.0039304 -0.36338 -0.38723 0.21543 0.94268 0.27737 0.44423 -0.12763 -0.57571 0.11384 0.23613 0.012797 0.00046365 -0.96416 -1.4463 0.30512 -0.39483 0.22406 -0.6112 -0.68724 0.42431 0.10766 1.9843 0.30426 0.45266 -0.42121 1.0033 -0.41819 1.5067 -1.2359 -0.99354 0.26652 -0.29543 0.18302 -0.52815 1.0942 0.34249 -0.24414 1.5763 0.28043 -0.75306 0.022408 0.31842 0.34332 -0.65995 0.10647
the_delays||m.0557_6 -0.234077 -0.007885 -0.543135 0.1166125 -0.028135 0.17826 -0.32125 0.1508885 0.448335 0.238695 -0.3827605 0.584773 -0.12544 -0.1308805 0.193665 0.557265 -0.13696 0.28279 0.0898315 -0.141525485 -0.0668115 0.04185 0.1635265 -0.28874 -0.491745 -0.244775 0.487355 0.4412985 -0.159924 -0.08781 0.2194815 0.06166 0.1576575 -0.19755705 -0.405675 0.016655 0.449505 -0.04608235 -0.18225 0.0213255 0.035575 -0.18652 0.44506 0.117665 0.01533 0.180033 0.050135 -0.1225835 0.0899135 0.5631
project||m.0156dy -0.0088862 0.13915 -0.2151 -0.23054 -0.58914 0.0032216 -0.63783 0.58836 0.57002 0.23718 -0.22465 -0.41397 -0.52672 -0.32958 0.68178 1.1083 -0.56055 -0.54304 0.11123 -0.12534 -0.34068 0.16031 -0.48758 0.10933 -0.03085 -0.20231 0.36989 0.24201 0.2032 0.38391 0.18744 0.19227 0.40564 0.32991 -0.27588 0.12252 0.16052 0.5353 -0.047361 0.49793 0.60334 0.044684 0.19639 0.14307 -0.27405 -0.44321 0.21202 -0.055232 -0.10317 0.38187
acres||m.0t8t -0.12382 0.77852 -0.012436 1.3636 0.11889 -0.116 -0.77716 -0.10804 0.91007 0.26697 0.0052949 -0.55308 -0.28952 0.94132 0.81474 0.39245 0.23427 0.033812 -0.43898 0.21599 0.32862 -0.94949 -0.61802 -0.6738 0.088271 0.21195 1.175 0.43205 0.047721 -0.031743 1.3602 -0.22405 0.65385 0.62894 0.16133 -0.016829 0.23704 0.83318 0.10854 0.98149 0.60222 -0.46245 1.0256 -0.027642 -0.15309 -0.58829 0.38853 0.41308 -1.0115 0.7898
chairman||m.09d6p2 0.44561 -0.6168 -0.29889 0.068932 -0.49074 0.2227 -0.69728 -0.57065 -0.15462 0.33763 0.55928 0.55857 -0.16829 -0.17082 1.4412 0.95653 -0.39239 0.004926 0.49585 -0.54564 -0.42189 -0.58683 0.23946 0.45849 0.99041 0.05632 0.44168 -0.0073865 -0.029075 0.64603 0.12504 0.24469 0.081141 -1.0095 -0.89973 -0.17396 -0.22926 -0.37792 -0.028756 0.68459 -0.13854 -1.0738 0.4791 -0.7644 0.8451 -0.27095 0.19452 0.49363 -0.018394 0.023497
prison||m.0d1w9 -1.8085 0.46576 -0.38395 -0.55393 0.55656 0.16214 -0.87636 -0.21977 0.61315 0.73218 0.45607 0.034146 -0.089302 -0.37383 0.17381 0.11146 0.40483 0.062262 -0.22702 0.55545 -0.0068557 -0.17384 0.4104 -0.066112 -0.12539 0.23649 0.99419 0.73436 0.9084 0.51716 1.0131 0.67853 0.29471 -0.28517 -0.24102 -0.23615 0.22227 0.62854 0.26851 -0.35558 -0.21809 -0.77537 0.14908 -0.20801 0.18448 -0.37428 0.26265 -0.31109 0.20863 -0.039155
portland||m.02frhbc -0.12388 0.43953 -0.44028 0.45198 0.81738 0.38702 0.14795 0.20834 0.68897 -0.04563 -0.021764 0.43573 0.34286 0.41969 0.5435 0.75217 -0.33899 -0.16209 0.38613 -0.1737 -0.14742 0.021174 0.34837 -1.2082 -0.11557 0.27539 0.62263 -0.4438 0.25202 0.55149 -0.56041 -0.11012 0.28015 -0.14505 0.63872 -0.22334 0.31022 0.43344 -0.3725 0.61688 0.66133 -0.50496 -0.41347 0.64691 0.17052 -0.1862 0.21814 -0.48952 -0.42622 0.6366
correctional_facility||m.0d1w9 -0.903355 0.44535 -0.5788 -0.441245 0.41197 0.457775 -0.656365 -0.063455 0.186264 0.43322 -0.3768 0.459675 -0.21314 0.208665 0.395515 0.599825 0.176719 -0.426745 -0.21176 -0.01383 0.098055 -0.607275 -0.15362 -0.0780695 -0.206797 0.112733 0.469755 -0.080458 0.73663 0.73049 0.467065 0.312575 0.19356 -0.27105 -0.28992 -0.11899 0.57912 1.02266 0.136859 0.004824 0.0559219 -1.08883 0.185509 0.2216465 0.010345 -0.197255 0.657895 0.22767 -0.25714 0.017617
sheriff||m.0mb31 -1.3327 0.041197 -0.0055338 -0.11996 -0.058898 -0.092857 -0.15488 0.080656 0.94017 0.37623 0.22336 0.15121 0.72689 0.40485 1.0793 0.090873 -0.23848 0.7593 0.18561 -0.061158 -0.55979 -0.64394 0.65365 -1.0385 0.28851 0.068484 0.36176 -0.10297 -0.63558 1.1342 0.78931 0.31657 0.97534 -0.16174 0.54054 -0.42411 0.93191 0.73623 -0.019231 0.090449 0.39187 -1.3043 -0.19779 -0.14525 0.48621 -0.11453 0.15551 0.87701 -0.10712 0.66537
telecommunications||m.029g_vk -0.086021 0.12277 0.21558 0.031301 -0.020856 -0.022395 -0.22763 -0.35077 0.13654 0.078861 -0.42189 -0.096882 0.12868 -0.45395 0.28956 1.1645 -0.34056 -0.42198 1.2133 -0.090187 -0.45372 -0.089092 -0.072002 -0.01624 0.51142 0.15547 1.232 0.3178 0.36645 0.34339 0.041692 0.26467 -0.087225 -1.3902 -0.40873 -0.82288 0.13807 0.417 0.018298 0.85612 -0.59289 -0.31793 1.0105 0.25784 -0.1755 0.04523 0.32219 -0.2952 0.33257 0.77627
times||m.09rkd -0.15144 0.34989 -0.46179 0.38264 0.47695 -0.064614 -0.14252 -0.10348 0.64035 -0.078456 0.53363 0.29055 -0.14352 -0.51595 -0.071563 0.53701 -0.34954 0.25774 -0.4316 0.10614 -0.10937 -0.0038339 -0.018795 -0.63555 -0.44489 -0.37264 0.72128 -0.29858 -0.47451 -0.038014 0.0097275 0.36784 -0.66382 -0.256 -0.11021 0.52375 0.033114 0.0036383 -0.53131 -0.051232 -0.031713 -0.14244 0.19292 0.067699 0.33039 -0.1495 0.14657 -0.28769 0.11823 0.32316
foreign_direct_investment||m.02n7nb -0.0598616666667 0.0284033333333 0.218863333333 0.256416666667 -0.33296 -0.0148856666667 -0.29644 0.0240433333333 0.309382666667 0.076508 0.0472876666667 0.0333533333333 -0.20782 -0.52326 0.00203933333333 0.66267 -0.445313333333 -0.0438643333333 0.204391666667 -0.584463333333 -0.503883333333 0.0778506666667 -0.193046066667 0.0915358666667 -0.036961 -0.122730666667 0.44829 0.119833039333 0.165204 -0.152076666667 0.45592 0.413113333333 0.174863333333 -0.74127 -0.170267666667 -0.389833333333 0.311846666667 0.285266666667 -0.165583 -0.04881 0.181323333333 0.0186686666667 1.28852 0.134823666667 0.33979 0.151657666667 -0.033292 -0.10423 0.297391 0.0821785
location||m.078x4m 0.20452 0.14267 0.091666 -0.20943 -0.063972 0.17688 -0.9684 -0.034808 0.33309 0.22083 0.11123 0.12554 -0.1376 -0.043884 0.058839 0.57763 0.30484 0.056123 -0.29086 -0.01391 -0.25033 -0.22414 -0.23945 -0.50838 -0.73568 0.71912 0.26979 -0.11587 0.0045732 0.36773 0.01776 0.021585 0.30253 -0.20656 -0.10025 0.27813 1.0893 0.44489 -0.040662 0.18774 0.45872 0.0016518 0.52478 0.45425 0.30271 -0.43777 0.87657 0.51837 0.22064 0.26051
general||m.0130xz -0.1692 -0.28429 -0.26621 0.14595 0.2919 0.34379 0.228 0.4025 -0.081494 -0.64221 -0.057401 1.1218 -0.19829 -0.5612 0.54698 0.59387 -0.35419 0.082483 -0.13278 -0.947 -0.46426 -0.37838 0.80395 -0.22491 -0.12875 -0.17898 0.59417 0.13446 0.37078 0.032371 0.46672 -0.10527 0.16726 -0.63985 -0.30519 -0.7347 0.47655 -0.18597 -0.26029 0.68803 0.043325 -0.38414 0.032669 0.098729 0.010756 -0.52947 -0.00056936 0.83501 0.26492 -0.70211
champions_league||m.0c1q0 0.1369275 0.06851 -0.082402 0.61234 -0.134218 0.81815 -0.772095 -0.2084795 0.0945055 0.35177 0.07903 0.546355 0.34246 -0.55455 -0.87811 0.09553 -0.463665 0.0524985 0.41494 -0.23038 0.115539 0.198915 0.0712705 -0.74859 0.645955 -0.710885 1.1385 0.447005 0.232375 -0.2576225 -0.268465 -0.19393 0.15841 -0.0718585 -0.42708 0.303835 0.888795 0.020655 -0.506275 0.50275 0.374885 -0.30697 -0.047925 -0.23139 0.813575 -0.1364175 0.517885 -0.172565 -0.00899 -0.48008
fall||m.0134l 0.25466 -0.003862 -0.68275 -0.26394 0.30609 -0.25564 -0.17185 0.070155 0.22968 0.77958 0.68918 0.45462 0.072103 0.36291 0.1782 0.20295 -0.067844 0.19223 -0.39001 -0.31838 -0.041496 0.58876 -0.11682 -0.47888 -0.0016227 -0.16753 0.84392 0.32111 0.16243 0.58267 0.2384 -0.63207 -0.34043 -0.10915 -0.39363 -0.0053571 -0.086075 -0.18603 -0.0030126 -0.0059927 0.24176 -0.16862 0.54741 0.026849 0.46916 -0.25437 -0.15594 -0.041183 0.051281 0.29354
midfielder||m.02nzb8 -1.0463 -0.96044 0.48712 0.89535 -0.03608 0.49413 -0.92933 -0.27986 0.65081 0.06605 -0.016298 0.71677 0.79404 0.25575 -0.80677 0.48676 -0.23332 -0.38357 0.73695 -0.61251 -0.84069 0.57161 -0.035376 -0.6733 1.0564 -0.36517 1.0892 0.26278 -0.056754 -0.21326 0.16327 0.51673 0.76825 -0.67942 0.2472 1.0692 0.67814 0.21678 -0.15879 0.23637 0.6957 0.10729 -0.5088 -0.24088 0.66135 -0.15229 0.8136 -0.4439 0.62902 -0.44602
news_conference||m.01s8fx -0.188986 0.36287 -0.2002615 -0.031895 -0.185105 0.16886 -0.286386 -0.46842 0.38382 0.223245 -0.1293395 0.351175 -0.169185 -0.580025 -0.024025 0.615795 -0.247594 0.43211 0.347015 -0.62194 -0.86316 -0.894365 0.37803 -0.246868 0.1874035 -0.57285 0.41478 -0.33056 0.17415 0.326475 -0.342804 -0.33515 0.079975 0.016521 -0.17612 0.110056 0.253365 -0.477885 -0.73771 0.083197 0.1705275 -0.72063 0.910395 0.2733695 0.154918 -0.22951 0.613915 -0.08680225 -0.276535 -0.001585
borussia_dortmund||m.01w_d6 -0.34366 0.38169 0.18549 1.1986 0.47179 0.666795 -0.792905 -0.341215 1.06155 0.669115 0.032155 1.2649 -0.00329 0.0915835 -1.446 0.22677 0.353975 -0.0744275 1.010005 -0.298625 -0.0840175 1.1686 -0.278285 -1.1783 1.2793 -0.636435 1.23015 0.28096 -0.0487505 0.05498855 0.1517205 -0.0478745 0.376695 -0.56737 0.189007 0.470875 0.932075 -1.14185 -0.60254 0.510835 0.0505595 0.34229 -0.47974 -0.31658 0.87093 -0.335875 0.1451615 -0.210205 0.19586 -0.029705
dortmund||m.01w_d6 -0.29957 0.37367 0.12502 1.2066 0.57557 0.38201 -0.77678 -0.25103 1.1002 0.6607 -0.11331 1.0073 -0.071514 0.073847 -1.3511 0.24311 0.3281 -0.026945 0.85641 -0.26714 -0.037185 1.1297 -0.33602 -1.0141 1.3703 -0.7406 1.2094 0.3566 -0.039379 0.1175 0.23469 -0.029382 0.35319 -0.63153 0.33666 0.41737 1.0572 -1.0522 -0.73275 0.54475 -0.024801 0.30177 -0.43064 -0.4033 0.76637 -0.24718 0.2102 -0.27609 0.22081 -0.14527
striker||m.02sdk9v -1.0287 -0.7966 0.45082 0.85899 -0.23724 0.69858 -0.9087 -0.1778 0.96472 0.29225 -0.038982 0.54341 0.88166 0.021513 -0.95591 0.19278 -0.53444 -0.22812 0.52881 -0.4243 -0.64347 0.61781 -0.22614 -0.66454 0.97071 -0.072693 1.0807 0.15555 0.15312 -0.21084 0.30484 0.16421 0.80602 -0.74138 0.23308 0.94984 0.65965 0.13231 -0.15352 0.28181 0.6968 0.31328 -0.35598 -0.11132 0.58829 -0.14717 0.78183 -0.41497 0.89804 -0.40884
king||m.04syw -0.21301 -0.36634 -0.10641 0.57735 -0.52298 0.66109 -0.11108 0.17112 0.082844 0.37608 -0.3634 -0.025241 -0.17403 0.052006 0.14963 0.28705 -0.57673 0.079943 -0.07312 -0.3687 -0.4791 -0.13376 0.57719 -0.11924 -0.12469 -0.061243 0.81675 -0.27684 0.18543 0.026621 0.38721 -0.3517 -0.1952 0.075785 0.56091 -0.39288 0.55667 -0.31691 0.074432 0.46085 0.23961 -0.32438 0.14446 -0.69588 1.0474 0.0013904 -0.28443 0.49559 1.0142 -0.40611
television||m.07c52 -0.57956 0.097131 0.13553 -0.40325 -0.13799 -0.0048844 0.33646 -0.3662 0.52623 0.37264 0.1082 0.01666 0.025429 -0.31924 -0.68017 0.90416 -0.641 0.081245 0.070907 -0.52154 -0.45498 -0.5438 0.42991 -0.31101 0.10559 -0.40927 0.1077 0.16923 0.13818 0.40371 -0.076351 -0.2604 -0.45807 -0.24741 0.19608 0.27705 0.42122 -0.033829 -0.1015 0.86946 -0.38027 -0.032704 0.78433 0.54137 0.2322 -0.83104 0.58274 -0.042999 0.63182 0.60366
real_mallorca||m.01vqc7 -0.4021504 0.2352645 0.553395 0.44169 0.0662775 0.106605 -0.94179 -0.217245 0.358295 0.745745 -0.1412925 0.28641 -0.02338 -0.081325 -0.701955 0.253971 -0.11439 -0.20057 0.533295 -0.136775 -0.348675 0.281975 0.649945 -0.48169 -0.396145 -0.34254 0.463015 0.29406065 -0.12487635 0.095265 0.301885 0.344605 -0.084772 -0.38469 0.2251575 0.410347 0.8181 -0.24701 0.00573 0.475885 1.126395 0.52015 0.1328869 -6e-05 0.485225 -0.13094 0.325937 -0.25478 0.014115 -0.120908
ap||m.0cv_2 -0.7899 0.074862 -0.13253 0.74138 -0.40245 0.46194 0.16187 -0.37775 -0.081749 0.42915 0.3461 1.1023 0.62775 -0.4937 0.32525 1.2275 -0.58968 -0.58166 0.059612 0.14976 -0.94578 0.037189 0.84496 -0.72306 -0.32196 -0.10052 0.28592 -0.44803 0.19417 0.020303 0.48156 0.1601 -0.2137 -0.037307 -0.28794 -0.51985 -1.1093 0.00097659 -0.23892 0.4989 0.33857 -0.92832 -0.043548 0.79096 0.35663 -0.18772 1.1525 -0.5653 -0.27477 0.17677
unemployment_benefits||m.0218w7 -0.58041 -0.366255 -0.64486 0.5063785 0.1383545 -0.0895505 -0.122712 -0.456805 0.2820315 0.1589095 -0.293865 0.573255 0.26265 -0.20689 -0.108042 0.3926 -0.2154965 0.1473345 -0.080225 -1.191445 0.464865 0.25669 -0.351915 -0.318465 -0.058715 -0.526593 0.7365 0.52364 0.158305 0.54063 1.25605 -0.0436 0.095115 -0.204743 0.06281 -0.480775 0.068467 0.53955 0.071566 -0.210244 0.78754 0.11564 0.90415 -0.085275 -0.0774045 -0.89282 -0.088537 -0.31294 -0.803615 0.46876
education||m.02jfc 0.1997 -0.19223 0.026516 -0.12385 0.027099 0.082372 0.13439 -0.45427 0.6732 -0.52419 -0.64535 0.1427 -0.31327 -0.11829 0.12944 0.92806 -0.28745 -0.37689 0.76486 -0.60135 0.17151 0.034587 -0.25058 -0.10115 0.066658 -0.25757 0.70916 0.33161 0.29672 0.91701 0.36512 0.47833 -0.269 -0.075547 -0.43045 -0.50042 0.28835 0.90615 -0.30397 -0.35602 0.23856 -0.60133 0.62051 -0.51969 0.5758 -0.93242 -0.29663 -0.22593 -0.42341 0.070439
glaxosmithkline||m.01bbm7 0.38991 0.47764 -0.91168 0.74379 -0.11878 0.3764 -0.41765 -0.29903 1.0721 1.2268 -0.14085 0.60475 -1.1068 -0.8136 -0.19152 0.25666 -1.1565 -0.94837 0.74455 -0.14769 -0.59329 0.063871 -0.82676 -1.1367 0.33873 -0.15345 0.69424 0.51427 0.046992 0.91294 0.91641 0.56876 0.07761 -0.98371 -0.88254 -0.45106 0.21338 0.49975 -0.4527 0.050216 -1.1404 0.31474 0.10279 0.81106 -0.22168 0.72144 -0.47027 0.062452 0.32404 0.080183
travel_agencies||m.02ty15 -0.08741 0.211695 -0.03096 0.047115 -0.27391 0.488285 -0.289155 -0.293965 0.58738 -0.140078 -0.062343 0.74472 0.312275 -0.426265 -0.28288 0.607415 -0.41819 0.379535 0.0368661 -0.419095 -0.501185 0.01575 -0.091195 -0.040074 -0.28646 0.3427795 0.476175 -0.0259545 -0.056955 0.192785 0.555855 0.206845 -0.2052105 -0.284355 -0.77358 0.149641 0.33967 0.818555 -0.1972 0.12611 -0.112385 -0.309015 0.608625 0.294256 0.3091855 0.034665 0.071835 -0.21296 -0.1000715 0.54149
xinhua_news_agency||m.01n13b -0.323083333333 0.268516 -0.743436666667 -0.52395 -0.269914333333 0.271273333333 0.152506 -0.303326 0.603136666667 0.204023333333 -0.26105 0.0375 0.093028 -0.601013333333 -0.129694 0.65834 -0.383729333333 -0.10676 0.100593266667 -0.259122 -0.974013333333 -0.53727 -0.0538633333333 -0.472599666667 -0.300641 -0.200147666667 0.61568 -0.530653333333 -0.0805633333333 0.500456666667 0.621160666667 0.160226 0.149203333333 -0.211466 -0.593946666667 0.04508 0.41444 -0.0839866666667 -0.799716666667 0.0486533333333 -0.079744 -0.350154666667 0.761123333333 0.0756083333333 0.174570766667 -0.102643333333 0.365243333333 0.0332608333333 -0.32365 0.384606666667
drugs||m.02kjb_ -0.21038 0.43107 -0.34605 -0.07979 -0.43411 0.44999 -0.61096 -0.64942 0.60304 0.53454 -0.31016 0.20694 -0.44642 0.068787 -0.45362 -0.45016 -1.1602 -0.66689 -0.30069 -0.26803 0.045678 0.55405 0.69553 -0.68518 0.11066 -0.11051 0.69137 0.72261 0.36527 0.40988 0.71779 0.41065 -0.2198 -0.70205 -0.20369 -0.29561 0.86978 0.87109 -0.67863 -0.23276 -0.63949 0.30867 -0.070945 0.23827 -0.43879 0.097204 -0.02146 0.22293 -0.23917 0.20385
drug||m.02kjb_ -0.067912 0.3247 -0.46323 -0.36234 -0.30895 0.47717 -0.67331 -0.74423 0.66501 0.53069 -0.2202 0.12649 -0.11597 -0.29808 -0.14477 -0.13933 -1.0786 -0.56366 0.021869 -0.23947 0.028205 0.60984 0.94582 -0.49397 0.19064 0.03852 0.63268 1.0121 0.4733 0.71663 0.9839 0.02367 0.090716 -0.53572 -0.36352 -0.45176 0.85613 0.7081 -0.45383 -0.2125 -0.34884 0.10837 -0.42465 0.18487 -0.25756 0.41557 -0.2092 0.17269 -0.28817 0.11829
xinhua||m.01n13b -0.75351 0.63778 -1.0142 -1.0362 -0.52897 0.40057 0.26537 -0.33356 0.68199 0.49454 -0.1153 -0.51436 -0.032146 -0.55099 0.027678 0.38328 -0.060938 -0.23178 -0.0091202 -0.064136 -0.85607 -0.3776 -0.21594 -1.2662 -0.69171 -0.049671 0.88468 -0.76477 0.33533 0.59039 1.114 0.64004 0.2231 -0.13751 -0.87928 -0.32533 0.64966 -0.52237 -1.2359 -0.1467 -0.21644 -0.081654 0.88203 -0.25099 0.26761 0.16 0.26119 0.098117 -0.48455 0.49903
record_producer||m.0dz3r 0.154626 -0.471125 -0.45949 0.105781515 -0.139646 0.031835 0.1841 -0.37468 0.46895 0.518325 0.429385 -0.4164775 -0.065285 -0.273165 0.15465 0.257485925 -0.646115 -0.35173 -0.4626375 0.036035 -0.101195 -0.019215 0.206516 -0.3031455 0.2506165 -0.526385 0.82713 -0.172265 -0.01712 0.30322 -0.008067 -0.20354 0.30856 -0.4817165 -0.1199495 -0.164458 0.2116115 0.26634 -0.201285 0.482605 0.41543 -0.279426 0.70266 0.136195 0.278214 -0.320905 0.319185 -0.399925 0.067385 0.065188
injury||m.02kh4w -0.82603 -0.95298 -1.1856 0.50894 0.28667 0.64541 -0.79168 0.05977 -0.020875 0.78 0.43631 0.77385 0.31058 0.20006 -0.60109 0.062304 -0.75506 0.27185 0.28162 -0.087464 -0.2604 0.61893 -0.16809 -1.0775 0.17402 -0.39812 0.041458 0.70991 -0.13767 0.036581 -0.077881 0.49841 -0.0090735 -0.098351 0.068136 0.54576 0.64559 0.0092006 -0.62045 -0.099443 0.55819 -0.09937 0.13476 -0.22428 0.12612 -0.12765 0.81752 0.73025 -0.16344 0.41326
chinese||m.01r2l 0.1516 0.49129 0.12997 -0.17265 -0.1589 0.58661 -0.052564 -0.24233 0.77204 0.89317 0.06065 -0.56729 -0.030195 -0.66953 0.23875 0.2602 0.061709 0.067546 0.63006 -0.42922 -0.11779 0.18647 -0.1977 -0.46051 -0.7896 0.095872 0.95935 -0.45831 0.57119 0.10925 0.52096 0.53661 -0.17094 -0.0082795 -0.52385 -0.51076 0.41831 -0.47234 -0.075804 0.16296 -0.42985 0.28786 0.85555 0.43476 -0.11021 0.34256 -0.14785 -0.13819 -0.019001 0.32431
hectares||m.09ppg -0.41974 1.3091 -0.042677 1.5005 -0.069882 0.0060961 -0.73123 0.37387 0.61941 0.095514 -0.16374 -0.38557 0.13393 0.40483 0.50247 0.50986 0.33833 -0.58765 -0.42805 0.15177 0.043703 -0.35717 -0.82712 -1.186 0.18262 0.012323 0.96207 0.49179 0.35803 -0.33935 1.9016 -0.095815 0.85144 0.35685 0.07994 -0.19057 -0.42505 0.87924 -0.34113 1.0743 0.49854 0.030263 1.2793 0.068986 -0.24714 -0.52533 0.39703 0.044023 -0.81706 0.45186
property_developer||m.028sdw 0.006845 0.32826 0.0266395 0.421895 0.041675 0.12369 -0.722065 0.066957 0.326195 0.622875 -0.155377 0.0575425 -0.34688 -0.507895 0.63903 0.409125 -0.39036 -0.65088 0.28211 -0.029625 -0.353945 0.16199 -0.212295 0.044001 0.147838 0.0398665 0.579615 0.044515 -0.18977 0.4036 0.50532 0.1577 -0.1982615 -0.1577655 0.297936 -0.09103 0.687325 0.646835 0.30648 0.461355 0.593205 0.272505 0.2764 0.202617 0.216055 0.0787505 0.20025 0.422675 -0.511825 0.4254
natural_resources||m.05fsp 0.519915 -0.010837 -0.119234 -0.052545 -0.35124 0.15741 -0.128555 -0.046954 0.71506 0.45366 -0.0691527 -0.1496775 -0.42225 0.59304 0.426365 0.538185 -0.327875 -0.314735 0.2388865 -0.034595 -0.2025745 -0.080645 -0.193084 0.03652 0.044065 0.20638 0.423595 0.229575 -0.066744 0.006952 0.32422 0.3875 0.299152 -0.386215 -0.45927 -0.681165 0.646345 0.56581 -0.4879 0.289625 0.455115 -0.25914 0.86893 -0.027701 -0.380345 -0.602375 0.16172 -0.255605 -0.087598 0.1253845
heritage_foundation||m.01tw7q 0.39615 0.414305 -0.237745 -0.017295 -0.551355 0.586825 -0.869315 -0.233795 0.360585 -0.106175 0.16241975 -0.0267715 0.23817 -0.02171 0.2774395 0.730045 -0.53861 -0.2788645 0.38242 -0.1310455 -0.2600035 0.0851428 -0.200195 0.24632 0.1670805 -0.251975 0.54804 -0.311124 0.0847515 0.71618 0.09346515 -0.3246085 -0.203796 0.643275 -0.167529 -0.667615 -0.0890845 0.61417 -0.259005 0.59771 0.67591 -0.18136 0.367215 -0.18566 0.17889 -0.533975 -0.01083445 0.31858 0.11663 -0.208925
credit_suisse||m.03g776 -0.506535 0.0746 -0.419475 0.2569025 -0.040665 0.18818 -0.93914 -0.231465 -0.591445 0.106547 -0.0912175 0.715285 -0.078275 -0.60561 -0.058085 -0.00574 -0.293085 -0.1399635 0.23271 -0.636085 -0.59494 0.1926315 -0.701875 -0.5127 0.317395 -0.934555 0.833265 -0.457945 0.02758 0.35989 0.99204 0.3125355 -0.41539 -0.97984 0.0064465 -0.31747 0.49846 0.423805 -0.0297095 0.227951 0.022035 -0.056908 0.856755 0.726735 0.32579 0.1794715 -0.904665 0.2498675 0.276207 -0.1422305
laws||m.04gb7 -0.50994 0.55111 -0.30107 -0.11283 -0.67148 -0.65921 -0.49655 -0.14549 0.42461 0.16006 0.20354 0.93483 0.18903 -0.47953 -0.13758 0.72835 -0.36376 0.20918 0.77568 -0.7081 0.72157 0.43512 0.51527 -0.019024 -0.06014 0.39601 1.4207 0.085766 -0.18667 0.2735 0.45382 0.24009 -0.023131 -0.6429 0.072688 -0.63915 -0.13023 1.0977 -0.085068 -0.1928 -0.29597 -0.55097 -0.19677 -0.49605 -0.10816 -0.25273 -0.006863 -0.1086 -0.25169 0.67888
arrangement||m.0z9w 0.19368 0.026689 -0.39478 0.28911 -0.67523 0.16621 -0.95964 -0.15724 0.2911 0.13921 -0.2997 0.30823 -0.45204 -0.57735 0.076628 0.86428 0.11723 0.65551 -0.17163 0.1051 -0.15506 -0.32164 0.21584 0.56568 0.17089 -0.18255 0.38866 0.11459 0.64608 0.11027 0.77233 0.38059 0.0095137 -0.42158 0.045076 0.38353 0.42618 0.66478 -0.23937 0.3437 -0.027628 0.44993 0.18687 -0.4207 0.40071 -0.027857 0.072825 0.013362 0.28021 0.24522
communications||m.01lhf 0.17785 0.34581 -0.38714 0.073081 -0.24081 0.18929 -0.4619 -0.13589 0.18648 -0.86791 -0.14741 0.26968 -0.065894 0.18486 0.37085 0.85744 -0.49984 -0.32983 0.90382 -0.43254 -1.1126 -0.051637 0.13166 -0.10994 0.12744 0.56585 0.31872 -0.00045643 0.01098 0.12699 0.1593 0.15885 -0.035537 -0.82905 -0.036159 -0.17751 0.63097 0.4176 -0.11122 0.26809 -0.72192 -0.49662 0.97316 0.064532 -0.0085369 -0.09864 0.2181 -0.0069808 0.48751 0.60761
alec_baldwin||m.018ygt -0.759905 -0.35746 0.200505 0.096325 0.235975 0.532785 -0.27852 -0.02752 0.2200245 0.372985 0.256485 -0.047615 -0.031925 0.04707 0.43431 0.183105 -0.681035 0.4468 -0.2282905 -0.5555 -0.40935 0.02181 0.4468 -0.58696 0.054876 -0.545075 0.016737 -0.67887 -0.030912 0.186715 0.16441 0.57709 -0.0605925 -0.3620865 0.77269 0.563835 0.02420525 0.386545 0.0934465 0.0779595 -0.054422 -0.59821 0.47851 0.409775 1.01619 -0.506985 -0.639585 -0.113893 0.564285 0.433525
los_angeles||m.030qb3t 0.041491 0.736575 -0.507425 0.79845 0.368415 0.715875 0.529165 0.330805 0.742925 0.217305 0.387285 0.296645 0.0772875 -0.33781 0.49383 0.8184 -0.0228495 0.1005915 0.19756 0.010256 -0.141085 0.14234 0.99445 -1.0966 0.191985 -0.57458 -0.14763 0.48579 0.15014 0.444055 -0.141695 0.5102 -0.049353 -0.17532 0.490065 -0.115185 0.55888 0.4628 0.423055 0.68009 0.761775 -0.558675 0.32366 0.643795 0.41253 0.05337861 0.469385 -0.46755 0.244815 0.759135
bipolar||m.01g2q -0.54488 -0.23534 -1.502 0.37392 -0.14487 0.72325 -0.91235 -0.75286 0.50958 0.78217 -0.29404 0.11358 0.17436 0.23798 -0.22781 -0.094819 -1.0258 -0.68951 -0.022039 0.48001 -0.02556 0.016672 0.39324 -0.45673 0.57123 -0.18076 -0.31972 0.64319 0.62911 1.0076 0.89215 1.1442 -0.45354 -0.5578 0.64221 0.18717 -0.020374 0.56162 -0.69201 -0.74221 -0.10015 -0.16554 0.37856 -0.19455 0.51725 -0.87093 -0.18367 0.2298 0.7137 0.35672
black||m.0x67 -0.28244 0.76412 -0.17982 0.013337 -0.15335 0.20588 -0.044185 -0.57264 0.068036 0.11351 0.67004 -0.1855 0.54691 0.39444 0.77443 -0.13039 0.09306 -0.0012371 -0.49038 -0.85435 0.31785 0.19307 0.35916 -0.61813 -0.17609 -0.55387 0.67577 0.10351 0.15284 0.15103 0.34345 0.26262 0.17537 0.29012 -0.039595 -1.0227 0.33561 -0.076629 -0.21729 0.14656 -0.080085 -0.0023007 -0.051477 0.29109 0.49926 -0.63573 0.019671 -0.011436 0.71689 -0.0056362
november||m.05cw8 -0.25291 0.057612 -0.73681 0.00094132 0.45972 -0.05212 -0.51819 0.44827 -0.12357 0.10706 0.16852 0.64205 -0.34794 -0.34423 0.40536 0.20952 -0.56968 -0.23875 -0.52211 -0.60621 -0.2878 0.078166 0.53773 -0.71411 -0.18342 -0.1404 1.2168 0.39705 0.43183 0.49905 -0.028326 -0.33194 0.28725 -0.095307 -0.23985 -0.19005 -0.15897 -0.2905 0.26195 0.33891 0.019862 0.18568 0.29957 -0.27601 0.24383 0.032259 0.12728 -0.17456 -0.22932 -0.039492
harry_potter||m.03647x -0.013223 -0.1329075 -0.449875 0.38494 0.259305 0.38051 -0.550285 -0.63308 0.376585 0.78459 0.16860805 0.057462 -0.072655 0.404575 -0.18463 0.829185 -0.679625 0.496055 0.0433625 -0.08523 -0.1513055 0.0285995 0.946065 0.008055 0.1898235 -0.189985 0.57375 -0.33654 0.507625 -0.317535 0.311175 -0.26117 -0.4019 -0.246695 0.408714 -0.1487455 -0.31719 0.3129065 0.47748 0.414795 -0.003115 0.1440525 -0.355585 0.34372 1.50665 -0.572955 -0.12525 0.791895 0.438225 0.437915
harvard||m.03ksy 0.016122 0.66824 -0.40005 0.39719 0.34031 0.61098 -0.39058 -0.59424 0.02102 -0.44374 0.25708 -0.20129 -0.26795 0.0028182 0.53144 0.99184 -0.27713 -0.2897 1.14 -0.38704 -0.17689 0.5121 -0.063324 -0.59423 -0.069588 0.030868 0.992 -0.16185 0.59286 0.4951 -0.022423 0.82199 -0.7024 0.31385 -0.043434 0.51678 0.3038 -0.082828 -0.15423 -0.41012 0.26916 -0.49943 0.32776 -0.18893 0.15211 -0.64415 -0.49937 0.47256 -0.077155 -0.12817
led||m.04myn -0.25837 -0.20618 -0.21561 0.011125 -0.27693 0.63443 0.1461 0.13017 0.33869 0.288 0.15582 0.41583 0.20485 -0.20253 1.0871 0.73062 -0.21908 -0.15608 0.50565 0.27071 -0.13962 0.35256 0.46104 -0.62986 -0.0038317 -0.82246 0.53728 0.45084 0.13395 -0.13523 -0.37343 -0.46579 -0.08211 -0.27016 0.21756 -0.3119 0.32123 -0.17188 -0.26712 -0.12369 -0.14355 0.07781 0.71294 -0.62696 0.31322 0.26911 -0.23935 0.26615 -0.029301 -0.39444
nfl||m.059yj -0.35653 -0.19355 -1.0558 -0.26451 0.89098 0.93883 -0.23627 0.17377 0.20644 0.32988 0.25184 -0.23133 -0.14169 -0.51295 -0.14661 0.012996 -0.38376 0.68763 0.44555 0.040716 0.59036 0.16891 0.64305 -0.15964 0.95017 -0.39755 0.97975 -0.18158 -0.16869 -0.067442 0.1154 0.10511 0.23488 0.14867 0.13551 0.47503 1.0229 0.34325 -0.93862 1.0381 -0.10294 -0.86253 0.46169 0.54536 0.96274 -0.38651 0.19596 0.36492 -0.61158 0.54034
touchdown||m.01nv7n -1.8522 -0.94092 -0.65203 0.29331 0.40721 1.2419 -1.1193 0.67948 0.58015 0.34984 0.96399 0.047972 -0.21175 0.9337 0.14743 0.27948 0.37525 0.067377 1.0592 1.0239 -0.0028913 0.33867 -0.13143 -1.0036 0.095439 -0.43605 1.6125 -0.26077 -0.42868 -0.44504 -0.016114 -0.36735 0.88982 -0.353 0.49565 1.1906 0.38018 0.57386 -0.93496 0.2371 -0.00026925 -0.89436 0.35724 0.21026 1.0005 -0.70144 -0.73218 0.48819 -0.63147 0.40819
yards||m.087tz -1.5072 -0.30839 -0.75604 0.76025 0.51374 0.61717 -1.3258 0.63312 0.72543 -0.025021 0.81002 -0.28036 0.099929 0.94378 0.28264 0.40629 0.18203 -0.65059 0.48881 1.0498 0.41541 0.021723 -0.68411 -0.78926 -0.12957 -0.30685 1.2596 -0.12931 -0.59495 -0.72921 0.14767 -0.2056 0.62846 -0.064613 -0.23485 0.90817 0.26301 0.79171 -0.82794 0.48671 -0.23011 -0.73906 0.58865 0.0043464 1.1743 -0.50314 -0.23468 0.1315 -0.78915 0.14467
quarterback||m.06b1q -0.9372 -0.94861 -0.74861 -0.23109 0.57244 1.2407 -0.95304 0.27636 0.12642 0.68914 0.46517 0.24254 0.29512 0.2598 0.014121 0.24528 -0.29187 0.32373 0.77968 0.00085847 0.37177 0.2879 0.02641 -0.063971 0.23905 -0.26908 1.0477 -0.43698 -0.17842 -0.22715 0.11831 0.30632 0.49811 -0.18755 0.49706 1.1155 0.47601 -0.030235 -0.91229 0.76155 0.087864 -0.96135 -0.13254 0.62674 0.6705 -1.0514 -0.2682 0.34182 -0.96844 0.099616
playoff||m.0jxrg -0.13328 0.27608 -0.82689 0.93392 -0.075891 0.68568 -1.5446 0.077418 -0.29309 0.43613 0.43407 0.43747 0.35066 0.059614 -0.47181 -0.27174 -0.68373 0.62561 0.52547 0.24114 0.089402 -0.12524 -0.15627 -0.76026 0.29066 -0.95815 0.9175 0.45626 0.66762 -0.87611 -0.71962 -0.44435 0.23662 -0.1285 0.15904 -0.0036114 0.72553 0.13508 -0.53688 0.094504 0.57398 -0.67597 0.4776 0.33049 0.54732 -0.72191 0.3886 -0.2153 -0.18831 0.29957
seed||m.09dh0 0.75056 0.67098 -0.035505 1.1448 0.25531 0.65449 -0.39207 -1.2237 -0.17243 0.97473 0.35627 -0.094398 -0.33275 0.18369 0.12136 -0.016149 -0.51092 0.25256 0.91992 0.13163 -0.65877 0.32304 -0.32772 -1.1823 -0.51618 -0.25332 1.1573 0.49656 0.31209 -0.10288 0.37764 -1.0834 0.24086 -0.40741 0.21339 -0.072616 0.67658 -0.016647 -0.46764 0.47696 0.39239 -0.80684 0.21365 -0.21165 -0.42887 -0.85487 0.51525 -0.22031 -0.48864 -0.43648
dream||m.0c673 0.060298 -0.12717 -0.20112 0.6034 -0.94996 -0.015054 -0.35712 0.1855 0.88095 0.67756 -0.45046 -0.11889 0.072784 -0.18885 -0.021083 0.40333 -0.29498 -0.076349 0.26194 0.24271 -0.24323 0.70792 0.20179 0.39154 0.0089195 -0.26762 0.56986 0.1227 0.5571 0.33409 -0.061386 -0.17214 -0.18137 0.33023 -0.083373 -0.16482 0.3582 -0.16169 0.15846 0.51869 0.56772 -0.073594 -0.32875 -0.12079 0.99865 -1.1257 0.10793 -0.18928 -0.2078 0.27865
navy||m.07wg3 -0.30593 0.15431 -0.56996 0.13781 0.27394 0.96834 -0.43423 0.29272 0.46043 0.11382 0.41005 0.0016127 0.69635 0.3728 0.47184 0.12916 0.14593 0.19116 0.39237 -0.192 -0.17834 -0.011883 -0.055019 -0.11222 -1.0467 -0.30894 0.4691 0.080387 0.55091 0.1294 0.87341 0.52622 0.77984 -0.20758 -0.88423 -0.36633 0.53617 0.05898 0.78827 0.25706 -0.68208 -0.81626 0.48604 0.8751 0.0178 -0.3551 0.28977 0.41199 0.46681 -0.34815
smart_phone||m.0169zh -0.50161 0.141523 0.253204 0.192201 -0.124676 -0.213216 -0.454555 -0.31258 0.231062 -0.16249 -0.086253 -0.019861 0.04905 0.06177 0.411162 0.284165 -0.04801 0.1996795 0.1995625 -0.199055 -0.719065 0.40324 0.317613 -0.200925 -0.182656 -0.03651 0.40033 -0.302845 0.2970935 0.497615 0.22570075 0.2620715 -0.0763965 -0.49095 0.373175 -0.0343984 0.698795 0.1163635 -0.661 0.30937 -0.72148 -0.14261 0.313844 0.59877 0.1307555 -0.537255 0.14899 -0.319158 0.041812 0.57279
chairs||m.01mzpv -0.26239 0.5377 0.74282 0.73672 0.05578 -0.031605 -0.73396 -1.2983 0.19851 0.33978 0.77727 0.53216 0.14923 0.5792 0.18989 0.95178 0.4491 0.056734 -0.20963 -0.68195 0.040768 -0.42533 0.22988 0.55975 -0.13517 -0.4713 0.30259 -0.18005 0.050722 0.38707 -0.52454 0.46912 0.31033 -0.36377 -0.74485 -0.34692 -0.17984 0.31589 -0.076351 0.80674 -0.51871 -0.6775 0.39502 -0.83208 0.40194 -0.38132 -0.50903 0.66667 0.18067 0.33445
yard||m.087tz -0.66431 0.11966 -0.42038 0.45853 0.33699 0.20359 -0.79632 0.34608 0.68871 0.56921 0.74308 -0.056677 0.24508 0.73061 0.28721 0.41629 0.28974 -0.42812 0.36226 0.34301 -0.17829 -0.13002 -0.43106 0.10016 -1.3291 -0.046428 0.38966 -0.50642 -0.32121 0.26288 -0.16411 0.027906 0.59572 -0.10766 -0.2442 -0.12176 0.81784 0.36266 0.26985 0.151 -0.1092 -0.94944 0.5049 0.42849 0.73175 -0.088706 -0.0028996 0.70331 -0.29377 0.026891
sleep||m.06xzh -0.80948 0.29137 -0.39863 0.39948 -0.36577 0.028525 -0.23169 -0.65009 0.78678 0.91078 -0.58431 0.47299 -0.64233 0.50887 -0.37291 0.17668 0.39565 -0.087206 -0.068007 0.21174 -0.46271 0.19507 0.12779 -0.49669 -0.039689 0.086809 -0.43958 0.64888 0.64917 0.68643 -0.35301 0.53063 -0.57011 -0.2833 -0.38384 -0.31852 0.67326 0.092949 -0.47762 0.039831 -0.2451 -0.27544 0.2279 0.037515 0.28513 -0.75082 -0.62925 0.35149 -0.10277 0.45465
insomnia||m.0ddwt -0.45241 -0.2459 -1.4394 0.38622 -0.28384 0.79979 -0.56282 -0.64593 0.87124 0.36898 -0.60281 0.69228 -0.54556 -0.015539 -0.70896 0.27341 -0.18184 -0.44783 0.33932 0.31776 0.029221 0.31956 -0.07486 -0.90977 -0.20026 -0.0042955 -0.25166 0.84735 0.67071 0.62238 0.45207 0.54825 -0.56436 -0.16298 0.3385 0.031705 0.18219 -0.14642 -0.49887 -0.36169 -0.13653 0.07498 0.43588 0.22904 0.19602 -0.32442 -0.75618 0.75256 -0.26594 0.78828
chennai||m.0c8tk -0.13229 0.41731 0.21183 -0.0041087 -0.26126 0.33488 -0.12404 0.12598 0.36583 0.8087 -0.059877 0.31334 -0.67921 -0.37086 -0.14877 -0.19056 -0.35198 0.033442 0.73806 0.036657 -0.2964 -0.15813 -0.38992 -0.87477 -0.58051 -0.12984 1.2774 -0.059698 0.54992 0.70922 -0.032916 0.3373 0.0018735 -0.20976 0.079052 -0.58529 0.67882 -0.50935 0.45675 0.96022 -0.1556 -0.50533 0.042907 0.23503 0.36701 0.0051836 1.3645 -0.62051 0.029225 -0.084067
photographs||m.068jd -0.74551 0.45539 -0.31191 -0.012875 -0.15615 0.33787 -0.37464 -0.84408 0.8368 -0.25772 1.0343 0.3246 0.22724 -0.21627 -0.061582 0.48779 -0.37596 -0.032706 -0.14136 0.012636 -0.90308 0.2015 0.12322 -0.36276 -0.77791 0.22068 0.41204 -0.43039 -0.1282 0.088529 0.12304 0.5797 0.36492 0.74431 0.52084 0.15007 0.22791 0.18387 0.12992 0.58976 -0.14212 0.45525 0.33184 0.13265 0.42284 -0.46321 0.23286 0.71531 0.21966 0.6293
tamil||m.01rv7x -0.17382 1.3701 -0.64398 -0.28093 -0.46791 0.3841 -0.62498 0.90749 0.67809 0.56479 0.014446 -0.61058 0.31717 -0.13323 0.21992 0.1416 -0.53274 0.73374 0.72231 -0.26711 -0.028709 -0.47633 -0.034729 -1.2352 -0.087815 -0.49718 0.88277 0.57037 -0.089512 -0.37894 0.7205 0.057481 -0.040918 0.42745 0.24183 -1.4573 -0.59212 -0.354 -1.1437 0.69065 -0.4858 0.11633 0.57891 -1.1089 0.2088 -0.83636 0.7725 0.49932 -0.21092 -0.85823
vocal||m.09l8g 0.29855 -0.54515 -0.019244 -0.11813 -0.68884 0.87949 -0.020408 -0.10605 0.85783 0.35563 0.25354 0.13784 0.36208 0.28218 0.52667 0.98246 0.066011 -0.26409 0.29674 -0.84409 0.19496 0.13331 0.56168 -0.15202 0.29184 -0.55539 0.43178 0.56334 0.22487 0.19191 -0.2828 0.58605 -0.030773 0.040069 0.27842 0.14724 -0.30824 0.042164 -0.47615 -0.029716 -0.65886 0.2117 0.43906 -0.48798 -0.13252 -0.71646 -0.20408 -0.37751 0.83292 0.25552
tax||m.07g82 -0.17471 0.35363 0.14466 0.35217 -0.1558 -0.55961 -0.86023 -0.21965 0.29283 0.54941 0.26834 0.23533 0.069137 -0.85302 -0.24726 0.64496 -0.57125 0.042597 0.75616 -0.44866 0.45291 0.17897 0.023025 -0.24645 -0.32693 -0.081466 0.3473 0.77214 -0.38249 0.80855 1.4711 -0.042038 0.43172 -0.98697 -0.55238 -0.16695 0.25007 0.65665 0.13624 0.09538 0.52701 0.22649 0.49849 0.040652 0.21769 -0.01443 -1.0924 -0.19254 -0.11102 0.72389
internal_revenue_service||m.03z19 4.33333333333e-05 -0.296049666667 -0.6865 -0.104506666667 0.172303333333 0.0157033333333 -0.53836 -0.212996666667 0.413343333333 -0.1188824 0.0249266666667 0.205055666667 0.0914333333333 -0.235846866667 0.00704333333333 0.64424 -0.112981666667 0.173074333333 0.63701 -0.278013333333 -0.365686666667 -0.318097666667 -0.126983666667 -0.153011666667 -0.468623333333 0.361743333333 0.430696666667 0.433876666667 -0.465323333333 0.479996666667 0.877643333333 -0.248761666667 -0.1542681 -0.5791 -0.47214 -0.22316 0.51854 0.141963333333 -0.31889 0.60392 -0.0744766666667 -0.183019333333 0.805256666667 0.130126666667 0.305555 0.053034 -0.0362266666667 0.0936343333333 -0.11054 0.435893333333
barack_obama||m.02mjmr -0.275355 0.444385 -0.135322 0.46113 0.05713505 0.596435 -0.684795 0.338505 0.1852375 -0.178145 0.140365 0.0772975 0.1378705 -0.199315 -0.25703 0.89719 -0.611085 0.36906 0.19334 -0.91877 -0.561865 -0.132777 0.46529 0.150083 -0.20908 -0.0918045 0.953095 0.443325 0.66974 0.38954 0.94194 -0.130505 0.53644 0.2782 -0.42856 -0.75262 -0.1432825 -0.251415 -0.45979 -0.916825 -0.1304 -0.577685 0.1116375 0.24412 0.312115 -0.748605 -0.491935 -0.126446 0.5225 1.11465
irs||m.03z19 -0.08768 0.35502 -0.97702 -0.0049145 0.79175 -0.1297 -0.60985 0.1105 0.26225 0.094945 -0.07708 0.58102 0.7115 -0.98548 -0.098545 0.59723 -0.56552 0.64764 0.58933 -0.5283 -0.48471 -0.63673 0.033995 -0.33413 -0.090993 -0.21874 0.4986 0.48487 -0.64952 0.47283 1.165 0.17505 0.52475 -0.1986 -0.29483 0.25727 0.50275 0.86307 -0.63316 0.25969 -0.35851 -0.91495 0.52351 -0.067757 0.084968 -0.62651 -1.6086 0.80921 -0.22279 0.52968
press_conference||m.01s8fx -0.406236 0.494225 -0.1164315 0.14528 -0.0487886 0.097572 -0.324698 -0.343075 0.27132 0.094619 0.1158905 0.44299 -0.019465 -0.56176 0.01191 0.64171 -0.168159 0.36393 0.32627 -0.50055 -0.87101 -0.44204 0.707565 -0.42279 0.420725 -0.528635 0.292885 -0.537775 0.419865 0.277835 -0.06843 -0.09882 0.347335 0.155765 -0.237955 -0.225309 -0.11443 -0.2847455 -0.72789 0.148597 0.19411 -0.78943 0.71206 0.069007 0.248933 -0.37002 0.55384 -0.041745 -0.393 0.261365
al-qaida||m.0v74 0.41492 0.71207 -0.34627 -1.1864 -0.048794 0.95987 -1.3991 0.67627 0.73445 0.045242 0.74542 -0.36064 1.1508 0.071634 -0.88134 0.75528 -0.34679 0.29593 -0.18661 -0.018165 -1.0011 0.019088 -0.2906 -0.62985 0.24852 0.39911 0.93194 0.4847 0.33685 0.16809 1.2634 0.25906 -0.015774 -0.36089 0.48993 -0.90494 0.28289 0.31356 -0.53397 -0.2207 -0.92039 -0.22764 0.75516 0.30833 1.2263 -0.23064 0.079898 0.30238 0.033813 -0.22527
u.n.||m.07t65 -0.48686 0.55711 -0.34257 0.078302 0.075652 0.4331 -0.23686 0.66051 1.2913 -0.27879 0.0049244 0.35403 0.1701 -0.37464 -0.8018 0.58941 -0.35673 0.15447 -0.33153 -1.5699 -0.72167 0.61661 0.0043286 -0.53567 0.048156 0.15585 0.91089 -0.34607 0.37894 -0.52973 0.52804 -0.12391 1.2427 0.055669 -0.91558 -0.35531 -0.19164 0.37192 -0.51217 -0.014367 -0.068962 -0.36948 0.65519 -0.6917 -0.10478 -0.056257 0.42384 0.98947 -0.47995 -0.34305
associated_press||m.0cv_2 -0.831025 0.28849 -0.472995 0.134215 -0.0893936 -0.043771 -0.027526 -0.45466 0.386405 -0.025961 0.165183 0.494415 0.3467 -0.4744 -0.067479 0.7034 -0.34804 0.081597 0.07091075 -0.0708415 -1.01196 -0.032713 0.967995 -0.593315 0.610655 -0.32305 -0.026015 -0.728755 0.277885 0.25895 0.659295 0.48 0.231735 0.10204005 -0.1652355 -0.53919 -0.554915 -0.050911 -0.82995 0.30505 0.060405 -0.35967 0.6884 0.062091 0.442295 -0.512245 0.66802 0.17244 -0.457655 0.696705
democratic_party||m.0d075m -0.310615 0.149 0.19859 -0.502615 0.0050816 0.61884 -0.7507 0.47112 0.399425 0.45800285 0.0172255 0.132917 0.288845 -0.51663 0.506945 0.655745 -0.22934375 0.1310712 0.41133 -0.847525 -0.0677855 -0.444885 0.107195 -0.019265 -0.096205 0.1102935 0.783365 0.16099 -0.25552 0.329788 0.03404 -0.264415 0.259705 -0.237595 -0.094408 -0.6535 -0.46678 -0.24598 -0.541795 0.42615 -0.2100405 -0.1003695 -0.034253 -0.79247 0.48775 -1.02151 -0.43761 -0.1066065 -0.1333785 0.130499
web_site||m.085n4 0.232095 0.4974 -0.28884 -0.35113 -0.43926 0.14343 -0.2972 -0.163995 0.45015 -0.2582735 -0.255549 0.000839 -0.036899 -0.37963 0.054597 0.705465 -0.3968 -0.1617735 0.2048025 -0.2032725 -0.70147 -0.139992 -0.29746 -0.41788 -0.61801 0.37279 0.735445 -0.1491175 -0.035709 0.57213 -0.1623875 -0.17023 0.01088 0.1490985 0.25744 0.35358 0.47092 0.33247 -0.488775 0.665515 -0.07304 0.22771 0.491745 0.26509 0.64315 -0.0996365 0.480775 0.49652 -0.50445 0.44119
pension_fund||m.02vk53c -0.3206925 0.48705 -0.28667 0.539805 -0.370875 0.369505 -0.45308 0.075467 -0.24452 -0.1256845 -0.193924 0.472055 -0.385485 -0.465435 0.32678 0.843845 -0.18164 -0.03917 0.266549 -0.740915 0.16755 0.1069655 -0.5508 0.2454 0.329375 -0.82677 0.54307 0.56904 -0.65825 0.667975 0.89162 0.74805 -0.0891635 -0.499945 -0.268643 -0.40039 -0.069082 0.441415 -0.0207125 0.45708 0.543565 -0.14391 0.94542 0.069065 -0.00815435 -0.3467 -0.309315 -0.2153465 0.00119 -0.134095
california||m.01n7q 0.48632 0.60496 0.31679 0.2851 0.23729 0.45096 -0.14746 -0.17017 0.1741 0.38123 -0.13169 -0.45538 0.079882 0.28888 0.97033 0.75599 -0.26608 0.3859 0.75979 -0.43979 0.46062 0.12015 0.86726 -1.0108 -0.45295 0.12198 0.4081 0.61628 0.15595 0.93407 0.49868 0.65096 0.042573 -0.060612 0.14578 -0.23135 -0.10039 0.35093 0.23058 0.30397 0.12973 -0.86407 0.31772 0.1478 0.041299 -0.11648 0.39512 -0.21352 -0.20257 0.66261
pension_funds||m.02vk53c -0.3165465 0.54945 -0.1520065 0.421845 -0.267335 0.221145 -0.509125 -0.001731 -0.420285 -0.014667 -0.178479 0.564325 -0.389545 -0.335375 0.1604915 0.693665 -0.189715 0.066405 0.16449 -0.67782 0.169035 -0.0002385 -0.508395 0.1223035 0.2461 -0.6055 0.67393 0.773925 -0.71273 0.62595 0.962345 0.81521 -0.109914 -0.62667 -0.0567815 -0.373725 0.111463 0.55699 -0.0037415 0.39151 0.379325 -0.0471805 1.09587 0.019805 -0.0334585 -0.454295 -0.33965 -0.302905 -0.1582225 -0.037975
comptroller||m.03tzmr 0.12775 0.75501 -0.060007 0.0067409 0.53344 0.42679 -0.45976 0.11401 0.023689 -0.46825 0.18203 0.28187 -0.66793 -0.41727 1.1106 -0.039307 -0.11299 -0.26886 0.0014136 -0.99013 -0.6414 -0.579 0.50378 -0.20173 -0.0056949 -0.60288 1.3424 -0.32156 -1.3748 0.56423 0.73471 0.75666 0.58071 -1.0531 -0.2523 -0.088558 0.09605 0.031112 -0.28828 -0.072789 0.68675 -0.15432 0.40592 -0.63632 0.48401 -1.5208 -0.59211 -0.049537 -0.14638 0.35425
nonprofit||m.0259tnd -0.0080123 0.76321 -0.56982 -0.32753 -0.41195 0.90404 -0.67829 -0.3118 0.50135 -0.37506 -0.11442 -0.14525 -0.018486 -0.29503 0.60373 1.0331 -0.42446 -0.6472 0.48084 -0.60151 -0.17514 0.13863 -0.2874 0.067578 0.21785 -0.13392 0.26277 0.22005 -0.068887 0.73633 0.15902 -0.031254 -0.55308 0.3478 -0.42824 -0.53091 -0.02122 1.5394 -0.21517 0.71521 0.34921 -0.14523 0.31512 0.19924 0.39109 -0.48302 -0.46311 0.31297 -0.44207 0.1071
qb||m.06b1q -0.54615 -0.62687 -0.63792 -0.03581 0.589 0.94766 -1.3526 0.32522 0.10967 0.44647 0.36778 0.2639 0.91064 0.23616 0.058574 0.071794 0.3118 0.32151 0.59057 0.22834 0.22409 0.43175 0.2735 -0.53257 0.36001 -0.12119 1.1642 -0.26428 -0.078201 -0.53287 0.41958 -0.13029 0.69532 -0.34987 0.18358 1.1554 0.13214 -0.36407 -0.62288 1.0269 0.22506 -1.0878 -0.13671 0.68327 0.78464 -1.3386 -0.07771 0.39372 -1.1902 -0.43056
russia||m.06bnz 0.39558 0.73961 0.041503 0.61113 -0.3691 0.67131 -0.63243 0.416 0.97632 0.75304 0.5664 -0.38657 0.083546 -0.49057 -0.58476 0.42208 -0.076438 -0.39433 0.18812 -0.87803 -0.27852 0.75974 0.15936 -0.20238 0.39835 0.59588 0.65379 -0.10252 0.36267 0.22553 0.30993 0.24684 0.41506 -0.55527 -0.6591 -0.21973 0.17181 -0.26871 0.046359 -0.32706 0.1511 -0.14965 0.98354 -0.15885 -0.43035 -6.369e-05 0.3799 -0.6172 0.69166 0.59474
japan||m.03_3d 0.41692 0.16064 -0.092849 0.3748 -0.88309 0.61129 -0.54971 1.0185 0.23843 0.34853 -0.37615 -0.14973 -0.042496 -0.076561 -0.22526 0.091312 -0.10783 -0.28961 0.21101 -0.90701 0.19297 0.29785 0.22567 -0.84406 -0.55502 -0.85289 0.69201 -0.53671 0.91391 0.2622 0.54971 0.46379 -0.082081 -0.76163 -0.25612 -0.84135 0.23238 -0.78534 0.2213 0.5432 -0.36075 -0.59435 1.0895 -0.0027493 -0.35445 0.20295 -0.38236 -0.35074 -0.10296 0.4285
general_staff||m.04zm7_ -0.28642 -0.1684355 -0.21243 0.22234 0.42101 0.31128 0.03493 0.138885 0.213588 -0.41058 0.1178845 0.830695 -0.068148 -0.319947 0.47741 0.5316 -0.293495 0.2729715 -0.06896965 -0.894465 -0.35602 -0.391185 0.36641 0.046015 -0.123835 -0.240505 0.2935426 0.0184415 0.2278255 0.2856055 0.43386 0.11913 0.15025 -0.357471 -0.539835 -0.269525 0.51275 0.043685 -0.248825 0.482595 -0.2263275 -0.43369 0.3126195 0.0008295 0.121943 -0.367575 -0.04969218 0.644375 0.045875 -0.49484
world_war_ii||m.081pw 0.09628 0.55933 -0.62502 0.203158666667 -0.231586333333 0.46732 -0.518936666667 0.000173333333333 0.62162 0.223152333333 -0.379986666667 0.19283 0.152671 -0.126356666667 -0.244256666667 0.0234236666667 -0.2775387 -0.306043333333 -0.0393516666667 -0.205123333333 -0.180716666667 0.614226666667 0.298628666667 0.207863333333 -0.213456666667 -0.41058 0.879963333333 0.188154883333 0.546136666667 -0.408223333333 0.1768 -0.24486 -0.257296666667 -0.30093 -0.0480286666667 -0.45531 0.0762243333333 -0.434016666667 0.341173333333 0.295183333333 0.00412766666667 -0.531383333333 0.62806 -0.163955666667 0.361233333333 -0.48536 0.261236666667 0.482818 0.410006 -0.3602933
bullying||m.027vd9 -0.21188 0.53728 -0.94172 -0.15136 -0.33065 0.017483 0.24935 0.083664 1.0662 0.29663 0.19696 0.37293 0.42263 -0.44423 -0.20589 -0.50476 -0.25395 -0.26694 0.87551 -1.0586 0.10597 0.49193 0.30731 -0.37113 -0.17296 -0.3836 0.27682 0.16552 0.010455 0.40391 0.23348 0.52785 -0.18056 0.065357 0.73593 0.068242 0.71197 0.17457 -0.81303 -0.2594 -0.326 -0.41928 0.56897 -0.33757 0.51867 -0.42133 -0.092784 -0.065496 -0.71603 0.11474
boston_bruins||m.0j2zj -0.356935 1.11588 -0.85093 0.660845 0.013382 1.03211 -0.4182 0.018055 0.25899 -0.129385 0.721365 0.412195 -0.15191 0.3416205 -0.4146815 0.48199 -0.28032 0.161415 -0.067745 -0.1207775 -0.1229085 0.38973 0.27711 -0.587325 0.43645 -0.80113 0.860165 -0.0535855 -0.0092465 -0.064475 -0.59336 0.50355 -0.04865 -0.433005 0.2023845 -0.171763 1.25045 -0.403955 -0.3187705 -0.459775 0.337135 -0.7715 -0.16888 0.67911 0.3783935 -0.334225 -0.0721645 -0.149917 0.0962655 -0.09512
warrior||m.01jnld -0.37247 0.090532 -0.95646 0.11835 -0.47817 0.35724 -0.33413 -0.29696 0.79005 0.59438 0.13963 -0.46268 0.65333 0.47723 0.3618 0.52522 -0.34839 -0.12845 0.54658 -0.045848 -0.1303 0.51838 -0.32113 0.2031 -0.040841 -0.10448 0.29571 0.70274 0.70554 -0.49454 -0.25979 -0.016085 0.067887 0.28124 -0.11934 -0.5924 -0.29356 -0.12811 -0.14396 0.47781 -0.025451 0.078478 -0.2332 0.32269 0.98503 -0.90213 0.61457 -0.31294 0.32759 -0.31558
netminder||m.02qvzf -0.50218 0.17398 -0.52324 1.2629 0.088242 0.65745 -0.11923 -0.59107 0.30865 -0.16827 1.2337 0.14626 0.40286 0.60166 -0.53143 0.80231 -0.91019 0.34147 0.12841 0.14631 -0.1785 0.32986 -0.06195 -0.52697 0.80915 -1.0742 0.83393 -0.40418 0.30118 -0.0086371 -0.26348 -0.046494 0.65864 -0.90782 0.46127 0.029745 1.1917 0.0079527 -0.42287 -0.41841 0.26895 -0.026219 -0.20322 0.29523 0.14675 -0.61363 0.53618 0.16785 0.25208 0.62381
faceoff||m.02qwnm -1.3465 0.42297 -0.38297 1.1295 -0.26176 0.33897 -0.78852 -0.10814 0.2201 0.17545 1.1989 0.1095 0.44738 0.48432 -0.57669 0.64705 -0.32432 0.59056 0.28088 -0.59125 0.26088 0.21931 0.14006 -0.36336 0.70576 -1.0162 1.5149 0.19341 -0.32868 -0.46877 -1.3726 -0.32607 0.13302 -0.89406 0.87402 -0.35615 0.91964 0.20395 -0.75475 -0.5588 0.75116 -0.42775 -0.22843 -0.09387 0.52299 -0.10063 0.38813 0.35404 0.35226 1.2772
bruins||m.0j2zj -0.56174 0.97596 -0.88154 0.95836 -0.088836 0.83732 -0.54466 -0.17675 0.19968 0.14771 0.92111 0.36597 -0.0894 0.62938 -0.7661 0.35114 -0.33847 0.48602 0.12381 -0.29812 0.096173 0.36913 -0.01067 -0.5956 1.0254 -1.0289 1.169 -0.088694 0.085597 -0.27966 -0.63366 0.18123 0.17806 -0.64703 0.44879 0.018084 1.4873 -0.33353 -0.70986 -0.2372 0.18117 -0.86605 -0.34354 0.39738 0.032687 -0.53408 -0.078489 -0.22031 0.13351 -0.0265
powerplay||m.0fv03p -0.74717 0.097521 -0.072434 0.62207 -0.088116 0.50028 -0.21752 0.10059 0.22443 0.13293 0.91449 0.0083763 -0.14892 0.57173 -0.43363 0.76476 -0.16536 0.55188 0.27142 0.34527 -0.14972 0.28219 -0.49662 -0.91754 0.34634 -0.81451 0.74486 -0.041721 0.25767 -0.15644 -0.41247 -0.32177 0.014994 -1.0109 0.27806 -0.022321 0.86319 0.045796 -0.46534 -0.45664 0.2963 -0.25031 0.21633 -0.5095 -0.011496 -0.23229 0.2793 -0.23168 0.22097 0.39699
breath||m.0lyf6 -0.94857 -0.094456 -0.77341 0.30974 -0.52478 -0.083788 -0.64745 -0.59441 0.7122 0.82577 0.042969 -0.032298 -0.76707 1.1089 -0.64244 -0.083501 0.32741 -0.02873 -0.13304 -0.54335 -0.32752 0.036204 0.16793 0.24628 -0.39088 -0.33094 0.48076 0.54059 -0.18454 0.31639 -0.80692 0.41764 0.10873 -0.38543 -0.151 -0.10078 0.10861 0.045511 -1.0702 -0.21706 -0.10771 -0.13192 0.23014 -0.11709 -0.12069 -0.73395 0.1535 0.19499 0.15656 -0.038501
detroit||m.02dtg -0.53886 0.44996 -0.37359 0.344 0.37251 1.4756 -0.12539 0.44782 0.18705 -0.0031682 0.13126 0.77303 -0.37647 -0.19975 0.27136 0.76831 0.19908 0.871 -0.19472 0.16054 -0.0076628 0.70996 0.43002 -0.46114 0.18785 -1.2216 0.56641 -0.27139 -0.49131 0.37204 0.37339 -0.033002 -0.27264 -0.26164 0.21482 -0.81293 0.73208 -0.27313 -0.2284 0.65158 0.88785 -0.5135 -0.49866 0.12714 0.026552 -0.0013526 0.16145 -0.10707 -0.12926 0.079949
general_motors||m.035nm -0.157255 -0.125545 -0.216815 0.322105 -0.011175 0.471385 0.29914 0.4884 0.099168 -0.56128 0.0569045 0.78676 -0.615495 -0.3363 0.55331 0.665885 -0.1718925 0.1415965 -0.12124 -0.76442 -0.47399 -0.09602 0.154685 -0.2534 -0.105564 -0.67429 0.923535 0.0251635 0.218042 0.1356155 0.78081 -0.0114045 -0.091175 -0.918225 -0.1324345 -0.9052 0.494985 -0.55059 -0.21007 0.836305 -0.2550725 -0.1731255 -0.0457505 0.4855445 -0.024638 -0.35314 0.29407032 0.718785 -0.00204 -0.3649235
automaker||m.015smg 0.044341 -0.057301 -0.0047514 0.41659 -0.23379 0.52624 -0.1014 0.39959 0.51504 0.18321 -0.16778 0.26051 -0.99002 -0.54901 0.083604 0.23582 -0.32459 0.55974 0.1957 -0.44386 -0.36628 0.601 -0.70682 -0.34077 -0.1922 -1.2515 1.3053 -0.10651 -0.20167 0.97171 1.2603 -0.29531 0.095466 -0.92653 0.06723 -1.2204 0.65969 -0.65354 0.17521 0.64032 -0.65618 -0.27322 -0.06982 0.45596 -0.37027 -0.29456 1.0673 0.41485 -0.33117 0.25542
gm||m.035nm 0.11843 -0.19382 -0.40087 0.82808 0.24476 0.71457 -0.32532 0.023855 0.10906 -0.2248 0.29796 0.65437 -0.80005 -0.024719 0.59418 0.44619 -0.2182 0.23379 -0.51519 -0.5872 -0.41079 0.2914 -0.56508 0.3348 0.0048452 -0.93542 1.0229 -0.22425 0.083542 0.29095 0.8682 -0.15195 0.24316 -0.44178 0.020702 -0.58514 0.91222 -1.0089 -0.40617 1.1445 -0.042032 0.097621 -0.16547 0.018697 -0.22645 -0.025886 0.32378 0.66037 -0.35593 -0.034532
chief_financial_officer||m.0krdk -0.338313333333 -0.146702 -0.345743333333 -0.197836666667 -0.0771416666667 -0.0646 -0.360742966667 -0.22031 0.338586666667 -0.165835333333 0.305606666667 0.443330333333 -0.0876197133333 -0.444713333333 0.821545666667 0.443593333333 -0.329356666667 0.220627333333 0.41545 -0.611386666667 -0.690433333333 0.0491046666667 -0.192713 0.007399 0.165033333333 -0.187716333333 0.247484733333 0.103818666667 -0.113246666667 0.30534 0.36782 0.408406666667 -0.2999 -1.02777 -0.289937133333 -0.442333333333 0.453933333333 0.0112226666667 0.043526 -0.08674 0.07723 -0.754953333333 0.409688 -0.0154023333333 0.625423333333 0.28496 0.398076666667 0.450946666667 0.145748 -0.169119
common_stock||m.02zb8r 0.658625 0.017205 -0.427925 0.2755065 -0.182572285 0.376075 -0.47624 -0.287905 0.11634 0.2806 0.005705 0.34996 -0.61462 -0.1101526 0.11534726 0.305405 0.480665 0.008575 -0.29701 -0.390885 0.02266 0.128565 0.02911 -0.32004 -0.059935 -0.3268405 0.83207 0.26969 -0.286665 0.2089315 0.360705 0.52996 -0.388035 -0.6395 0.0812735 -0.56298 0.11959 -0.00478 -0.470575 0.003205 -0.0575715 0.21701 0.71733 0.417045 0.598015 -0.048515 0.0491056 -0.14061835 -0.222427 0.04113
mercedes||m.052mx -0.21486 0.021709 0.45657 0.93873 0.1968 0.0878 -0.43535 0.43908 1.1021 0.1796 0.17039 0.35576 -0.39351 -0.50394 -0.034915 -0.54176 -0.43877 0.30553 0.18361 -0.7974 0.20299 0.77261 -0.043007 -0.90405 0.036567 -1.1656 1.0643 -0.45979 -0.32697 0.38184 -0.34008 0.50101 0.56097 -0.88582 -0.49169 -0.46056 0.63186 -0.33902 0.40092 0.59811 -0.48821 0.73014 -0.52313 0.32214 0.22274 -0.18862 0.54622 0.90904 -0.32589 0.34976
house||m.03mb9 0.19269 0.28049 0.15169 0.31222 0.43206 0.16992 -0.95313 -0.070965 0.65497 0.84402 0.42861 0.16792 -0.032444 0.15646 -0.022496 1.0396 -0.12592 0.086259 -0.42968 -0.21517 -0.069488 -0.58153 0.2911 0.33383 -0.18506 -0.010806 0.40081 -0.28677 -0.024854 0.95434 0.4468 -0.40268 0.52577 0.092074 -0.40455 -0.6365 0.023481 0.15517 0.089809 0.010196 -0.20487 -0.29024 -0.05894 -0.34554 0.81045 -0.51718 -0.824 0.41609 -0.11135 0.68224
underwear||m.09j1x -0.29752 0.78221 -0.35058 0.31013 -0.21868 0.15501 0.22461 -0.28434 0.10077 0.80209 1.0622 0.7678 0.22022 0.20168 -0.19268 -0.20534 -0.19792 -0.24921 -0.53307 0.06483 -0.60683 0.39194 -0.29792 -0.042036 -0.57073 -0.17121 0.83437 0.25304 0.022956 0.91574 0.01768 0.55194 0.1415 -0.50305 -0.072714 -0.47268 0.34001 0.083237 -0.7676 0.34524 -0.94237 0.12841 -0.33049 0.82259 1.0585 -0.25879 0.30998 0.24778 0.37841 0.6995
tv||m.07c52 -0.49266 0.0012309 0.1087 -0.39058 -0.093794 -0.2194 0.028326 -0.090484 -0.0052594 0.18831 -0.18271 0.096781 -0.3312 -0.13166 -0.36382 1.0578 -0.64195 -0.046411 0.31225 -0.60744 -0.32918 -0.3779 0.20383 -0.026701 0.15733 -0.65364 -0.12564 0.29524 -0.0015728 0.40645 0.27294 0.10157 -0.60665 -0.30219 0.19498 0.21909 0.61786 -0.098281 -0.36082 1.0742 -0.39663 -0.21278 0.95168 0.52461 0.3004 -0.43048 0.31652 0.14903 0.43691 0.15987
amnesty_international||m.012l0 -0.57747 0.51539 -0.62505 -0.0721355 -0.1076425 0.15199 -0.442525 0.30549 0.71405 0.37409 -0.22379 0.031095 0.24159 -0.67299 -0.119497 0.632965 -0.295315 -0.20825 0.29652 -0.744775 -0.29482 0.632085 0.248505 -0.043363 0.45287 -0.01701 0.665825 0.110675 0.103252 -0.196042 -0.012845 -0.078725 0.3847635 0.132808 -0.72787 -0.207965 -0.3198845 0.73139 -0.118073 -0.02148 0.21503 -0.082125 0.630505 0.134518 0.0961135 0.15633 0.0104 0.0155195 0.426085 -0.14051
geography||m.034ns 0.66651 0.37876 0.12482 -0.50957 -0.56645 0.060278 -0.85389 -0.32615 0.47752 -0.35314 -0.20741 0.077009 -0.11493 0.029757 0.247 0.38322 0.076319 0.30754 0.66918 -0.096166 0.78531 0.20092 -0.18507 -0.85793 -0.23093 0.40294 0.50746 0.0019259 0.1534 -0.30028 0.51534 0.66661 -0.55118 -0.27847 0.18206 -0.018995 0.28992 0.055944 -0.62504 0.14713 0.62045 -0.67882 0.77595 -0.23849 0.33364 -1.0548 0.6059 0.21024 0.35235 -0.020305
defamation||m.0731s -0.72624 0.35875 -1.6312 0.16459 -0.44621 0.14472 0.25649 0.54495 0.3976 0.62262 0.39074 0.39761 -0.35251 -0.8361 0.30363 0.11596 -0.22623 -0.008853 1.0964 -0.54645 -0.26147 0.069447 0.67364 -0.62356 0.31317 0.20589 0.66875 0.19478 -0.51542 0.029619 1.0477 0.35097 -0.1363 0.25189 0.22518 0.020506 -0.42816 1.131 -0.52403 0.20035 -0.47603 -0.30775 0.38662 0.011675 -0.15119 -0.28208 0.30155 -0.37638 0.37447 0.08403
amnesty||m.012l0 -0.99812 0.67393 -0.81298 -0.071416 -0.13218 -0.16719 -0.66998 0.3524 0.78327 0.62155 -0.21813 -0.34377 0.6287 -0.77232 -0.014114 0.61548 -0.31982 0.29073 0.23382 -0.66099 -0.46008 0.46558 0.32727 0.047014 0.77884 0.25371 0.89172 0.39697 0.22132 -0.053944 0.22459 -0.26356 0.73048 0.21777 -0.5155 -0.14018 -0.60517 1.0436 -0.099906 -0.28825 0.22429 0.21221 0.65917 -0.031844 -0.036243 -0.23215 -0.13473 0.072718 0.3713 -0.1648
ally||m.0fy85 0.071258 -0.24737 0.12401 0.18905 -0.26609 1.078 -0.70397 0.72846 0.14704 0.70491 0.35016 0.14099 0.10204 -0.76733 0.49003 0.62765 -0.17304 -0.63055 0.084855 -1.0211 -0.64309 -0.18825 -0.074714 0.58842 0.16823 0.066219 0.80469 0.34134 0.35368 0.084502 0.6999 -0.40083 -5.4712e-05 -1.1905 -0.044543 -0.53336 -0.098723 -0.12989 -0.31799 -0.50554 -0.079773 -0.028581 0.50602 -0.37804 -0.093865 -0.69083 0.58404 -0.083657 0.67962 -0.29505
rockets||m.09rvcxw -0.14367 0.26992 -0.41884 0.35053 0.698 0.84487 -0.099118 0.93261 0.71645 0.34184 0.17474 0.13379 0.3022 0.62797 -0.26239 1.7852 0.31445 -0.30537 -0.35774 0.24925 -0.44012 0.41281 -0.10901 -0.93832 0.35349 -0.57041 0.6801 0.40078 0.92791 -0.71603 -0.10699 -0.42041 0.61441 -0.25739 0.83326 0.19364 0.72334 0.03665 -0.36459 -0.17805 -0.76218 -0.17151 0.34825 1.0307 0.073661 -0.33531 0.5826 0.0044066 -0.6061 -0.24471
devil||m.02cr2 -0.15516 0.61933 -0.86772 0.046239 -0.60172 -0.19341 -0.50251 -0.024101 0.24213 0.61397 0.59432 -0.24503 0.55291 0.11508 0.039487 0.62356 -0.12834 0.1463 -0.033685 0.13468 -0.70696 0.036932 0.28189 0.21456 -0.44882 0.084784 0.33637 0.33121 0.77733 0.20721 0.16856 0.31571 -0.018388 0.052675 0.90948 -0.51579 -0.071522 -0.068461 -0.36657 0.41499 0.46799 0.039808 -0.17921 0.097847 0.32931 -0.59944 -0.10458 0.17847 0.6115 -0.17595
christianity||m.01lp8 0.2186 0.81263 -0.85393 -0.23345 -0.39248 0.10228 -0.39275 0.38666 1.1139 -0.055779 0.25119 -0.10571 0.12498 -0.061211 -0.17192 0.059532 0.43182 0.37584 0.3646 -0.42368 -0.098706 -0.0027477 -0.61337 -0.26942 -0.060629 0.77897 1.4878 -0.18476 0.76081 0.19876 0.07883 0.44174 -0.59761 -0.23666 1.441 -0.3871 -0.2413 0.35151 -0.44178 0.078721 0.48726 -0.19185 0.97622 -0.68855 0.54735 -0.69114 -0.083098 -0.44188 0.3901 -0.37581
uk||m.07ssc 0.19558 -0.5691 -0.21094 0.08528 -0.037412 -0.36406 -0.43002 0.32161 0.59126 0.8487 -0.27884 0.45758 -0.11607 -0.33454 -0.23187 0.51563 -0.63795 -0.24492 0.1666 -0.76358 -0.12112 0.30177 -0.73032 -0.44708 0.069958 -0.34939 0.60948 -0.59179 -0.52843 0.31325 0.14327 -0.083576 -0.19132 -1.0852 -0.28533 -0.45578 -0.16394 0.65626 0.21803 0.68545 0.15275 -0.02813 0.9885 0.18669 0.29543 0.39102 -0.52423 0.081233 0.42732 0.02018
window||m.0d4v4 -0.35314 0.15923 -0.06843 0.56659 0.57129 -0.38812 -0.66125 -0.32081 0.13683 0.60437 0.13505 0.20354 -0.057319 -0.13742 -0.37232 0.42244 0.83437 -0.2654 -0.26998 -0.62037 -0.49834 0.50841 0.085446 0.25351 -0.76417 -0.35011 0.52 0.14019 0.13482 0.38827 -0.44323 -0.025067 0.34481 -0.48285 0.39566 5.014e-05 0.59605 0.21156 0.05716 0.19999 0.18061 0.17028 0.11523 0.081958 0.65582 -0.12527 0.42173 0.82779 0.1751 0.88538
military_helicopter||m.0275lwb -0.628315 0.192076 -0.30069 -0.1688 0.13295 0.4557 -0.37022 0.58403 0.624095 0.241585 0.00545 0.124955 0.563695 0.497191 -0.110965 0.691695 0.20486 0.35411 0.108855 -0.479585 -0.51347 0.03645 -0.188805 -0.122325 -0.532425 -0.16981 0.4515 0.424045 0.29922 0.110105 0.58751 0.1829315 0.33959 -0.160634 -0.4385 -0.2341885 0.2219555 0.0948965 0.36765 -0.0531435 -0.765665 -0.44818 0.775675 0.402083 0.221625 -0.20402 0.895155 0.49218 0.403825 -0.0957543
bank||m.017ql -0.46551 0.4661 -0.0028702 -0.041166 -0.58629 -0.15451 -0.75169 0.48031 -0.64715 0.58752 0.25629 0.69037 -0.070311 -0.54851 -0.037805 0.56748 -0.41376 0.10132 -0.043842 -0.71686 -0.39255 -0.2213 -1.0763 -0.25107 0.25418 -0.41373 1.1226 -0.92506 -0.084761 0.60841 0.81575 0.3626 0.024139 -0.67895 0.51805 -0.41143 0.34192 0.1328 0.082879 0.15739 0.43118 -0.74179 1.1368 -0.011596 0.29126 0.44992 -0.12705 -0.11689 0.25884 -0.21845
citigroup||m.01dfb6 0.39036 0.12379 -0.83577 0.64024 -0.1111 0.45438 -1.1135 -0.033388 -0.37569 -0.0047841 0.45703 0.379 -0.88199 -0.68717 0.50743 0.29444 0.05445 0.36971 0.27517 -0.77962 -0.68438 -0.38154 -0.52059 -0.69981 0.45811 -0.80241 0.90144 -0.18496 -0.47032 0.10867 1.0389 0.58626 -0.57495 -0.99093 0.22945 -0.55334 0.4313 0.24802 0.43087 0.54056 -0.16716 -0.39257 0.76076 0.46012 0.089128 0.3172 -0.69443 0.074831 0.52133 0.037589
jpmorgan_chase||m.01hlwv 0.1650265 0.470305 -0.566635 0.363095 -0.0942845 0.23988 -0.874535 0.361835 -0.341615 0.54962 0.54154 0.094755 -0.352226 -0.397361 0.526 0.000345 -0.394305 0.50262 0.30289 -0.51312 -0.340655 -0.04243 -0.119535 -0.71222 0.175977 -0.9254 0.3776795 -0.31436 -0.761615 -0.013275 0.268685 0.595685 -0.395345 -0.812125 -0.031356 -0.48091 0.769215 0.25759 0.47872 0.23644 -0.151165 -0.55602 0.734965 0.55861 0.555385 0.29582 -0.500095 0.38746 -0.0964725 0.130159
technology||m.07c1v 0.46845 0.043696 0.032584 -0.19152 -0.18757 0.12471 -0.22003 -0.49872 0.49793 -0.4285 -0.14499 -0.007968 -0.52842 -0.099281 0.3783 1.1312 -0.22613 -0.19711 0.89178 -0.13696 -0.26068 0.75612 -0.066729 -0.12034 -0.074748 0.17115 0.96724 0.063145 0.48938 -0.04119 -0.0050136 0.68625 -0.23811 -0.88503 -0.039459 -0.44126 0.44974 0.017958 -0.22992 0.24379 -0.39151 -0.066863 0.3677 1.0165 -0.12624 -0.28431 0.34939 0.10214 -0.48051 0.58034
connecticut||m.01x73 -0.15171 1.0054 -0.22458 0.6914 0.18359 0.50528 -0.56219 0.040231 0.18813 -0.22793 -0.24408 0.38189 -0.29962 0.622 0.24198 0.82472 -0.5067 -0.012939 0.34017 -1.0452 0.73119 0.41142 0.97025 -0.50683 -0.48309 -0.25327 0.75545 -0.043308 -0.31971 0.58985 0.28936 -0.12961 -0.19405 -0.21735 0.65907 -0.10153 0.34994 -0.11733 0.24288 -0.2557 -0.12576 -1.2374 -0.10102 0.47403 0.54537 0.083678 -0.034802 0.10888 -0.28981 -0.35734
september_11||m.0d0vp3 -0.00496 0.15979 -0.7936 0.2961958 0.37516 0.051578 -0.669855 0.19837665 0.1179945 -0.098707 0.178819 0.44704 -0.1653065 -0.163835 0.2124015 0.41914 -0.473525 -0.170528 -0.57223 -0.189995 -0.39017 0.3952 0.23013 -0.69884 -0.49294 -0.021317 0.569485 0.596115 0.04616 0.318239 -0.152735 -0.166529 0.327015 -0.270935 -0.23245765 -0.162088 0.006835 -0.117166 0.458405 0.315585 -0.0455135 -0.34298 0.598325 -0.275175 0.51192 -0.0270627 -0.088543 -0.457775 0.027422 -0.177795
suburb||m.0750y -0.8686 0.53785 0.49319 0.49871 -0.20682 0.60821 -0.43012 0.60529 0.99966 0.5307 0.62506 1.3127 -0.22162 0.36044 0.54263 0.70514 0.24757 -1.0763 -0.45455 -0.24076 -0.362 -0.50618 0.033972 -1.1427 0.0189 -0.17634 0.41677 0.61841 0.064755 0.87808 0.0062966 0.096935 -0.21583 0.3712 0.5266 -0.46227 -0.19974 0.3894 0.16651 -0.25764 0.7078 -0.55636 -0.21705 0.89043 0.30797 -0.22419 1.2145 0.41277 -0.34257 -0.39811
financial_industry_regulatory_authority||m.02w85_g -0.088645 0.050937 -0.2970755 -0.23633075 -0.1423075 0.134508 -0.42720525 -0.16899 0.28979135 0.215846 -0.23493 0.603851 -0.379129 -0.5176025 0.117343 0.793585 -0.169555 0.03677425 0.25796375 -0.3016425 -0.0101685 0.1454275 -0.200885525 0.24302425 0.2733875 -0.17868875 0.94188 -0.01984525 -0.423766975 0.211135 0.42677 0.29637425 -0.1116695 -0.9010525 -0.38134535 -0.61062 0.377025 0.3224005 -0.31278075 0.04590375 0.1329815 -0.4538975 0.471875 0.00839575 0.0385815 0.2616225 -0.02802275 0.21927 0.165115 0.49013325
houston_rockets||m.0jmfb -0.139745 0.1705865 -0.387245 0.290215 0.85895 0.991285 0.000636 0.67864 0.616625 0.50816 0.25303 0.0705812 0.108981 0.340094 0.02636 1.46625 0.141134 -0.26546 -0.03217 0.35418 -0.28412 0.2158295 0.316475 -0.87983 0.203967 -0.37349 0.57087 0.34303 0.543235 -0.196925 -0.301135 -0.267685 0.383965 -0.274875 0.285185 0.081026 0.656825 0.18868 -0.102445 0.12351 -0.092925 -0.43642 0.131873 0.80656 0.1242955 -0.335035 0.20721 -0.0800817 -0.46919 -0.1130005
spurs||m.0jmh7 -0.38812 0.05302 -0.48657 1.0106 0.73526 0.19949 -0.57071 0.3319 0.47504 0.2634 -0.21074 0.66054 0.10812 0.57089 -0.33726 0.36822 0.17685 0.36892 0.90242 0.085783 -0.39147 0.062241 0.13161 -0.96183 0.91654 -0.61412 0.63237 1.0284 0.19312 -0.42597 -0.52369 0.3106 0.47697 -0.48408 0.85622 0.40845 1.52 -0.3567 -0.12718 0.93342 0.37015 -0.33301 0.29129 -0.0087315 -0.078856 -0.81929 -0.32531 -0.41402 0.10477 0.038716
celtics||m.0bwjj -0.43332 0.65539 -1.5554 1.1158 0.72214 1.2066 -0.32469 0.28689 -0.013235 0.13065 -0.081293 0.35265 0.17016 0.32587 -0.16712 0.39636 0.65526 0.45409 0.20915 0.059328 -0.11959 0.016637 0.039101 -0.3379 0.93289 -1.1272 1.0732 0.55273 0.51249 -0.34688 -0.39741 0.54887 0.43009 -0.2581 0.94516 -0.13952 1.5757 -0.76367 -0.084559 0.25671 0.18946 -0.63073 0.2457 0.56862 0.49277 -1.2299 -0.53099 -0.44141 -0.32239 0.098906
bulls||m.0jm74 -0.87621 0.27631 -0.42815 0.69473 0.57203 0.81368 0.072513 0.062574 0.3018 0.68453 0.045201 0.60859 -0.059712 0.60692 -0.13567 0.023973 0.038036 0.29261 0.054515 -0.63391 -0.096324 -0.014693 -0.070679 -1.0954 0.50024 -1.0988 0.68529 0.29158 0.34797 -0.72065 -0.48979 0.083054 0.20205 -0.21339 0.48148 -0.35946 1.2169 -0.35955 -0.59451 0.311 0.25843 -0.022649 -0.3573 0.38449 -0.11286 -0.95454 0.22005 -0.3088 -0.42324 0.090786
cavaliers||m.0jm7n -1.4474 -0.1961 -0.93234 1.2773 0.67816 0.94031 -0.31263 0.21998 0.11537 0.66243 0.028067 0.2981 -0.081185 0.27335 0.078683 0.54465 0.18484 0.43932 0.13402 0.35374 0.23587 -0.19812 -0.052622 -1.285 1.0836 -1.5472 1.1907 0.31414 0.60299 -0.28563 -0.28793 0.26945 1.1014 -0.051748 1.1721 -0.031204 1.061 -0.092031 -0.00068599 0.36415 0.37622 -0.67411 -0.080882 0.22854 0.11508 -1.1222 -0.59341 -0.35309 -0.80395 0.063945
nov||m.05cw8 -0.53271 0.46853 -1.1843 0.13955 0.17024 0.32216 -0.47127 0.15494 -0.10882 0.037463 0.38899 0.62841 -0.57459 -0.17271 0.3282 0.57654 -0.41828 -0.13118 -0.52454 -0.2418 -0.37011 0.41613 0.57186 -1.0557 -0.4653 0.32709 0.46599 0.35233 0.31465 0.57606 -0.29714 -0.67274 0.56289 0.093053 0.16204 0.1358 0.033217 -0.46226 0.47593 0.65252 0.062931 -0.33539 0.25537 -0.35439 0.63563 -0.037364 0.12863 -0.20617 -0.1791 0.19219
suns||m.0jml5 -0.73128 -0.10945 -0.99485 1.1924 1.0125 0.7 -0.37483 0.21348 0.62902 -0.10023 0.33757 -0.085306 0.29142 0.51427 0.20829 0.48093 0.41838 0.60343 0.01124 0.1629 -0.18696 0.0090406 0.18915 -0.99698 0.81534 -0.89689 0.61238 0.66051 0.52376 -0.11125 -0.40311 -0.11733 1.0912 -0.57506 1.1494 -0.15244 0.75823 -0.027525 -0.24012 0.652 0.1306 -0.49153 0.20471 0.32647 -0.065969 -0.98854 0.36153 -0.43514 -0.43732 0.4417
timberwolves||m.0jmgb -0.67278 -0.16874 -0.79612 1.1325 0.43408 1.1028 -0.33042 0.049282 0.090125 0.3446 0.21323 0.0792 0.50068 0.69976 0.11282 0.79012 0.43249 0.4867 0.38515 -0.09234 -0.011089 -0.18623 0.41642 -1.4237 1.2621 -0.46807 0.78419 0.88754 0.32204 0.46747 -0.15858 -0.10305 0.71631 -0.48814 1.1754 -0.1058 1.2074 -0.23263 -0.5567 0.43893 -0.022715 -0.47847 0.18216 0.06146 -0.041131 -1.0079 -0.16412 -0.82924 -0.86318 -0.032653
vice_president_joe_biden||m.012gx2 -0.423795 -0.18023975 0.02522675 0.252085 -0.3782825 0.5868275 -0.391627 -0.08869825 0.2336485 -0.34228775 0.664055 -0.04697 -0.06771675 -0.0851775 0.7201175 0.4161925 -0.706975 0.14707275 0.289155 -1.164365 -0.6283775 -0.48913 0.6302675 0.006755 0.235955 0.1795025 0.4574675 0.16558175 0.56887 0.073188 0.499235 -0.125883425 -0.11223975 -0.296313 -0.6289925 -0.19123 0.54819 -0.378565 -0.380325 0.06815725 0.09169025 -0.4828 -0.07301775 -0.019665 0.6233425 -0.4001555 -0.150942 0.2032475 0.237045 0.36212875
texas||m.07b_l -0.44278 0.30225 0.094375 -0.4162 0.24919 0.98248 -0.38175 0.14804 0.08058 0.48695 -0.036484 -0.63956 0.0023938 0.47521 0.36518 1.1357 -0.55063 0.27867 0.21913 0.30596 0.67988 -0.17071 1.324 -0.60935 -0.27562 -0.012584 0.93807 0.33243 -0.22182 0.4816 -0.028847 0.039304 -0.24541 -0.47111 -0.21887 -0.57093 0.20679 0.31406 -0.23453 0.27198 0.44375 -1.0116 0.18713 0.71137 -0.12118 -0.26419 -0.24234 0.10332 -0.15466 -0.16394
philadelphia||m.0dclg -0.38207 0.42467 -0.98331 0.47162 0.66198 1.3545 0.016094 0.26874 0.44551 0.26833 0.3317 0.82293 -0.24859 0.31767 -0.057918 0.59853 0.095145 0.080122 0.28358 -0.13036 0.21754 0.012955 0.63276 -0.63635 -0.22291 -0.66953 0.223 -0.32321 0.17975 0.55191 -0.43375 0.088685 -0.3975 -0.16314 0.21248 -0.32895 0.37148 0.52281 -0.019381 0.26303 0.73321 -0.69491 -0.032935 0.34592 0.80474 0.29849 -0.20142 -0.27313 -0.30934 -0.084785
doctor||m.05t4q -1.0103 0.26267 -0.28967 -0.010964 0.20978 0.5279 -0.28248 -0.32852 -0.052114 0.52263 -0.54947 0.57558 -0.39371 -0.020831 -0.25852 0.27321 -0.67751 0.099421 -0.0071713 -0.17612 -0.69517 -0.017341 0.21573 -0.37154 -0.19361 0.047931 0.15236 0.3506 0.5479 0.8138 0.15512 0.64929 -0.64836 -0.43385 0.050236 0.16825 0.071277 0.51274 -0.549 -0.16609 -0.23655 0.06504 -0.28371 0.083071 0.14407 -0.74889 0.29471 0.75847 0.24746 -0.38617
nbcuniversal||m.02_l39 0.79301 0.42317 -0.90456 -0.29559 -0.50259 0.062969 -0.98265 -0.31161 0.86928 -0.1151 0.33323 -0.1774 -0.95296 -0.050434 -0.19402 1.0117 -0.89885 0.3236 0.33147 -0.83373 -0.6053 -1.135 0.098192 -0.20549 1.1925 -0.68004 -0.057489 0.74084 -0.27608 1.0818 0.85031 -0.34587 -0.31418 -1.0178 -0.25885 -0.011983 1.0947 0.12361 0.081559 1.2033 -0.33182 0.08627 0.30933 0.65745 0.82044 -0.33615 0.19928 -0.20959 0.30674 0.83788
fox||m.016tt2 -0.012434 0.53296 -0.85117 -0.33296 0.21502 0.27443 -0.25873 -0.33295 0.55986 0.67298 0.25575 -0.70013 -0.46808 0.14859 -0.084049 0.49754 -0.83157 0.90569 0.36267 -0.56626 -0.2233 -0.65452 0.79597 -0.28769 0.5479 -0.60647 0.0025069 -0.24771 0.058167 0.20889 0.4855 -0.50368 -0.59497 -0.38173 0.078612 0.70494 0.38109 0.13352 0.055472 0.6946 0.019356 -0.22414 0.63175 0.59214 0.38652 -0.72916 0.34515 -0.11045 0.18649 0.67797
piracy||m.0ddct -0.54275 0.080722 -0.84623 -1.4214 -0.83671 0.027871 -0.88083 0.10873 1.0232 0.76054 0.33368 -0.35799 0.45264 -0.27565 -0.4088 0.00085524 -0.48671 -0.32356 -0.13517 -0.58641 -0.65774 0.33097 0.36422 -0.40392 -0.10474 0.27463 0.52805 0.2746 -0.33021 -0.56738 0.61853 -0.076651 -0.036831 -0.52136 -0.24875 -0.54308 0.55789 0.76951 0.38431 0.54298 -0.31356 -0.56575 0.74491 0.51941 -0.043839 0.42061 -0.25546 -0.4319 0.20895 0.25564
sports||m.06ntj -0.12062 0.38705 0.042755 -0.109 -0.16281 0.22365 0.27094 -0.41654 0.42506 0.047863 0.012517 0.019836 -0.13578 -0.57569 -0.28446 0.39393 -0.81993 -0.21543 0.30803 -0.53023 0.41182 0.12027 0.49269 -0.39957 0.70001 -0.50247 0.43275 -0.18205 0.050625 0.15362 0.053001 0.46517 -0.45597 0.17046 -0.42205 0.064579 0.69931 -0.032977 -0.72624 1.0062 -0.079023 -0.50759 0.12533 0.42136 0.51403 -0.27514 0.95957 0.23791 -0.23494 0.64054
destiny||m.02d9wb -0.033378 0.10317 -0.61851 0.32458 -0.50831 0.28484 -0.97675 0.053377 0.63748 0.72219 -0.10094 0.0839 -0.38405 0.22913 -0.19403 0.13529 -0.11191 0.38685 0.31986 0.19701 -0.20783 0.57533 0.049067 0.45522 -0.17929 0.43679 0.011577 0.012822 0.29651 0.056038 -0.27577 0.078525 -0.090768 -0.21063 0.95322 -0.5282 0.52545 -0.30527 -0.43966 0.81478 0.19266 -0.59112 0.23168 -0.80215 0.41413 -1.4145 0.87312 -0.020747 -0.19408 -0.15868
grand_central||m.01rz3c 0.09645 0.25201 0.62193 -0.225375 -0.25885 0.16038 -0.408525 0.119773 -0.0654244 0.76239 0.160655 0.3066605 -0.05473 -0.54889 -0.027086 0.668715 -0.1024105 0.014215 -0.1654145 -0.27237 -0.1087255 0.0014315 -0.21268 -0.9074 -0.516005 -0.75275 0.47574 -0.208508 -0.01161 0.36953 0.50994 0.0323785 0.313715 0.13115015 -0.174603 -0.2462115 0.503575 -0.0653505 0.3016835 0.47487 0.39765 -0.76714 0.19949 -0.516745 0.421795 -0.25163 0.37407 -0.020945 0.17051 0.036925
miles||m.04vb3 -1.3338 0.32318 0.43792 0.81417 -0.42435 0.026296 -0.97978 0.56007 0.82938 -0.15166 0.28155 -0.074101 -0.36722 0.59576 0.77309 0.81428 0.38947 -0.60667 -0.62908 0.17055 0.22767 -0.30825 -0.29771 -0.84144 -0.53133 0.30973 0.48515 0.13642 -0.23552 -0.39901 0.42422 0.26052 -0.10152 0.060542 -0.23879 0.29117 -0.37678 0.18271 -0.283 0.48089 0.30036 -0.99452 0.55152 0.50874 0.58192 -0.35464 1.1767 -0.39025 -0.50186 0.27301
anna_nicole||m.0hwfl -0.64759 0.1143435 -0.147301 0.762215 -0.001658 0.1008185 0.18556 -0.837645 0.637365 0.56057 0.134794 -0.094985 -0.192685 -0.368495 0.310685 0.0635205 -0.60982 -0.27854 0.47766 -0.53935 -0.47936 0.471825 -0.073303 -0.558385 -0.13678 -0.432885 -0.374622 -0.560375 0.392055 0.654465 -0.0262045 0.2516585 0.294305 -0.1563425 0.15456 0.0423105 -0.44512 0.19457 0.48053 0.112785 0.290955 -0.635875 0.41384 -0.1973 0.73503 -0.864895 -0.0525125 -0.24247 0.37237 0.1485155
brooklyn||m.0cr3d 0.1236 0.43177 -0.35454 0.024863 0.45758 0.79132 -0.16795 -0.217 0.74044 0.39024 -0.062081 0.094615 -0.6942 0.099582 0.63962 0.48072 0.36031 -0.61275 -0.072535 -0.92939 -0.030604 -0.25009 0.74748 -0.55657 -0.64177 -0.12171 0.36793 0.18503 0.13281 0.13957 0.055789 -0.13432 -0.30302 0.021504 0.46202 0.12308 1.1864 0.32521 0.68091 0.34873 0.66343 -0.030583 -0.39 0.052064 0.58368 -0.55283 -0.30045 0.15914 -0.044605 -0.14984
chorus||m.0l14jd -0.08909 -0.20363 -0.48112 0.35804 -0.71816 0.52412 0.56529 -0.37166 0.97402 0.17038 0.2552 0.083991 0.029993 0.045309 0.079346 0.88699 0.71082 -0.040629 -0.099122 -1.343 0.054411 0.33451 0.048054 0.05159 -0.081981 -0.75177 0.52802 0.41376 -0.35671 0.24133 -0.19761 0.044527 0.077727 0.39434 0.57129 0.41953 0.14304 -0.32144 -0.32978 0.39714 -0.14597 -0.20798 0.30174 -0.024549 0.24127 -0.52467 -0.54519 -0.21057 0.61254 -0.32632
anna_nicole_smith||m.0hwfl -0.565033333333 -0.0512343333333 -0.359384 0.514803 0.319781333333 0.289359 0.0272 -0.538233333333 0.544236666667 0.47563 0.159129333333 -0.118406666667 -0.192256666667 -0.0719666666667 0.38599 0.101537 -0.541696666667 -0.0372 0.3989 -0.541796666667 -0.438593333333 0.434263333333 0.102071333333 -0.471853333333 -0.0965363333333 -0.393646666667 -0.151428 -0.556576666667 0.252436333333 0.414332 -0.0429196666667 0.266229 0.284873333333 -0.197935 0.229006666667 0.115923666667 -0.08879 0.139848 0.290582333333 0.0804776666667 0.182833 -0.53953 0.226696666667 -0.0502166666667 0.702766666667 -0.741936666667 -0.0849683333333 -0.152649333333 0.160196666667 0.079465
